svm_type c_svc
kernel_type rbf
gamma 0.5
nr_class 15
total_sv 376
rho -0.881611 -0.474638 0.175188 -0.332793 -0.649481 -0.0503587 0.176528 0.30247 0.299079 0.299345 0.296922 0.295097 0.299471 0.297703 0.699706 0.91538 0.776642 0.600876 0.870027 0.911438 0.934372 0.934313 0.934344 0.934012 0.933765 0.934368 0.934121 0.602495 0.168395 -0.258401 0.435457 0.584578 0.677787 0.677537 0.677682 0.67622 0.67518 0.677799 0.676743 -0.480001 -0.740409 -0.222853 -0.0238898 0.131215 0.130803 0.131023 0.128368 0.126422 0.131212 0.129285 -0.404001 0.288016 0.461692 0.574965 0.574748 0.574855 0.573054 0.571722 0.574962 0.573693 0.623877 0.736857 0.794436 0.79427 0.794384 0.793346 0.792608 0.794491 0.79368 0.229511 0.343966 0.34359 0.343752 0.341438 0.339703 0.343969 0.342235 0.155248 0.154205 0.154431 0.151807 0.149866 0.154622 0.152701 -0.000429203 -0.000204266 -0.00289511 -0.0048728 -5.20586e-07 -0.00198273 0.000226352 -0.00246588 -0.00444376 0.000428695 -0.00160756 -0.00269155 -0.00467025 0.000203458 -0.00177967 -0.00197783 0.00289465 0.000912792 0.00487731 0.00289066 -0.00198236
label 1 2 3 4 5 6 7 8 -1 -2 -3 -4 -5 -6 -7
nr_sv 30 4 16 30 18 11 28 29 30 30 30 30 30 30 30
SV
0 0 0.0008862559974149843 0 0 0.01086668383095542 0.7775043085543898 0 0 0.0006151680909281306 0 0.001064850067800632 0.00065906931301881 0 1:22.523246 2:22.270554 3:22.736188 4:20.473766 5:16.774886 6:20.180397 7:24.409183 8:26.275371 9:25.222606 10:1.1978813 11:1.4777049 12:1.2535331 
0.04882839666056944 0.2180269578421765 0.4870174053602444 0.2767817446357879 0.1450108842736656 0.3778762053221052 0.3532711668285021 0.6266109864700671 0.5389203825361425 0.5390622665326204 0.5385248751171133 0.5366917617430566 0.539037160125182 0.5385556430671442 1:22.556008 2:22.250379 3:22.678595 4:20.204346 5:16.553914 6:20.190197 7:24.500366 8:27.626286 9:25.636686 10:1.2160131 11:1.5567427 12:1.2738612 
0.07369547519831592 0.3271346133961195 0.7309749631520637 0.4160437737593331 0.2187940449710914 0.6874171106130494 0.8659867640993748 0.7997839231435682 0.8088810956067633 0.8084108329230837 0.8073041141994172 0.8051030742808424 0.8086132627546289 0.8074419608898481 1:22.482844 2:22.285075 3:22.737234 4:20.1925 5:16.884457 6:20.874991 7:24.16306 8:25.951057 9:25.161871 10:1.1996483 11:1.4558882 12:1.2155536 
0.08699045125996625 0.388337107787103 0.8684051042609622 0.493049658892459 0.2587187521073745 0.7208161182045048 0.9559717703593514 0.9646790236019559 0.9604716496200962 0.9601812106623112 0.9583711556206371 0.9573055359701259 0.960701106910681 0.9587562587807541 1:22.531721 2:22.266389 3:22.513938 4:18.701629 5:18.317714 6:20.241694 7:23.960446 8:25.268531 9:26.6764 10:1.2644247 11:1.3495021 12:1.3235509 
0.07289842644542649 0.3227850093233373 0.7206389127156362 0.4092819320115322 0.2155063344221628 0.5904148474428261 0.838541168844102 0.8005630353140316 0.7962627420651463 0.7966780149643242 0.7948798736348818 0.793445591227576 0.796631642843512 0.7948875643559408 1:22.516887 2:22.342511 3:22.546642 4:18.513543 5:17.952229 6:19.82422 7:24.20532 8:26.423343 9:26.101914 10:1.2861948 11:1.4259459 12:1.315656 
0.006145865046098732 0.02872336706680254 0.06498992652332003 0.03706703536827734 0.01873543429652238 0.03944470289122246 0.7505424703929851 0.05993381333162043 0.07161029408257125 0.07250597821055602 0.07221283669428577 0.07277612750012143 0.07190024274782957 0.0729513816302665 1:22.527281 2:22.220795 3:22.518073 4:18.963543 5:17.306657 6:20.415103 7:24.02464 8:26.186343 9:25.738571 10:1.2544829 11:1.4464897 12:1.2676755 
0.04923168653096778 0.2180103850844565 0.487705493268856 0.2766567189572675 0.1451644327450722 0.3871666501739142 0.2853413264736504 1.665118850996399 0.5384232028497347 0.538332880308416 0.5385607608789158 0.5364910798339851 0.5381965571243373 0.537536955942195 1:22.573113 2:22.216569 3:22.448518 4:19.843771 5:16.209114 6:17.594286 7:23.954117 8:27.996714 9:25.154149 10:1.206677 11:1.5927059 12:1.3801262 
0.03979804791368768 0.1811568731245087 0.4040555456039487 0.229844683967125 0.1211179582125058 0.3655790282445732 1.24041508238211 0.5651545496886348 0.4480688350849482 0.4476039921981141 0.4469171772628801 0.4463468027311842 0.4483958068166184 0.4472110905229284 1:22.633405 2:22.195613 3:22.396794 4:19.6438 5:16.690629 6:18.992114 7:24.114191 8:27.259714 9:24.495066 10:1.2247809 11:1.5314364 12:1.2767003 
0.05052929192814836 0.2202751066913328 0.4933747730280032 0.2795628829646751 0.1467393642713357 0.3816128321419486 0.381528140231907 0.5637132813322943 0.5441020747123866 0.5449704651558279 0.5435848163532761 0.5431876557219747 0.5439759892726538 0.5441742024866824 1:22.583587 2:22.206638 3:22.453345 4:20.343891 5:16.915971 6:19.420629 7:23.881343 8:27.300943 9:24.4743 10:1.1778707 11:1.5221787 12:1.2541095 
0.1150939892863889 0.5095235654125404 1.140099781504075 0.6470567495643319 0.3396567467265765 0.9213954170429072 1.17553746474988 1.263027612178444 1.260047396824312 1.259654407303059 1.257627311423921 1.255780912627333 1.260294861693223 1.258568575757127 1:22.603596 2:22.02078 3:22.534762 4:16.481571 5:14.268171 6:17.435429 7:24.997446 8:26.346743 9:27.717114 10:1.4281965 11:1.6073366 12:1.5169853 
0.0939113900829206 0.4174303201469395 0.9335157502881036 0.530148781733698 0.278513547775683 0.7549524752247177 0.9387324271262103 1.035495663670562 1.032371333528027 1.032777178778722 1.030468450162434 1.029549258806 1.032810303309705 1.031307371120962 1:22.524563 2:22.06325 3:22.510451 4:14.504914 5:16.252943 6:18.516343 7:25.477229 8:27.488971 9:28.158286 10:1.5517116 11:1.5649717 12:1.4848177 
0.08870438074032755 0.3927224064320684 0.8787601084181608 0.4985005601599585 0.2621187589425383 0.7101495860929148 0.8853959990275678 0.9735189531597723 0.9710018932781496 0.9718723261639688 0.9712715673218288 0.9679828669951958 0.9714453246356182 0.9703829674363158 1:22.539306 2:22.205918 3:22.521443 4:15.150829 5:15.5218 6:17.421914 7:25.802714 8:28.070114 9:28.412371 10:1.5355998 11:1.6309563 12:1.5526239 
0.1174816059950157 0.5226242733348623 1.169274001393308 0.6641299664169601 0.3488161554385917 0.9448542105323139 1.170661808180787 1.295507772575641 1.292854882844378 1.292601390586395 1.290462744804599 1.288334828104284 1.293131765406286 1.291187780148389 1:22.480436 2:22.359879 3:22.431544 4:19.234629 5:11.348943 6:13.733486 7:24.255397 8:29.112829 9:28.208257 10:1.2524551 11:1.8932064 12:1.7278227 
0.09863669620288453 0.4398171781916682 0.9826529170924432 0.5575109254023379 0.2932293137877195 0.7940805280902082 0.9831910833678424 1.088622784033249 1.086273982610133 1.085992098666496 1.084614801844112 1.083152699307835 1.0862614652743 1.085180862060819 1:22.543051 2:22.287078 3:22.464426 4:18.815743 5:11.537657 6:16.196914 7:24.357771 8:30.789971 9:27.125029 10:1.2786651 11:1.9680478 12:1.5494891 
0.09820132302398356 0.4353474631800975 0.9743478438177211 0.5535098463606401 0.2904849779392713 0.787220448898956 0.977127086767716 1.079940073034192 1.076818565919016 1.077508513323293 1.074945911163205 1.073563647868739 1.077484288477937 1.075584653510849 1:22.553966 2:22.259304 3:22.572587 4:19.340229 5:11.934543 6:17.370286 7:24.530443 8:29.688114 9:26.635629 10:1.2609752 11:1.8926878 12:1.4658814 
0.009183910450395825 0.04374056451451955 0.09724269532535151 0.05439309449715657 0.02806161739710626 0.07398747964987189 0.4157681567265539 0.08983783087585819 0.1063447258463924 0.1065675397861006 0.1059867178761802 0.1054785632316794 0.1056578475284911 0.1060201126826106 1:22.511907 2:22.159464 3:22.679525 4:19.916983 5:15.151086 6:20.217454 7:23.93346 8:27.401343 9:25.466457 10:1.2019571 11:1.6159693 12:1.2639312 
0.05746587469508558 0.2550222247777201 0.5717004339491238 0.3246511860931366 0.1714274017235405 0.4702336006666487 0.902609037906191 0.6089306893314489 0.6319828463081324 0.6322552490527018 0.6317503165851641 0.6312521275717274 0.6331434751909058 0.6315649845909137 1:22.637883 2:22.150875 3:22.551612 4:19.758689 5:15.911829 6:20.837923 7:23.906223 8:27.545057 9:25.025469 10:1.208547 11:1.5849438 12:1.2105588 
0.1035982957131263 0.4576163933788828 1.024295583880255 0.5824860091110187 0.3061890166670703 0.8334195618787712 1.551460773977587 1.139065972299607 1.133218565499562 1.133371712207158 1.130867031936601 1.129886508011214 1.133728635471258 1.131930499270703 1:22.511375 2:22.245032 3:22.519505 4:19.602257 5:13.9176 6:20.027683 7:23.957054 8:27.057 9:25.372211 10:1.2189686 11:1.6606773 12:1.2687344 
0.05467912975691681 0.2427822352662244 0.543287042940645 0.3080101072576512 0.1619874705330885 0.6038957628210027 0.534953067532061 0.6062812336485979 0.600875227796507 0.600238195800585 0.5991043328554736 0.5983302018522942 0.6003736793599844 0.599039430520115 1:22.57726 2:22.280032 3:22.359499 4:19.171857 5:16.156514 6:19.898323 7:23.694817 8:25.044543 9:25.270754 10:1.2274242 11:1.4469092 12:1.2701374 
0.003194207868654665 0.01312013086217973 0.02891498127995949 0.01557133896136373 0.009149443791333098 0 0.8434378024988767 0.0193566643096794 0.03146731246132214 0.03212120878532098 0.03260361497493999 0.03188126399698527 0.03206911184835688 0.03180215145231606 1:22.552824 2:22.214384 3:22.438659 4:19.567486 5:15.320229 6:19.601857 7:23.883437 8:25.5302 9:25.5374 10:1.2170153 11:1.5133794 12:1.2984519 
0.073858257818588 0.3261842917867917 0.7300462865091173 0.4158692331451626 0.2175991082593925 0.6097284327092075 0.4255265781680872 0.812894240762108 0.8075445819162687 0.8072011904384769 0.805684811447842 0.8053449594391796 0.8074022532059022 0.8070336923713608 1:22.602898 2:22.18556 3:22.37108 4:19.904131 5:15.4824 6:19.406914 7:23.728586 8:25.097506 9:25.396786 10:1.1923018 11:1.4834682 12:1.3011836 
0.08140273145619149 0.3615706996536314 0.8067972754839122 0.4590515217542937 0.2411285893170962 0.6524286031871791 0.7908079936837461 0.8938225222265515 0.892444918085738 0.8919005899158493 0.8903488571931844 0.8891993136555912 0.8926523052706149 0.8916229746347184 1:22.657054 2:22.090401 3:22.432515 4:18.107257 5:14.240057 6:17.534714 7:24.888754 8:29.109029 9:25.657429 10:1.3409883 11:1.7476439 12:1.4084276 
0.04012955340690086 0.1784322154553152 0.400888172774395 0.2265247364380603 0.1190234721429575 0.3231016780177246 0.4190369831577188 0.4394957891215895 0.4418146242035291 0.442840436563271 0.4419715334171686 0.4410810498474525 0.4422447519094593 0.4414494786126992 1:22.661171 2:22.025286 3:22.420961 4:17.542029 5:14.303286 6:18.091 7:25.0842 8:28.487029 9:25.912257 10:1.3792366 11:1.7131892 12:1.3932697 
0.09870977913375105 0.4354220444259657 0.9744814654003056 0.5535205558333899 0.291031544359499 0.7879411038335801 1.206144023982467 1.082054965664633 1.077661158038274 1.077075164224281 1.075560631360233 1.073791962360075 1.078135208551626 1.076187028196138 1:22.673438 2:22.092726 3:22.397365 4:16.789629 5:15.1898 6:18.902457 7:24.47494 8:28.774629 9:25.701857 10:1.386434 11:1.6830745 12:1.3418885 
0.07553765955653315 0.3340058959143969 0.7465907726408587 0.4242008016359213 0.2225063349030443 0.6043054076010754 0.661726649931631 0.8321805626645014 0.8257059733127462 0.8260025910530342 0.8239998500031047 0.8229388404608559 0.8260169280331333 0.8244753334699398 1:22.567373 2:22.178472 3:22.567209 4:17.906229 5:17.890029 6:17.222 7:24.229714 8:27.455543 9:27.798314 10:1.3179585 11:1.4809747 12:1.5317999 
0.08849719003414248 0.3917542560809317 0.8765483909529513 0.4977516016457003 0.2614394398627859 0.7085059242784384 0.870263937682378 0.9718010638857109 0.9692451468601014 0.9697384695794125 0.9672555105605867 0.9664470653051874 0.9699967297008822 0.9683145091834133 1:22.546538 2:22.114553 3:22.58283 4:16.8986 5:16.725686 6:16.746314 7:24.317297 8:28.436429 9:28.161857 10:1.3730281 11:1.5888414 12:1.5739981 
0.05325183754833456 0.2359571407106231 0.5279508105692313 0.2991797845586123 0.1578757716775202 0.425822558407118 0.8248956936660649 0.5845583156930718 0.5831906654277439 0.5832953785053099 0.5826150133262418 0.5818888633400551 0.5830294176513786 0.583052681803741 1:22.563588 2:22.291987 3:22.576539 4:17.1256 5:17.148086 6:17.747171 7:24.247851 8:27.454114 9:27.6308 10:1.3581221 11:1.5182093 12:1.4969701 
0.05456436211016956 0.2404849844831427 0.5382469106097489 0.3052272627398732 0.1608442501038532 0.4357463265277766 0.6797889680694579 0.7800262639833919 0.5947420088766107 0.5948493065321537 0.5936967868737544 0.5926720472869038 0.5951145996615405 0.59447195325503 1:22.532842 2:22.241657 3:22.493928 4:19.618343 5:15.491171 6:18.150143 7:24.186817 8:28.053257 9:25.909286 10:1.2297127 11:1.6316487 12:1.3901464 
0.003645167916111055 0.01821866909998114 0.04207610267652713 0.02429133666495806 0.01172188724158233 0.03472726532560125 0.1067257252234041 0 0.04607381150498429 0.0483507165954225 0.04551230946884705 0.04740074297289534 0.04674285073615354 0.04737873340441866 1:22.51414 2:22.160866 3:22.507128 4:19.294743 5:16.160486 6:17.366429 7:23.826474 8:27.5398 9:25.875286 10:1.2278652 11:1.5721764 12:1.4278437 
0.07529533255011531 0.3324874588746833 0.7430367835781937 0.4217001874862117 0.2223109793952239 0.6006006502893803 0.7744488540974959 0.7386535757849385 0.8221753595051812 0.820243744591307 0.8208704961537011 0.818385533956173 0.8215070484154737 0.8200146735333751 1:22.531757 2:22.338056 3:22.515017 4:19.520829 5:16.723371 6:17.349971 7:24.01962 8:27.634914 9:26.379629 10:1.2262089 11:1.5486559 12:1.4540306 
-0.6628188137524064 0.5959642543459938 0.6722263198204972 0.6233426948840368 1.103696554908494 0.6489175047144337 0.6714323236000458 0.6778554091656726 0.6778550782160281 0.6777939111955521 0.677858837776127 0.6778345219418617 0.677854481309315 0.677858590375661 1:22.629565 2:22.536601 3:22.59013 4:22.61609 5:22.506263 6:22.572758 7:22.64015 8:22.554839 9:22.609975 10:1.0012098 11:1.0024425 12:1.0018713 
-0.482039147341538 0.4394709926512093 0.492529846322621 0.4601269733066 0 0.4862469640483149 0.4964045087978466 0.4991586191421304 0.4997456412777317 0.4996580945033179 0.499741857308565 0.4997637909073945 0.4991026052395127 0.4997421676671719 1:22.612641 2:22.57638 3:22.693145 4:22.59709 5:22.546447 6:22.678645 7:22.629727 8:22.602445 9:22.70765 10:1.0016411 11:1.0028157 12:1.0014585 
-0.7683023552357736 0.6926835558755906 0.7830264192416001 0.7232171034746898 0 0.7661483713639192 0.7760316443965611 0.7898165999584971 0.7890976422587137 0.7893256996862996 0.7890217021748804 0.7888789604637505 0.7898126219150178 0.7889756069469547 1:22.59975 2:22.667841 3:22.603061 4:22.583057 5:22.647266 6:22.590894 7:22.614934 8:22.695131 9:22.619225 10:1.0016029 11:1.0024068 12:1.0014245 
-0 0 0 0 0.9476678476863323 0 0 0 0 0 0 0 0 0 1:22.621244 2:22.567815 3:22.626893 4:22.604022 5:22.514957 6:22.596501 7:22.633043 8:22.611217 9:22.658492 10:1.0014592 11:1.0048402 12:1.0031171 
-0.2469305855190165 -0.05112592307519103 0.2655659884409323 0.1949686240749649 0.1580192235649238 0.2419558431543194 0.2682606984056518 0.2822434553388566 0.2813393318699275 0.2815300922464604 0.281008968986366 0.2805898629703542 0.2809297557954086 0.2813706196141618 1:24.528926 2:20.215299 3:23.357637 4:22.411693 5:19.423457 6:22.360662 7:25.5716 8:22.84734 9:23.950923 10:1.1588869 11:1.1721602 12:1.0799618 
-0.4803013231633826 -0.09881201423678204 0.5210148949015921 0.3807631783375011 0.3293631948429814 0.4686982545053776 0.5163536132845589 0.5472702489261792 0.5469739522356154 0.5466184204646722 0.54658400597013 0.5451350582586579 0.5469465459848178 0.5466625776631062 1:24.428431 2:21.046736 3:22.920544 4:22.61304 5:20.060954 6:22.287109 7:25.905 8:22.537239 9:23.615989 10:1.1655269 11:1.1245129 12:1.0668189 
-0 -0 0 0 0.001841426334779661 0 0 0 0 0 0 0 0 0 1:24.27903 2:21.060276 3:22.304278 4:22.179683 5:18.526629 6:21.706309 7:26.788171 8:23.03794 9:23.330297 10:1.2317247 11:1.2268385 12:1.0816576 
-1.472526828883439 -0.2996263217715195 1.601006703918876 1.166953552687552 0.7408759409553789 1.433370601336285 1.582264548704432 1.675416819977539 1.675071115272319 1.675072474068314 1.674007380946752 1.672372967648928 1.67525907608497 1.673998328528131 1:24.261889 2:20.665409 3:23.223205 4:21.123654 5:19.117771 6:17.537629 7:26.2892 8:23.621634 9:24.500129 10:1.2597348 11:1.2264639 12:1.3500895 
-0 -0 0 0 0.02995103433394578 0 0 0 0 0 0 0 0 0 1:24.363456 2:20.503603 3:23.380913 4:22.42051 5:18.702914 6:22.076989 7:26.102714 8:22.391502 9:23.965337 10:1.1851492 11:1.1854701 12:1.0949502 
-0.7419141210708788 -0.1510038339558366 0.8115877047294809 0.5880474564775163 0.3495300021041407 0.721878649987958 0.7967576272039491 0.8435708885155081 0.8436455203997709 0.8434862645996898 0.8431310391870591 0.8427272222541927 0.8436162428256429 0.843212677489487 1:24.848054 2:20.253054 3:23.51308 4:21.856237 5:19.019486 6:22.354948 7:26.601943 8:23.370734 9:24.057454 10:1.2386243 11:1.2187902 12:1.0856057 
-0.6260225644398149 -0.1256635179655779 0.6838617949657636 0.49672877796993 0.3722974450583436 0.6076370784166201 0.6707558705447991 0.710345761985228 0.7104127262582367 0.7110303835118871 0.710492741939242 0.7113443552941745 0.7113504691997827 0.7104634455453099 1:24.246534 2:20.650565 3:23.248161 4:22.557635 5:19.478686 6:22.471203 7:25.827629 8:22.556883 9:24.427454 10:1.1644223 11:1.1547784 12:1.0983645 
-0.06004004435589556 -0.01288772584315354 0.05774378847368766 0.04715103419212493 0 0.05896488501348215 0.06481691250341916 0.06911002594430463 0.06895001356230225 0.06870841565248262 0.06834106848745052 0.06768938173603045 0.06922636340769604 0.06934267623967695 1:24.466123 2:20.584784 3:23.268374 4:22.529504 5:19.311629 6:22.466726 7:26.9156 8:22.613115 9:24.213946 10:1.2205423 11:1.1660059 12:1.087854 
-1.472306714597206 -0.2998880669718739 1.599925418500161 1.166939996325708 0.7409543688332226 1.433389321658509 1.581974025548429 1.675524060385697 1.675223969651284 1.675324887199373 1.673958884208088 1.673171747915619 1.67553060150581 1.674439625995093 1:25.015077 2:20.745948 3:22.490306 4:22.177989 5:18.808514 6:17.784743 7:26.450486 8:22.504707 9:27.562343 10:1.2148304 11:1.1858526 12:1.4916388 
-0.2947130873404127 -0.0602510936065935 0.3325936519077087 0.2333242583476833 0.1409233116195083 0.2854949163502064 0.3157325184288913 0.335121117645126 0.3350494701684273 0.3349681411963966 0.3350014900768025 0.3345758035012058 0.3349270134439516 0.3347064910205012 1:24.903075 2:20.838129 3:22.632828 4:22.414826 5:17.982971 6:21.510197 7:26.975429 8:22.660909 9:23.34364 10:1.2293169 11:1.2352168 12:1.0921895 
-0.4125433792920089 -0.08330459737140643 0.4496603430283424 0.3272852119756308 0.2054791026837173 0.4009210661700272 0.4432953215776882 0.4697978608721571 0.4695443432815045 0.4699158888246263 0.4693258419107777 0.4702913621234072 0.4697866055026737 0.4690348675360219 1:24.714908 2:20.820248 3:22.40287 4:22.64074 5:19.717514 6:21.832497 7:26.071886 8:22.575917 9:22.772988 10:1.1725254 11:1.1437266 12:1.0472899 
-0.5733381722766356 -0.1174541433518836 0.6112579965863034 0.4539508634502801 0.2728370805004066 0.557523838491228 0.6156304259105845 0.6510357128660492 0.6512546840788466 0.6512709951152134 0.6505285688826769 0.6495031955237225 0.6516001924777511 0.6511647033539665 1:25.270441 2:20.709234 3:22.440939 4:22.651492 5:19.767349 6:21.675431 7:27.0178 8:23.043054 9:22.912774 10:1.2195474 11:1.1647095 12:1.0622163 
-0.4384200893851836 -0.08892748426681511 0.5041716886345022 0.3482250384039671 0.2228046518310649 0.4272142614549403 0.4718893194193354 0.4992588429827503 0.4995539840462525 0.4998080527097047 0.4990739584177237 0.4998566821678501 0.4989822060852264 0.4986178117339055 1:25.127102 2:20.682905 3:22.68811 4:22.499971 5:19.1956 6:21.871277 7:27.531086 8:22.511162 9:23.757989 10:1.2529753 11:1.1667136 12:1.0948679 
-0.4387266514721002 -0.08883074751229481 0.4867859178140205 0.3474773336176718 0.2271070235974465 0.4277224037396823 0.4721456747394493 0.5000724381245832 0.4999298740915963 0.5000358965777085 0.4998852032809014 0.4991300637290757 0.5000302084253367 0.4999674455420655 1:24.992614 2:20.766519 3:22.545069 4:22.328396 5:18.956143 6:21.317103 7:26.969286 8:23.634674 9:23.706277 10:1.2333539 11:1.2352466 12:1.1201328 
-0.8835318780045109 -0.1791752190897279 0.9555008100195561 0.700639966500333 0.4710450914902222 0.8617748933209222 0.9501787009993855 1.005600402916864 1.00567283480839 1.005687199285447 1.004006823172549 1.003711304025979 1.005806086914472 1.005115767437872 1:24.417419 2:20.459483 3:22.376366 4:21.956954 5:18.165057 6:21.677163 7:26.176714 8:22.322762 9:22.80123 10:1.2121786 11:1.2090583 12:1.0565205 
-0.3473983924985178 -0.07116811385413781 0.370996591801691 0.2748286820553419 0.1633025473777765 0.3384316530030592 0.3732020352688925 0.3941578586068701 0.3941823237328543 0.3943201269693407 0.3942310931705877 0.3938611393361338 0.3947303230905901 0.3944916395065556 1:24.617425 2:20.361596 3:22.314844 4:22.512646 5:18.1962 6:21.2717 7:26.735257 8:22.646759 9:23.754483 10:1.212322 11:1.2237837 12:1.1248397 
-0.5849727664186382 -0.06067022505908698 -0.282921921105083 0.3693978051885059 0.1848661842666289 0.5517571977267303 0.6929954490022069 0.8032316294733772 0.803202520020745 0.8025921444017528 0.8000659232832666 0.7999948991941428 0.8031456774775445 0.8005408547446777 1:25.61485 2:20.137589 3:23.979373 4:23.087471 5:17.398771 6:22.896069 7:29.806086 8:21.292003 9:25.2208 10:1.3378264 11:1.1957601 12:1.1168925 
-0.4210510574765821 -0.04334306349060497 -0.1991540122460899 0.2649958399602943 0.1322583194808261 0.3964818082689955 0.4981848096234092 0.5773563778509349 0.5772260222375246 0.5775949179418501 0.5763274765037816 0.5752501956848404 0.5774085247823197 0.5760683260042696 1:25.85673 2:20.34596 3:23.852035 4:23.227031 5:18.228714 6:22.727963 7:29.5006 8:22.248803 9:25.769229 10:1.3154485 11:1.2021387 12:1.1529214 
-0.1162875626503157 -0.01135392890757939 -0.0555057575854081 0.07281490229464978 0.03609084777979458 0.1091756837048607 0.1371160736833153 0.1586072018123172 0.1583924927032118 0.1592050207959859 0.1593623055159274 0.1577974172285014 0.1590836117013728 0.1596986523342459 1:25.951836 2:20.579665 3:23.576239 4:22.983629 5:17.784971 6:22.533924 7:29.559143 8:21.714491 9:25.00352 10:1.330631 11:1.1975847 12:1.1241766 
-0.3577279787230887 -0.03693068254308905 -0.1674994139501097 0.2258798311864098 0.1116760334318995 0.3368365661661146 0.4227480809568536 0.4907023644601652 0.4902674560405943 0.4902076934224913 0.4893710915591581 0.488866918773913 0.490216670260235 0.4898507884625313 1:26.565623 2:21.443608 3:23.263513 4:23.532309 5:19.198 6:21.691243 7:29.674143 8:23.719474 9:24.488994 10:1.3088247 11:1.2273495 12:1.140677 
-0.0925934602681823 -0.009115284225211209 -0.04502059731734958 0.05781412707151069 0.02995796674033632 0.08747818722694997 0.1093536750349868 0.1262943654404277 0.1265123455293076 0.126754702146225 0.1257525738495648 0.1252029609662697 0.126263599461383 0.1266300360666202 1:26.263675 2:21.523573 3:23.055149 4:22.97764 5:19.868597 6:21.674314 7:29.861943 8:23.720151 9:24.52394 10:1.3461576 11:1.1936644 12:1.1432853 
-0.610413258040527 -0.06264496503172044 -0.2915958133393883 0.385287463152575 0.1920737321893037 0.5750719050953914 0.7229859252400723 0.8380687546373623 0.8380357991621031 0.8380241507265824 0.8359269052683496 0.8348712301747551 0.8383842855010909 0.8357442402386092 1:26.396588 2:21.648068 3:22.929899 4:23.052143 5:20.125909 6:20.747614 7:30.433086 8:23.767309 9:23.978591 10:1.3711297 11:1.1830974 12:1.1624605 
-0.8163947598012712 -0.0836516980356618 -0.3936890584206626 0.5150785149650454 0.256963756758342 0.7694261922654972 0.9667813673420649 1.120104647059764 1.119706696729414 1.11966303455308 1.117042301313513 1.115138926499213 1.119788419477229 1.118398367614674 1:27.134396 2:21.687908 3:22.677971 4:23.281714 5:15.069971 6:20.455874 7:28.888857 8:24.236709 9:24.410523 10:1.2819392 11:1.4609233 12:1.1988483 
-0.7665643307101977 -0.07842119773748985 -0.3692439100026639 0.4830503735555957 0.2416497167388138 0.7218964200132255 0.9068565976089156 1.050681376633336 1.050456665353183 1.05045801705862 1.047943459710329 1.046199217006452 1.051237608904506 1.049046328015763 1:26.588892 2:21.146457 3:22.35728 4:23.246217 5:6.0414571 6:18.727286 7:32.146829 8:24.434146 9:23.63644 10:1.4475419 11:1.924824 12:1.2468429 
-0.8239641850992725 -0.0848535355098281 -0.397241578461725 0.5197202804001789 0.2593304291697895 0.7764023116838624 0.9753765002293476 1.13062166640696 1.129947373606728 1.130170448238208 1.128000532062528 1.126325868665675 1.130669093989324 1.128950085833148 1:26.677965 2:21.097833 3:22.398608 4:23.418671 5:7.6726286 6:21.228923 7:29.825457 8:23.697943 9:24.073643 10:1.322147 11:1.8057873 12:1.1430387 
-0.8248495340200713 -0.08420775658750512 -0.3972589758170319 0.5202670478698361 0.2596998773426153 0.7770599850353177 0.975743390097112 1.131248290296551 1.130732426599559 1.131003804787943 1.128584778955711 1.126157394351615 1.131011492105562 1.134855947496888 1:24.978444 2:22.960412 3:24.962326 4:14.261086 5:17.616857 6:21.629871 7:32.639571 8:30.477829 9:31.319314 10:1.9241099 11:1.6466774 12:1.4872061 
-0.3994313494987337 -0.04135533805688507 -0.2146836240220026 0.2527133280268785 0.1257902531361467 0.3767897680133229 0.473404192637736 0.5488793585100662 0.5489377516753743 0.5484316578194473 0.547003925861252 0.5465417111966392 0.5489290856784213 0.5469457879015028 1:25.974653 2:20.839131 3:23.485059 4:22.652351 5:18.017829 6:21.786514 7:29.173743 8:23.101563 9:24.973286 10:1.3279096 11:1.2556211 12:1.1602377 
-0.8045080855302623 -0.08243797630707678 -0.3879557870167022 0.5071808047242518 0.2533112632558914 0.7586234405826419 0.9530799471342969 1.104008730637329 1.103337880028566 1.103468778662542 1.101189301870542 1.099819808222274 1.104058421589818 1.101973535986648 1:25.175239 2:20.895627 3:22.725414 4:21.2148 5:18.723029 6:18.968943 7:31.398629 8:23.643531 9:24.964429 10:1.5120648 11:1.2474135 12:1.3014659 
-0.6023048872561414 -0.06199767561836894 -0.2903265358981508 0.3794216756809037 0.189420467467021 0.5676265465705839 0.7121514112533381 0.8255024243540656 0.8255914319333457 0.8257442839321748 0.823459725251373 0.8221332963327153 0.8258155324190293 0.8241319010267197 1:25.88794 2:20.708486 3:22.905785 4:23.401197 5:13.1558 6:20.695909 7:29.429771 8:22.518971 9:25.392609 10:1.3031297 11:1.4708004 12:1.2361602 
-0.6137974480734181 -0.06315138239095469 -0.2959141910858766 0.3871263860208853 0.1933334366381704 0.5783610250080306 0.7267139947807442 0.841930542984241 0.8417481410665122 0.8416302493602487 0.8396623430605482 0.837984731873055 0.841724878845717 0.8407751792243201 1:26.811867 2:20.886543 3:22.64952 4:23.859571 5:12.762514 6:20.16204 7:29.798857 8:22.254189 9:24.829437 10:1.2986401 11:1.4772618 12:1.2346868 
-0.6608642222404314 -0.06756012274721947 -0.3263450373322854 0.4166506079364743 0.2084204746559868 0.6228068299416696 0.7824242027845496 0.9065703742442512 0.9060644975131448 0.9059831886047851 0.9037519423801033 0.9022919795312206 0.9064807834914948 0.904920293770987 1:26.426247 2:20.882162 3:22.551958 4:23.7393 5:19.671829 6:21.746243 7:29.179286 8:22.565931 9:25.290811 10:1.2735342 11:1.1455217 12:1.1782285 
-0.7693679374077239 -0.07867708053231057 -0.3693998371671233 0.4850251851833949 0.2422137741558704 0.7253572763688887 0.9108414838672877 1.055648096948082 1.05508785661136 1.055649411747232 1.052650214096549 1.05081334696481 1.055644387631651 1.054000721463685 1:25.40883 2:20.740095 3:23.473809 4:22.292214 5:16.108771 6:22.172743 7:28.684457 8:23.03526 9:26.1636 10:1.3214157 11:1.3482788 12:1.2006689 
-0.8121150818577081 -0.08310309872724608 -0.3911723915937209 0.5115705754823213 0.2550003952369206 0.764712884597082 0.9601368483651518 1.113211867921835 1.112501199941965 1.112686291128996 1.110682351121432 1.108936744571784 1.113202736479378 1.111477988262073 1:25.444525 2:20.602662 3:23.48566 4:20.629037 5:13.391171 6:20.758003 7:30.039857 8:23.004606 9:26.417514 10:1.4731963 11:1.4833842 12:1.2845724 
-0.8166102232227082 -0.08349416269441125 -0.3937821617196814 0.5148327719017647 0.256660119159771 0.7698473800847935 0.9666180001114388 1.119953193719639 1.119284179998014 1.119953730811676 1.117384746949943 1.115421743565218 1.119802527578346 1.117900055118774 1:25.447238 2:20.827839 3:23.523071 4:17.918857 5:12.457457 6:20.994206 7:30.312629 8:22.781227 9:25.5696 10:1.6231855 11:1.5191014 12:1.2300607 
-0.8248022884061832 -0.08444891463631679 -0.3974474400542554 0.5204160909891833 0.2593700148411831 0.7773152277329744 0.9758138881223204 1.131225561912498 1.130583915095387 1.131359499351545 1.128498690960673 1.126073664148509 1.131399343608196 1.129330983245224 1:25.914336 2:21.249804 3:21.377129 4:20.755923 5:10.789486 6:16.9204 7:29.1064 8:25.584257 9:24.364089 10:1.41988 11:1.743913 12:1.3742847 
-0.7663611397779723 -0.07909897575003255 -0.3699041422933816 0.483122179608352 0.241653330354862 0.7225552996349385 0.9075829507965487 1.051538785662004 1.051023502195801 1.051417206099519 1.049294989436014 1.04683329572743 1.051290094604507 1.050208388467722 1:25.949726 2:21.416304 3:21.569515 4:22.170543 5:5.2041143 6:18.230829 7:30.816629 8:24.52046 9:23.219494 10:1.4347438 11:1.9712675 12:1.2508409 
-0.744719065298345 -0.07650308795382793 -0.3595361963039976 0.4699590832771634 0.2341617869488626 0.7018387429075458 0.8818188006490983 1.021162402441887 1.021012010231131 1.021259414183388 1.018804840713089 1.017046591419879 1.020964930320702 1.019275323299505 1:26.50138 2:21.56602 3:21.714225 4:23.013989 5:19.552 6:17.919686 7:29.002257 8:23.812891 9:23.410737 10:1.301103 11:1.2142468 12:1.2761019 
-0.6613228439460033 -0.06771988652068249 -0.3131514392001993 0.416732400392785 0.2081730633690676 0.6232819609164928 0.7824429279632114 0.9069395256788224 0.906216646911867 0.9072518484266107 0.9046396341758978 0.9029359233420972 0.9070113099553869 0.9052315467520464 1:26.320917 2:21.497344 3:22.713608 4:21.636834 5:17.592171 6:21.793477 7:29.8202 8:24.106026 9:23.924529 10:1.4114773 11:1.3275306 12:1.1071539 
-0.8063372320364746 -0.08266565129809841 -0.3885785596877927 0.5084860322775453 0.2542061720663018 0.7595279252963532 0.9544171353368383 1.105943193492758 1.105387148518492 1.105549802475152 1.103497056985322 1.101675987318346 1.105949135785441 1.104282972165529 1:26.042323 2:21.441177 3:22.413765 4:20.166023 5:18.575029 6:20.884583 7:30.367686 8:25.699371 9:24.872749 10:1.5129616 11:1.3582273 12:1.2005336 
-0.2227142300775989 -0.02324473989408722 -0.1266150001365266 0.1399621280544705 0.06997104039675819 0.2092068940928923 0.2639652183254272 0.3054243446719772 0.3051286272405666 0.3050214534698121 0.304704183663265 0.3040526136543079 0.3050917393380377 0.3047707147963686 1:26.208957 2:21.510058 3:22.837254 4:22.03822 5:19.009429 6:21.290697 7:29.549857 8:23.695671 9:23.880846 10:1.3777013 11:1.2356344 12:1.1302383 
-0.820862253246358 -0.08420067612673154 -0.3955102166822166 0.5176652512686811 0.2580980892479638 0.7737975846799207 0.9715402364711095 1.125948694617741 1.125782428903889 1.126095424865405 1.123323154094362 1.122061591805017 1.125982581739242 1.124264625083436 1:25.44998 2:21.937802 3:21.089624 4:22.562983 5:18.490743 6:15.661029 7:30.8276 8:23.844823 9:23.252557 10:1.4155627 11:1.2692147 12:1.3817184 
-0.5112188880357671 -0.05176729041279536 -0.2333324106371141 0.3217471274165137 0.1607531925257239 0.4812278811897793 0.604917678318587 0.7009815586274751 0.7009101760752077 0.7007338594526529 0.698975360846107 0.6979107872928895 0.7009752388726921 0.6994068808568484 1:25.862669 2:21.300919 3:21.858108 4:22.71983 5:18.087229 6:18.646457 7:29.005943 8:22.834805 9:23.481291 10:1.3160793 11:1.2387184 12:1.2431059 
-0.5807546947602037 -0.05990307138692017 -0.3302330313711279 0.3667019957233535 0.1827928506756659 0.5476149053403524 0.6872205819401122 0.7966274129892644 0.7960036316685152 0.7966735253694456 0.7948309369871524 0.792673528640737 0.7966551680286456 0.7952389365731767 1:26.199976 2:21.211976 3:22.025909 4:22.9298 5:17.919514 6:19.98792 7:28.291257 8:22.850853 9:23.570903 10:1.2695856 11:1.2479583 12:1.1801601 
-0.8208022425207573 -0.08404709951904511 -0.3979441931402358 0.5173498825852554 0.2585248144029769 0.7735501583667354 0.9714398410427546 1.125774232141946 1.125406323696487 1.125687668630202 1.122718050316865 1.120750472475031 1.125396257663067 1.124106582348017 1:25.209531 2:22.094092 3:21.179653 4:21.888777 5:19.005657 6:15.955743 7:27.232029 8:24.265649 9:23.370934 10:1.2686702 11:1.2644837 12:1.3728518 
-0.5380925231443379 -0.05558806100782684 -0.2579088579977881 0.3391284552250105 0.1693357438733582 0.5071246956456474 0.6367491844139491 0.7374717947372005 0.7374819146842438 0.7374574311880084 0.7360255065965214 0.7351285339266641 0.7375121061137271 0.7367854476722576 1:25.87045 2:20.83105 3:22.249052 4:21.972891 5:18.563314 6:20.239323 7:29.868029 8:22.897846 9:23.742649 10:1.3969845 11:1.2179496 12:1.1761548 
-0.7969969614495625 -0.08162595667610409 -0.4128012021369272 0.502303089069974 0.2506189067318644 0.7506445986256406 0.9429477610854153 1.092494998596366 1.091988238505794 1.092028931973619 1.089667268884571 1.088177746804058 1.092527497613714 1.090932931718228 1:25.065993 2:20.834731 3:23.456021 4:21.530909 5:18.530829 6:21.375506 7:27.613829 8:23.265366 9:26.365086 10:1.3058623 11:1.2380627 12:1.2508868 
-0.3021154704736856 -0.05064937926648999 -0.188737114921359 -0.3355796508562777 0.1353741575081163 0.2919874198210319 0.3321004498821721 0.3571546364655518 0.3573415603654899 0.3572144397182051 0.3564442273090467 0.35639126132776 0.3571968868387932 0.356505128604339 1:20.38418 2:23.671196 3:22.158197 4:19.524343 5:21.454431 6:21.552049 7:22.409726 8:24.812043 9:23.557657 10:1.1450833 11:1.1688279 12:1.1008463 
-1.327193703289703 -0.2224003606878531 -0.8277997665309073 -1.473551879014433 0.5935595516563851 1.28228815827817 1.455361145785211 1.56801158766314 1.567569011631145 1.567947734752943 1.566314407315286 1.564907378620867 1.567952055174136 1.566341183896534 1:19.920303 2:24.487303 3:24.09794 4:19.495057 5:22.302023 6:23.565574 7:20.211666 8:24.943763 9:24.82238 10:1.0360326 11:1.1328324 12:1.0631949 
-0.1332581069882582 -0.02225717287152788 -0.08364949001820662 -0.1469493935431887 0.05882868824853346 0.1280002612265968 0.146159053556681 0.1571870436865862 0.1571827215281645 0.1563718063433509 0.1571111614872367 0.1565372073231335 0.1569999552010945 0.1566180756335242 1:20.978447 2:23.638484 3:22.959763 4:19.064514 5:21.229577 6:22.260911 7:23.016214 8:25.495229 9:24.083963 10:1.1987 11:1.2144861 12:1.091667 
-1.027222746006411 -0.1721626316982962 -0.6402189619642176 -1.140970155754222 0.4595331267990898 0.9930659913118489 1.126816966486133 1.213477224254149 1.213520517151966 1.214203414444886 1.212250180278109 1.211126033724399 1.214022391411757 1.213057420202065 1:20.722251 2:23.793308 3:23.262995 4:19.137371 5:21.577257 6:22.534155 7:23.002286 8:26.757514 9:24.427529 10:1.1943362 11:1.2604745 12:1.0952029 
-0.4681668352966412 -0.07874719055843259 -0.2919259363333697 -0.5205888880974718 0.2097845025706548 0.4525938292680281 0.5140397763496765 0.5540507241824975 0.5540535442037546 0.5540055076569814 0.5530427917765414 0.5526752170878748 0.5539613864035867 0.5533555161716443 1:20.751978 2:24.35141 3:21.991977 4:19.079543 5:22.03088 6:20.727031 7:22.84219 8:26.160857 9:23.670211 10:1.189194 11:1.2076641 12:1.1479894 
-1.000497512788323 -0.1681480569372923 -0.6243907963157247 -1.111125696431516 0.4472170873046825 0.9691479546089915 1.103509371536996 1.182434985529476 1.182462547655175 1.182411839021588 1.181330534866653 1.179668488434034 1.182406066049241 1.181177953553933 1:21.965171 2:23.415496 3:22.23207 4:19.5726 5:21.187626 6:20.87544 7:24.24366 8:25.558743 9:23.037383 10:1.234871 11:1.2197892 12:1.1087071 
-1.288647880525146 -0.2154427002319768 -0.8040848156295616 -1.430852626702611 0.5763062000378475 1.245470701603936 1.413591783306313 1.523200120797439 1.522954903248434 1.522502742166563 1.521387861412753 1.519633502012199 1.523266749347595 1.521958545887039 1:20.979065 2:24.213326 3:21.841283 4:19.3274 5:21.365089 6:19.555343 7:23.15784 8:28.108 9:23.253051 10:1.1926028 11:1.3390481 12:1.1859288 
-0.7787965082210331 -0.1305376213716387 -0.4857811790392895 -0.8642354731708237 0.3477134167541502 0.7520271190184286 0.8535045032130316 0.9200801584344827 0.9192907476964465 0.9195531519971439 0.9184467227950914 0.9180105789662695 0.9199933181991343 0.919090946358413 1:20.351624 2:24.187076 3:22.71938 4:19.6526 5:22.21336 6:22.433833 7:22.163629 8:25.400589 9:23.153474 10:1.1262599 11:1.1602607 12:1.0361851 
-0.4569081112328537 -0.07595485669740131 -0.2850994923427384 -0.5071230396704078 0.2036585971097446 0.4410582265577354 0.4997148105509384 0.5388980374464376 0.5386488798400082 0.5391327265250028 0.5382543322046027 0.538344145937411 0.5388954816389759 0.5390404801565417 1:21.072336 2:23.865921 3:21.872177 4:19.753989 5:21.958451 6:21.366246 7:23.22012 8:26.250743 9:22.704863 10:1.1742846 11:1.2158257 12:1.0673086 
-0.5209458777582291 -0.08736248348731374 -0.3245398999274081 -0.5776382745623371 0.2323850961518848 0.5033102713162945 0.57059421594696 0.6152044650304253 0.6149310114629587 0.6153290521391684 0.6141313137866069 0.6137117410755278 0.6152325979199181 0.6151647227992307 1:20.491646 2:24.307639 3:22.033537 4:19.778114 5:20.452831 6:21.111003 7:22.960351 8:25.443231 9:22.95114 10:1.1600097 11:1.2509281 12:1.0925261 
-0.3652048609260882 -0.06171176941991256 -0.22869948040931 -0.4067367795074321 0.1642408743804998 0.3534012916079002 0.401259364200673 0.4326837034372257 0.4325948417910519 0.4326837693659205 0.4325152419351386 0.4317789507753702 0.4327417829463622 0.4323212506335596 1:20.697889 2:24.21124 3:21.824454 4:19.954697 5:21.817023 6:21.272866 7:23.305969 8:25.345231 9:22.511334 10:1.1685091 11:1.1774059 12:1.0622729 
-0.4712783864950851 -0.0794145162514632 -0.2935075458407271 -0.5235470989986242 0.2099959503118021 0.4554576456643888 0.5172574719128431 0.5560382820444643 0.5563164644887759 0.5577591728204974 0.5558851652381862 0.5545937902771811 0.5566997291743292 0.5573728271551063 1:20.22866 2:24.047212 3:22.875536 4:17.904686 5:21.677966 6:21.196289 7:22.837838 8:25.246406 9:24.502983 10:1.2480495 11:1.1794289 12:1.1662677 
-0.5970145279473911 -0.09990694178730755 -0.3727498609631995 -0.6628834696353767 0.2665346910066989 0.5775425059528981 0.65484407588592 0.7054569113107336 0.7056690435338714 0.7053070268064257 0.7051152114031887 0.7043068390726062 0.7053562979175451 0.7048308575573754 1:20.120943 2:24.134493 3:22.800118 4:18.387857 5:22.14456 6:21.099737 7:22.199286 8:26.307286 9:24.044511 10:1.1916468 11:1.2093108 12:1.1480696 
-0.6080275188942796 -0.1011724108641954 -0.3798999775702722 -0.6753865627680266 0.2730283105197786 0.5872129443824457 0.6661419050011928 0.7189698973936345 0.7187862952371332 0.7173352699496267 0.7173176749392036 0.7178965485912455 0.7182649899165934 0.7170262673562224 1:20.142471 2:24.096737 3:22.875409 4:17.575543 5:21.701509 6:21.834806 7:22.756522 8:25.43194 9:24.132043 10:1.2605108 11:1.1875741 12:1.11551 
-0.2759787750067744 -0.04767980834740344 -0.1729855131036205 -0.310055120292036 0.1257573508405755 0.2692357834140098 0.3049485869111597 0.3282297810409685 0.3284534545708858 0.329995554923269 0.3277737069044128 0.3296626945211152 0.328224262949793 0.3290446956272182 1:20.609395 2:23.586595 3:23.026826 4:19.468114 5:21.751351 6:21.94476 7:23.19826 8:24.699417 9:23.353926 10:1.1875598 11:1.1482351 12:1.0708559 
-0.2684844545361484 -0.0438784199482224 -0.1667876607132116 -0.2949835567117189 0.1180326716997434 0.256600757031921 0.2917620045868492 0.3152578830017462 0.3148981355186278 0.3138505037868189 0.3152452199706102 0.3127955148871229 0.3151053476871988 0.3143576474121645 1:20.216377 2:23.906925 3:22.843935 4:19.448971 5:21.628117 6:21.733291 7:23.455966 8:24.656231 9:23.314603 10:1.2014803 11:1.1522601 12:1.0795117 
-0.002243811448293913 -0 -0.0012658769102828 -0.001854540992248632 0.001023228175154498 0.002743812627495024 0.002206094140682343 0.002229837787163843 0.003048098419732307 0.002343014418881066 0.002660245001122632 0.002205208737534402 0.002397434109301769 0.002407556919071224 1:20.85546 2:24.149397 3:22.913689 4:20.153189 5:21.670443 6:22.051611 7:23.215906 8:25.405751 9:23.399043 10:1.154 11:1.1878194 12:1.0677518 
-0.8895889301825501 -0.1492604512385996 -0.5551606058827978 -0.9883390297810123 0.398538152570148 0.8601134130251219 0.9763235555703399 1.05151041423044 1.051554013630923 1.051325823150531 1.049987651548892 1.049738982409118 1.051513982988365 1.050729911689126 1:20.833492 2:24.243183 3:22.856766 4:20.050049 5:20.105126 6:21.417177 7:23.964691 8:25.349403 9:23.457929 10:1.1968367 11:1.2636936 12:1.1026134 
-0.1127943752002173 -0 -0.09424229508878307 -0.1183004594212682 -0.09846652950287135 0.1085387419846771 0.1178530779452071 0.1211135290502478 0.1231636697010771 0.1223137146134421 0.1230755026078122 0.1230076994708819 0.1220009739418258 0.1213549651032898 1:22.763954 2:21.7567 3:22.712802 4:22.410093 5:21.121666 6:21.626349 7:23.07498 8:22.553007 9:23.226943 10:1.0334319 11:1.0719709 12:1.0804813 
-0.6180213848632862 -0.8931195954656815 -0.4743812783675075 -0.651538775843893 -0.5245715164137486 0.6102533285935159 0.6519622195338098 0.6726360565163223 0.6710144850994325 0.6717526840607806 0.6717507297599286 0.6713424990085959 0.6721968940023193 0.6716114919470591 1:22.720897 2:21.9375 3:22.70324 4:22.338242 5:21.406169 6:22.430358 7:22.996454 8:22.698378 9:22.98162 10:1.0330963 11:1.0649751 12:1.0277186 
-0.1974565280497937 -0 -0.1404241283779853 -0.2098942831756843 -0.166734321297643 0.1944136858466389 0.2095392501669994 0.2161831672239826 0.2157928712290454 0.2161441944318322 0.2161666605841534 0.215051763564387 0.2162676478224575 0.2153107039000748 1:22.880717 2:21.885917 3:22.362841 4:22.590402 5:21.294171 6:21.943274 7:23.276866 8:22.605026 9:22.609929 10:1.0345169 11:1.0659126 12:1.0335208 
-1.328054795402977 -0.3118432059787773 -1.029749597505697 -1.400667617039116 -1.130830563443664 1.331997795828136 1.438292222023531 1.44499856635646 1.445159068215551 1.444777298854696 1.444154337085062 1.443455430462836 1.445028529992904 1.443832236150937 1:23.090463 2:21.204306 3:23.14663 4:21.862997 5:18.149714 6:22.53506 7:24.516843 8:22.787327 9:23.82484 10:1.1334411 11:1.2331892 12:1.0648529 
-0.06753099732591282 -0 -0.02245775427013494 -0.07137321491115459 -0.05939308506506109 0.06486410088157901 0.06958512768496973 0.0734276148096449 0.07448332550287798 0.07408105707832431 0.07420471579096517 0.07477703571021045 0.07385040297473332 0.07285770698581094 1:23.064051 2:21.39683 3:22.949517 4:22.347115 5:20.08396 6:22.313228 7:23.949831 8:22.827536 9:23.695146 10:1.080588 11:1.1379529 12:1.0694858 
-0.6546374725734352 -0.1897170163464634 -0.5836084957415526 -0.6908478691649747 -0.5557595302591377 0.6441857498400945 0.7173844772931706 0.7117297802584826 0.7104686422696507 0.7116810964465715 0.7112840570191635 0.7104883886484757 0.7117036478830348 0.7118679102009277 1:23.183262 2:21.274202 3:23.051053 4:22.489914 5:19.213486 6:22.104371 7:24.198774 8:22.713966 9:23.824157 10:1.0859252 11:1.1760117 12:1.0864745 
-0.2885249137054127 -0 -0.2044843116948129 -0.3050074320330772 -0.2435035648104869 0.2873982566802477 0.3093084853859673 0.3146660272562407 0.3134616609267474 0.3137666763213357 0.3126711338881767 0.3126515028647323 0.3141682496948145 0.3150729158031139 1:22.76069 2:21.965944 3:22.606104 4:22.320543 5:20.733349 6:21.597889 7:23.315623 8:22.90102 9:23.617626 10:1.0500348 11:1.1089952 12:1.1015567 
-0.6528219518345728 -0.3969382059403638 -0.5003249451244904 -0.6877714301070823 -0.557373806978394 0.6415873824981009 0.6850333318574617 0.7094518486406903 0.7097076381974693 0.7096438789248907 0.7087041095074824 0.709093337078806 0.7096162711802737 0.7095254105938371 1:22.65012 2:22.576204 3:22.566542 4:22.411487 5:21.403851 6:22.011009 7:23.42178 8:23.036031 9:22.876614 10:1.0507997 11:1.0820695 12:1.0435245 
-0.4988559241847604 -0 -0.3950510808109479 -0.526045691554941 -0.4237024493790815 0.4905726413077857 0.514982853794677 0.5425653213173958 0.542009149483109 0.5414831592614576 0.5407983023996621 0.5412343601697049 0.5426479534409086 0.5424546382986157 1:23.316947 2:21.372439 3:22.714901 4:22.12286 5:20.677426 6:21.947357 7:23.890394 8:22.266089 9:23.20104 10:1.0888754 11:1.0798814 12:1.0630379 
-0.3192018770004354 -0 -0.2540504440549667 -0.3366399848794474 -0.2724459506405521 0.3084161367448901 0.3301957230726079 0.3470224128037965 0.3472309151554773 0.3484942183069482 0.3477801298492982 0.3469954581655897 0.3470100022694017 0.3469493325257632 1:23.041716 2:21.706738 3:22.604915 4:22.001474 5:21.036671 6:21.981069 7:24.457971 8:23.087311 9:23.140003 10:1.123518 11:1.1031106 12:1.0582737 
-0.927002813144401 -0.2597463788635401 -0.7275571140909802 -0.9782892949080773 -0.788730335854849 0.9295777740570359 1.003414105359392 1.008748126542542 1.009278944221848 1.008204895731167 1.007955755606645 1.007689362776591 1.00867994633125 1.008653709171494 1:22.86564 2:21.851827 3:22.352654 4:22.281391 5:20.015637 6:21.6201 7:24.77692 8:23.053766 9:23.10358 10:1.1254806 11:1.1527637 12:1.0745926 
-1.016132287735825 -0.1259128908317823 -0.5457747301770919 -1.182815326561052 -0.6890555404668255 -0.3643184149018833 1.188924343432501 1.300073806784667 1.300014491554427 1.300173803691396 1.297677205631916 1.296061801463834 1.300334170218948 1.297945696169551 1:22.57016 2:21.810296 3:22.923736 4:15.005971 5:16.999514 6:21.310474 7:25.8348 8:24.556211 9:26.921543 10:1.5444968 11:1.379967 12:1.2821366 
-1.019425914631039 -0.1258622642827002 -0.5469966975522826 -1.184464497741798 -0.6895202983533642 -0.364360568729909 1.192231839229172 1.302096678239435 1.30135559136087 1.301565292485968 1.298941711350143 1.29767850777616 1.301863750554111 1.300159059325351 1:22.618478 2:21.700571 3:22.974551 4:17.104429 5:17.225257 6:21.80648 7:25.203326 8:23.930106 9:28.084971 10:1.40723 11:1.3371342 12:1.3156961 
-1.050005528635532 -0.1298553440420372 -0.5645831002498254 -1.222348076227799 -0.7118050085760361 -0.375945155742638 1.229536204768606 1.343943548928758 1.343667903229501 1.34327186548061 1.34094422209828 1.339624012331731 1.343940124690856 1.342230470057892 1:22.624622 2:21.938329 3:22.898944 4:17.296343 5:12.819486 6:21.417666 7:25.270043 8:24.232637 9:27.444057 10:1.4009348 11:1.5738778 12:1.3030199 
-0.9423576157692242 -0.1036354397140207 -0.4506954805152644 -0.9769252921808134 -0.5689103418560648 -0.3012979489632103 1.195798383204316 1.073624667120654 1.073314444093266 1.073189223851701 1.071132470081862 1.069878845030067 1.073527726175464 1.071813771705191 1:22.744983 2:21.992146 3:22.553451 4:19.075229 5:16.187743 6:20.344226 7:25.176729 8:25.644486 9:23.661823 10:1.3067966 11:1.4755054 12:1.1668159 
-0.5005138164171759 -0.06153923617213132 -0.2686118436416107 -0.5775882744793367 -0.3343364631933269 -0.3079326225657907 0.7022751017887143 0.6345680111235856 0.6340383279266494 0.6339445099498969 0.6329983562847311 0.6318079468123222 0.6345658748792058 0.6335932336084865 1:22.772017 2:22.003642 3:22.634321 4:20.691326 5:18.692657 6:20.897343 7:24.618291 8:23.407474 9:24.39274 10:1.1974563 11:1.2370712 12:1.1757561 
-0.1636722254152631 -0.02224641997246968 -0.09602528112614427 -0.2106431946023461 -0.1200475987289901 -0.06568952059244879 0.3816486761324269 0.2314497792800236 0.2308447645046717 0.2307920574329932 0.2307105243851951 0.2295566909393992 0.2312180136121093 0.2304777213126519 1:22.75405 2:21.989961 3:22.412861 4:20.987449 5:17.683257 6:20.492523 7:24.490829 8:23.708529 9:23.695523 10:1.1761575 11:1.3029636 12:1.1610537 
-0.3149637475788325 -0.04068988561110319 -0.1789411071598454 -0.3820246940675408 -0.2262010182996556 -0.1418622195817205 0.2659187876231733 0.4208757130888458 0.4215796209155001 0.4212443694686795 0.4199988688948994 0.4207172738547695 0.4211549452582546 0.4209521651295121 1:22.683038 2:22.071741 3:22.359684 4:20.467551 5:18.579314 6:20.873983 7:24.884783 8:24.181723 9:23.450051 10:1.2221079 11:1.2817012 12:1.1295303 
-0.7605562433659603 -0.09463409186369212 -0.4107998938271891 -0.8899267758889363 -0.5174694696610206 -0.2729734889671285 1.051143060177011 0.9768624894517162 0.9770165319632851 0.9773767164091475 0.9751384554560028 0.9742555545594777 0.9769531953020312 0.9757165918403451 1:22.668904 2:21.706885 3:22.663538 4:16.849229 5:18.4228 6:21.177386 7:25.141317 8:24.767283 9:24.38298 10:1.4169441 11:1.3190143 12:1.1611842 
-0.6159202981536979 -0.07622835556719335 -0.3285332023540296 -0.7102766307356228 -0.4159509559439453 -0.2221389336380917 2.517971358138069 0.7806636197299985 0.7801620765841658 0.7800173684788759 0.779275073220466 0.7774819324796088 0.7800403269339885 0.7794567671439368 1:22.798212 2:21.484878 3:22.759521 4:18.572771 5:19.173029 6:21.30948 7:24.811309 8:24.926954 9:24.467031 10:1.3136871 11:1.2893198 12:1.1587685 
-0.4422656216066562 -0.05129665675337423 -0.2262893581431281 -0.4907591433759357 -0.2857241242913452 -0.1514093397147473 0.7888078648035054 0.5403492830536352 0.5396733887044003 0.5397375360890684 0.5386809189794034 0.5386807134035122 0.5407218954000271 0.5394134324081655 1:22.832841 2:21.428459 3:22.819342 4:18.2092 5:18.224 6:21.519789 7:25.31198 8:25.088 9:24.70146 10:1.3571431 11:1.3451367 12:1.1599813 
-0.4911647272392288 -0.06353611780474179 -0.2742833652708361 -0.5952989214182913 -0.3460623006803557 -0.1832511317408849 0.4347687273776069 0.6548463298759063 0.6541194006318999 0.6547207191038182 0.6527962165266198 0.6523527335049348 0.6544269671212998 0.6539945546980245 1:22.604263 2:21.917002 3:22.778237 4:17.625743 5:16.273 6:18.693714 7:24.377594 8:24.171363 9:24.110383 10:1.3394976 11:1.3971467 12:1.2723618 
-0.2514401474069155 -0.02204469347822158 -0.09628662523113503 -0.2064204968125435 -0.1207505139906811 -0.06346027106983548 0.5050699089160557 0.2268841641566599 0.2278181179947331 0.2270009892107666 0.2271050157599728 0.2266037488576105 0.2278535006412019 0.2264484181283877 1:22.603098 2:21.941508 3:22.759266 4:17.706971 5:16.865771 6:19.298571 7:24.50396 8:24.312831 9:24.373731 10:1.3417672 11:1.3744542 12:1.25519 
-1.050089924046774 -0.129376595107807 -0.5641569426244899 -1.221801868980113 -0.7111937597035322 -0.3756493438408214 1.305216249437099 1.343041232429426 1.342730695106535 1.343068961006174 1.341198372811633 1.338787465948424 1.343390955169264 1.341232575861377 1:21.999678 2:23.647738 3:22.186054 4:13.384029 5:13.535629 6:19.780083 7:24.731677 8:26.607629 9:24.265403 10:1.5705842 11:1.6572883 12:1.2255316 
-0 -0 -0 -0 -0 -0 0.243765351659258 0 0 0 0 0 0 0 1:22.530728 2:21.942469 3:22.761762 4:19.677657 5:18.199543 6:20.992326 7:24.785863 8:24.49092 9:24.10664 10:1.2568516 11:1.316344 12:1.1565944 
-0.2598592705734937 -0.03220740929837407 -0.1380321379275446 -0.3016588484982632 -0.1733288905010001 -0.08751624610284481 0.2431278029152506 0.3317714744164487 0.3316855769244837 0.3316303644022499 0.3309007212320447 0.3298820404526327 0.3315104577276021 0.3305695799424304 1:22.669165 2:21.89104 3:22.615467 4:19.524771 5:17.967457 6:21.363471 7:24.892914 8:24.229209 9:23.823109 10:1.2699218 11:1.3148544 12:1.1236759 
-0.3068779725240722 -0.03423740684961713 -0.1461630606448853 -0.3208099241716797 -0.1899718215531078 -0.04254569362869582 0.6612580115493709 0.3511482120853459 0.3512102841417666 0.3514332390877907 0.3511499550513791 0.3507134086432406 0.3515755490468568 0.3512631923135729 1:22.645771 2:22.156219 3:22.665259 4:19.908989 5:18.533229 6:20.400943 7:24.624591 8:24.373697 9:23.9731 10:1.2371107 11:1.2936713 12:1.1796158 
-0.6379554340203428 -0.07773365406384888 -0.3365895481672054 -0.7296280856740034 -0.4246754314837434 -0.2242979180693205 0.6793681037949217 0.7994517324653507 0.8019781839993366 0.8011445714045945 0.8012705508028116 0.798583503043331 0.8018554897385224 0.8012329003730913 1:22.637681 2:21.988519 3:22.369526 4:16.628743 5:17.271971 6:18.9838 7:25.3324 8:24.253849 9:23.542274 10:1.4376386 11:1.3510638 12:1.2292099 
-0.1203762043041708 -0.01817432647102799 -0.07936665865989938 -0.1713357691157094 -0.1002694803930971 -0.05337187844632211 0.2112128045802861 0.1902665344802192 0.1872568498502263 0.1881767528506042 0.1867356581130867 0.1878886593599052 0.1875531171349141 0.1873916919946749 1:22.688939 2:21.844467 3:22.291834 4:17.013257 5:17.398714 6:19.269486 7:25.293929 8:24.258466 9:23.517403 10:1.41637 11:1.3449231 12:1.2135944 
-1.039219725340357 -0.1283060686474828 -0.5571292817874369 -1.205924642848042 -0.7018502137604288 -0.3710538861190883 1.218344090856761 1.326187093883641 1.325627776695409 1.325583018849092 1.323252294724574 1.321638431619244 1.325860662019956 1.324226033645797 1:22.664259 2:21.894829 3:22.28856 4:18.702486 5:12.977514 6:18.320686 7:25.043414 8:24.600343 9:24.40612 10:1.3188356 11:1.5844209 12:1.3059887 
-0.5176876118097975 -0.04152498828677762 -0.1812325469472367 -0.3919381744955915 -0.2289747689939153 -0.1198905606381116 0.4067170133281532 0.4312774133820522 0.4322124468798572 0.4322794960932986 0.4320037697056496 0.4313835207225558 0.4324220452553781 0.4319571887879832 1:22.886478 2:21.970765 3:22.274465 4:20.382817 5:16.224314 6:20.179974 7:24.515174 8:24.446414 9:23.757966 10:1.2077838 11:1.4134249 12:1.1799091 
-0.8519484697784494 -0.1041432828929903 -0.4519756512434958 -0.9778354436293357 -0.5692394407958173 -0.2996747920715837 0.9805171389874791 1.074892139403649 1.074635161985389 1.0752784762103 1.07308302827357 1.071770430784985 1.07529883816826 1.07373812742088 1:22.929204 2:21.713934 3:22.303929 4:21.004306 5:16.400571 6:18.875714 7:24.653646 8:23.074683 9:24.16638 10:1.1834967 11:1.3355887 12:1.2660261 
-0.3718793004192059 -0.05674140339731073 -0.2452149658351044 -0.5324984487901697 -0.3093353648983155 -0.163739011408684 0.5219868932851315 0.5842491579411212 0.583521370872343 0.5830602547046648 0.5818369264471033 0.5814532792920443 0.5833635121160179 0.5826056749521926 1:22.907377 2:21.666996 3:22.262755 4:20.854031 5:16.036829 6:19.758314 7:24.898126 8:24.271666 9:23.75908 10:1.2033458 11:1.4140654 12:1.2011671 
-0.4381658328072114 -0.05454529661000838 -0.2418422239031321 -0.5175723331697107 -0.3026157241334072 -0.1697790817976407 0.4157559895895179 0.5686145903537526 0.5682427163481019 0.5686043592383118 0.5679697012122332 0.5680902540778737 0.5682601490041995 0.5684019365881226 1:22.863051 2:21.766994 3:22.647243 4:20.269354 5:17.459057 6:20.902669 7:24.915783 8:23.140946 9:24.120469 10:1.2336324 11:1.2856976 12:1.1617979 
-0.4729226808298903 -0.05819421562077187 -0.2521647173462701 -0.544331150301498 -0.3175195151765439 -0.1676473998988476 0.5170028225754609 0.5990258731090913 0.5984626486787449 0.5981052057685369 0.5970398166074002 0.5960984516536764 0.5985172569198878 0.5970239316091768 1:22.842848 2:21.853903 3:22.562682 4:17.900286 5:15.581171 6:20.583677 7:24.964891 8:24.056243 9:23.876091 10:1.3552236 11:1.4261449 12:1.1655497 
-0.4547091482792492 -0.05716361385709003 -0.2495199758761004 -0.5436013450180459 -0.315372675746282 -0.1669163087427756 0.5415214828493309 0.5958419095495658 0.5962470302055856 0.5966283523997855 0.5961459087837168 0.5954415788537979 0.5962426234807654 0.5965620019464837 1:22.761846 2:21.801082 3:22.557414 4:17.380514 5:16.333171 6:20.739926 7:24.857597 8:23.86182 9:23.846514 10:1.3759638 11:1.3785567 12:1.156206 
-0.452827600691434 -0.0563286448083315 -0.245342617939317 -0.5309176688370155 -0.3093354207003973 -0.163151774838273 0.5580955718400712 0.5836149090871129 0.583371210300949 0.5832056735942424 0.5830863718517001 0.5816319774852914 0.583463406302752 0.5829314523769676 1:22.646595 2:21.973684 3:22.407744 4:16.755686 5:15.886571 6:18.880057 7:24.89622 8:25.091591 9:24.202426 10:1.4093236 11:1.4628482 12:1.2676202 
-0.342362729841496 -0.04153924833889455 -0.183077006006194 -0.3974366012535318 -0.2313136718944098 -0.1228667919875567 0.4072168444449505 0.4370675807583839 0.4356629248235954 0.4370548442548877 0.4357581919217689 0.4362701180974354 0.4371733622867255 0.4372514369137339 1:22.695418 2:22.061653 3:22.438917 4:16.769 5:14.389514 6:19.531914 7:25.057711 8:24.795177 9:23.77168 10:1.4167743 11:1.5232191 12:1.2131846 
-0.7529911207191992 -0.09361528978286744 -0.4053496464459227 -0.8766156539085065 -0.510428272941633 -0.2690652904638467 0.8848998079382389 0.9633545485763648 0.9642473949319481 0.9633983533583439 0.9620627457911646 0.9596672307539162 0.9631019689109139 0.961498045934623 1:22.661699 2:21.906096 3:22.436098 4:15.9962 5:14.151257 6:19.190743 7:25.322 8:24.996271 9:23.697274 10:1.4689213 11:1.5453107 12:1.2265981 
-1.641307940710388 -0.04596223648774044 -0.2181966710207237 -0.5381653478825541 -0.282661575577909 -0.1387942453730264 -0.5040929908168689 0.612085281229119 0.6068616000949355 0.6067352930390477 0.6053468871813154 0.6042979767095151 0.606732881692113 0.605590357043759 1:22.587512 2:22.373173 3:22.494076 4:19.3774 5:17.3632 6:19.666771 7:24.134963 8:26.274971 9:24.22668 10:1.2392205 11:1.4481031 12:1.229282 
-1.057964787856093 -0.0860158313351139 -0.4032044177626066 -0.9935032205762171 -0.5226464556380305 -0.2555208784568641 -0.7514919584449531 1.121633216828485 1.120502046447255 1.120628082243562 1.118143028233931 1.116130695985511 1.120668132081873 1.119127223666676 1:22.561276 2:22.034809 3:22.832759 4:16.450971 5:15.992343 6:17.711457 7:24.078214 8:27.039543 9:26.200371 10:1.3835142 11:1.555477 12:1.4268409 
-0.7109653739454943 -0.07422333681619182 -0.3476766988579935 -0.8559521138142713 -0.4500033864155498 -0.2200500298943352 -0.6621725412846509 0.9659722303314452 0.9649216625126862 0.965298427024193 0.963279340562208 0.9610335851427215 0.9651505616265842 0.9638939530944746 1:22.510214 2:21.969526 3:22.903575 4:16.720171 5:15.469429 6:20.167091 7:24.133546 8:27.209857 9:24.807663 10:1.3727604 11:1.590334 12:1.2333379 
-0.5734442652011988 -0.0633683501637287 -0.2973191357789681 -0.7328317939869097 -0.4033440060869606 -0.1885271630184506 -1.045237991234662 0.826252882087233 0.8254769588810481 0.8259432607444339 0.8239744838731412 0.8226471144893516 0.8258731918738735 0.8249507075912306 1:22.715484 2:22.116555 3:22.568269 4:18.689257 5:19.431657 6:20.844237 7:24.100997 8:26.019057 9:24.511297 10:1.2721139 11:1.3312287 12:1.1843877 
-0.8526930820576173 -0.05679592898582701 -0.2658924162158102 -0.6554509318832934 -0.3442544310115294 -0.1683385424787545 -0.5335359878436474 0.7395570309964614 0.7387677703361849 0.7388956673782026 0.737206165679135 0.7363594925708005 0.7389155309826869 0.7381263440189515 1:22.670086 2:21.917812 3:22.552562 4:18.021543 5:16.729086 6:20.18174 7:24.672617 8:27.181771 9:25.024029 10:1.3344303 11:1.5255836 12:1.2434807 
-0.7788378792228238 -0.0836335934456276 -0.3926305467535359 -0.9682949197387188 -0.508873979925584 -0.2483408697148972 -0.7287489067894061 1.092076839966526 1.091453801792666 1.091455559208579 1.088511595376414 1.087312861522695 1.091488928081906 1.089802481527628 1:22.755389 2:21.891637 3:22.568214 4:16.958486 5:8.9505143 6:18.414571 7:25.5904 8:28.2184 9:25.7746 10:1.4340312 11:1.9688308 12:1.3700781 
-0.7784496939520984 -0.08367958849429283 -0.3926713271610525 -0.9679480806078725 -0.5089857176256771 -0.2488276199235692 -0.728205897512852 1.092532190834752 1.091110207999329 1.091300110904764 1.089021535795392 1.086995288644287 1.091577045316613 1.089934603381567 1:22.725808 2:21.821185 3:22.517752 4:16.304229 5:8.6402 6:19.463029 7:24.379646 8:29.055743 9:24.395394 10:1.4060494 11:2.0265375 12:1.24801 
-0.8395391423673208 -0.0863790879351356 -0.4053032054766634 -0.998657981124998 -0.5255735966700614 -0.2564829369580887 -0.751696605946476 1.126937803323894 1.126084662589935 1.126140919800229 1.123660734269013 1.121830234339949 1.126503472155195 1.124525425227769 1:22.789869 2:21.876708 3:22.520609 4:18.698229 5:11.791143 6:20.426843 7:24.466186 8:28.160714 9:25.889743 10:1.2900253 11:1.8230973 12:1.2746864 
-1.361173400920572 -0.07928449950067718 -0.3721241145439888 -0.916347298661286 -0.4821027010421418 -0.2315675355317957 -0.6772305548860222 1.033880909920075 1.032759213185163 1.033038259891885 1.031105080317522 1.028369019064697 1.03303434803688 1.031927406960548 1:22.754088 2:21.46405 3:22.781219 4:20.95388 5:17.718743 6:20.800511 7:24.449843 8:26.408829 9:25.307394 10:1.1757845 11:1.4369562 12:1.2266158 
-1.701342968952954 -0.07460952843272473 -0.350528979722684 -0.8646609055021134 -0.4546099918670821 -0.2219925208108593 -0.7331445813275473 0.9769553624502495 0.9742727038003711 0.9745404058581535 0.972497922223897 0.9708892371437203 0.9745584886382884 0.9730078067630441 1:22.685238 2:21.756452 3:22.72323 4:19.220143 5:14.897629 6:20.43332 7:24.527723 8:27.117829 9:24.601377 10:1.2668766 11:1.614458 12:1.2095789 
-0.8009650019076271 -0.0863302423401337 -0.4115237310558408 -1.00280808256692 -0.5273134789970505 -0.5356731579181111 -1.118708792156235 1.13100113108774 1.130353953763572 1.130060813331289 1.127398738154738 1.125930771020794 1.130712810436987 1.12862015238608 1:22.881144 2:21.513037 3:22.867195 4:21.674283 5:18.577057 6:21.42524 7:24.084671 8:24.460437 9:23.732054 10:1.1211995 11:1.295829 12:1.1159916 
-0.8113463393814029 -0.08699860699911274 -0.4062772817893359 -1.001975935145455 -0.5265181477737787 -0.2574487070578942 -0.7692619540271348 1.130230105277348 1.129162339967001 1.12920942159667 1.126397803726742 1.124773312462989 1.129704001707216 1.127745088631507 1:22.457759 2:22.365895 3:22.752944 4:14.018829 5:14.140971 6:20.101354 7:24.487989 8:28.773143 9:25.239823 10:1.5264119 11:1.7357371 12:1.2583733 
-0.7884127559356581 -0.08432681382451036 -0.3944933252005 -0.9726931610135294 -0.5109994743120394 -0.2504166223553404 -0.7381832255044022 1.097283146207593 1.096013293777547 1.096207862861838 1.093852083027227 1.092224852226548 1.096799812229354 1.094549551088327 1:22.661976 2:21.902171 3:22.58854 4:16.619343 5:12.754971 6:20.264346 7:24.465617 8:27.304429 9:24.588446 10:1.3945276 11:1.7315781 12:1.2174251 
-0.8045006065514572 -0.08642730957574167 -0.4056846457497396 -1.000518245228026 -0.5258760486759827 -0.2568219093945204 -0.8550286062142544 1.128372681589378 1.127400636384017 1.127828622837163 1.125107840545456 1.123113112025515 1.128238357720146 1.125977624671353 1:22.659608 2:22.168331 3:22.800866 4:13.744 5:12.505686 6:19.4676 7:25.651114 8:26.654914 9:24.262254 10:1.5987154 11:1.7114537 12:1.2410855 
-0.8879292594017795 -0.02402624962367553 -0.1115763370969828 -0.2742673116271136 -0.1429494987524482 -0.07026761423455653 -0.5121898737134457 0.3095888353273428 0.309547474861303 0.3092377494942433 0.3081140741175613 0.3076158409431908 0.3096656590628193 0.3089477670197018 1:22.6711 2:22.046718 3:22.758577 4:18.764857 5:18.109943 6:20.929126 7:24.842614 8:25.263486 9:25.352391 10:1.3056027 11:1.3596955 12:1.2224113 
-0.5337510275549919 -0.05983939884133106 -0.2797542903388307 -0.689709059156984 -0.3629426404191956 -0.1774238475944066 -1.821737593422685 0.7786432509584028 0.777447830273198 0.7781469632342373 0.7762294705614915 0.7749941577070004 0.7779754943470179 0.7769930229475507 1:22.728955 2:21.911261 3:22.601714 4:18.348143 5:19.376057 6:21.234617 7:24.62158 8:24.163931 9:24.980629 10:1.3154419 11:1.2407446 12:1.1883575 
-0.1048207954402308 -0.02846788570744083 -0.1332559645524152 -0.3278446135189715 -0.1714555462321984 -0.08386985069948477 -1.178707271237427 0.3697992729402463 0.3695865518339195 0.3697926467439087 0.368998669266991 0.3683256764240651 0.3695307658776189 0.3689640701004625 1:22.668964 2:21.933949 3:22.703576 4:18.505314 5:18.169686 6:21.213174 7:24.239451 8:24.691291 9:24.936583 10:1.2883248 11:1.3279204 12:1.187221 
-0.6819741284988929 -0.05420711398507327 -0.2548401286076839 -0.6285555722807537 -0.3304122250481211 -0.1616549764679144 -0.4732622576266115 0.6931494284169414 0.7085287375396697 0.7088519511444423 0.70735181752691 0.7058308385709105 0.7083836386622165 0.707571696066628 1:22.718736 2:21.93627 3:22.247699 4:17.665829 5:17.153686 6:18.980429 7:24.730663 8:28.639743 9:27.239629 10:1.3552351 11:1.5775437 12:1.4152904 
-0.8334824800172779 -0.07218707598686562 -0.338002804889657 -0.8320980759880268 -0.4376760853540138 -0.2134941499171403 -0.6259860646194116 0.9429206828986697 0.9382266831865754 0.9385605544550268 0.9360291746709309 0.9348317721160006 0.9391863403106588 0.9371554543246694 1:22.711174 2:21.995766 3:22.508945 4:17.407143 5:15.780086 6:18.907314 7:24.958037 8:29.292771 9:27.505657 10:1.3796752 11:1.679447 12:1.4323432 
-0.351785600068047 -0.04247746995248482 -0.2013802493363 -0.4974082342586613 -0.2596924416880716 -0.1280183967082933 -0.7272874267149989 0.5603603360399173 0.5596585401722561 0.5599560036487205 0.5591346718464217 0.5585433963278558 0.5601546671101145 0.5594199429487667 1:22.699021 2:22.061048 3:22.317141 4:18.232771 5:18.4288 6:19.815663 7:25.098137 8:25.079434 9:24.799746 10:1.3452054 11:1.3344082 12:1.2506104 
-1.573192319031794 -0.06711100563245406 -0.3153037702916179 -0.7775537961767217 -0.4088448396368548 -0.199979803919363 -0.6044784151129146 0.8858980400386353 0.8764698824195448 0.8770318642706412 0.8747259479555725 0.8735933207679849 0.8768663247754636 0.8760051009535257 1:23.052874 2:21.650041 3:22.365267 4:19.687 5:15.811457 6:19.263114 7:24.629963 8:26.184371 9:25.9384 10:1.2485428 11:1.5215725 12:1.3356477 
-0.9028127265547643 -0.06000520669035084 -0.2828265374958323 -0.6969080025420734 -0.366016040897224 -0.1793816702073272 -0.5340051351336413 0.7854580376699512 0.7852231553508166 0.7853450007755753 0.7838181865429647 0.7826118867931537 0.7857121687148165 0.7844765242353911 1:22.926497 2:21.810365 3:22.338167 4:20.293226 5:13.495686 6:18.937343 7:24.339737 8:26.394743 9:26.071743 10:1.2034673 11:1.6485924 12:1.358733 
-0.4646690706325018 -0.05484185674679831 -0.2547019260505477 -0.6282885293356011 -0.3306482407481646 -0.1610962219992564 -0.4679002777992479 0.7113352591464074 0.7094545808143463 0.7089770974100945 0.7076196807584168 0.7061145108306134 0.7091157918589357 0.707717270199962 1:22.923285 2:21.798454 3:22.376967 4:20.271423 5:14.390029 6:18.203 7:24.182706 8:26.481143 9:26.621686 10:1.1966677 11:1.6079673 12:1.4233097 
-0.806819420174851 -0.07537250543337574 -0.3533631588433153 -0.8706068868455633 -0.4577506270682632 -0.2239917195694719 -0.6528295682997077 1.099877661166434 0.9815699457044309 0.9812706391322166 0.9794736198420989 0.9776466539528989 0.9818493342018427 0.9801390243035597 1:22.873346 2:21.791049 3:22.598498 4:18.763629 5:17.716257 6:19.052057 7:24.659486 8:28.816486 9:25.8888 10:1.2964564 11:1.5581434 12:1.3437662 
-0.4797734767625473 -0.05585889069607773 -0.2630488476552323 -0.647452143664988 -0.3411065325495902 -0.1679127451940652 -0.4684592297607971 0.7306273082898642 0.7308126032353339 0.7309705455351255 0.7288711638294263 0.7268649829351891 0.7306069942041354 0.728907103149972 1:22.858693 2:22.175277 3:22.519002 4:19.287971 5:17.905086 6:18.719314 7:24.268897 8:25.079163 9:24.583037 10:1.2504517 11:1.3607281 12:1.2948406 
-0.1123766276434886 -0.01860424564459727 -0.08399348487310755 -0.206921248641724 -0.1078119247731222 -0.05014627631679842 -0.384380993218769 0.2315901865165548 0.2327517930285143 0.2329577874512965 0.2327327336383093 0.2325368704026327 0.2333814029314822 0.2331414709659777 1:22.895349 2:21.822583 3:22.630046 4:19.953814 5:18.021114 6:19.498686 7:24.391403 8:25.547771 9:24.551917 10:1.2231315 11:1.3784565 12:1.2540874 
-0.7755666717577049 -0.08333917436978081 -0.3914295525435226 -0.9649977305944451 -0.5074731228265407 -0.2477178329000018 -0.7257316116729917 1.088354217681349 1.087448559958839 1.087390115428547 1.085533235314217 1.082889665515103 1.08791640644415 1.085866096222578 1:22.657587 2:22.205081 3:22.484346 4:10.193114 5:4.9936286 6:16.844257 7:25.014403 8:31.748943 9:27.696371 10:1.7452463 11:2.3453149 12:1.5456677 
-0.7761090085180507 -0.08333917436978097 -0.3914815037727824 -0.9647552338707068 -0.5072460264781484 -0.2478327728578968 -0.7258383359383981 1.088786598558146 1.087130865002147 1.087644172914896 1.085191476929359 1.082928644683497 1.087814234650864 1.085745041632075 1:22.657631 2:22.026591 3:22.42157 4:8.5107429 5:3.6909429 6:16.361171 7:25.178394 8:30.891143 9:27.804457 10:1.8380854 11:2.3676847 12:1.5753931 
-0.8013364626704688 -0.0861562687778082 -0.404772239102195 -0.9971936979836999 -0.5243463507324405 -0.2559602566453104 -0.750565586962279 1.124689298981811 1.123654344016433 1.12408872968973 1.121388714396622 1.119559691360939 1.124442917600801 1.12243194582348 1:22.572151 2:22.147043 3:22.493261 4:14.139229 5:11.491771 6:18.958171 7:24.128483 8:28.276829 9:25.716314 10:1.5022812 11:1.8439888 12:1.339814 
-0.6972067736589067 -0.06580747789097546 -0.3220631236638176 -0.8688201153797176 -0.4255126890973171 -0.2057208781572001 -0.6560384146292453 -0.844666499373587 0.9993477545278199 0.999999999999893 0.9970618749224273 0.9955618928158672 0.9999999999996586 0.9978500884493059 1:23.006576 2:21.564814 3:22.107779 4:10.097429 5:7.8973429 6:8.5055429 7:37.6922 8:28.695543 9:34.840486 10:2.3875246 11:2.0457783 12:2.3241777 
-0.6977908400562014 -0.06582078161072187 -0.3219483039565576 -0.8686052126409 -0.4246122513095866 -0.2056873430119899 -0.6560928655136444 -0.8446518667146119 0.9988908138740352 0.998995720953436 0.9968541958381216 0.9950149449814963 0.9998996481819407 0.9976715898029784 1:23.728585 2:21.498783 3:22.696744 4:15.691286 5:8.1428857 6:17.731886 7:37.673257 8:27.973943 9:26.235486 10:2.1053009 11:1.9971483 12:1.4275793 
-0.6975128946432108 -0.06583350293132592 -0.3222735192576217 -0.8686560818163472 -0.4250153531861325 -0.2057992774873652 -0.6560185951951323 -0.8443867228899252 0.9994483128625162 0.9999999999993661 0.9970603987050434 0.9950185618006617 0.9999999999771345 0.9983964193012019 1:25.356253 2:20.88201 3:22.636104 4:16.047914 5:5.3714857 6:17.436171 7:43.338171 8:28.488914 9:26.037114 10:2.3722129 11:2.1623941 12:1.4324739 
-0.6979825871314535 -0.0658401929561736 -0.3222599453899189 -0.8687745777400526 -0.4247280965599846 -0.2058553982347122 -0.6561723374341961 -0.8447936558514059 0.9993453589601326 1.000000000000001 0.9970475241644888 0.9949770163657602 1.000000000086847 0.9978585779122799 1:25.256979 2:22.062599 3:22.467104 4:16.694771 5:3.0642857 6:9.6788 7:41.210886 8:34.525114 9:30.1578 10:2.2327231 11:2.5819182 12:2.0297282 
-0.6975018281332154 -0.0658211321216262 -0.3220709089731702 -0.8689110534917012 -0.4247277841086407 -0.2057580468885665 -0.6561837376625034 -0.8447455599128826 0.9994550262907704 0.9991596426892996 0.9970655423120135 0.9950603927319485 1.000000028064882 0.9983974482307784 1:24.676147 2:21.730094 3:22.496174 4:19.470314 5:2.8899143 6:17.028971 7:36.791143 8:27.555343 9:28.900257 10:1.8709286 11:2.2402309 12:1.5969138 
-0.6975504325525221 -0.06580434270519764 -0.3224187219293175 -0.8686762302514093 -0.4248707132506747 -0.2057413363852823 -0.6560906471549293 -0.8450310139192797 0.9993297773624842 1.000000000054751 0.9970603990767187 0.9948413170684323 1.000000000000073 0.9978717086416094 1:24.758526 2:21.956227 3:22.386712 4:15.552143 5:10.840771 6:18.069914 7:35.010286 8:33.422657 9:34.1552 10:1.9783973 11:2.1354659 12:1.8088028 
-0.691643954400277 -0.06528460407937103 -0.3197646795465082 -0.8619284999114057 -0.4221779120135263 -0.2036367711651404 -0.6509678541774393 -0.8381263716785855 0.9915111589750838 0.9912380695922435 0.9891912944000407 0.9877559327571222 0.9920866296665736 0.9899195291616983 1:23.66089 2:21.840326 3:22.30764 4:19.453857 5:13.324571 6:17.580029 7:37.2372 8:28.730657 9:24.959891 10:1.8941848 11:1.7746512 12:1.3710754 
-0.6961837887771217 -0.06572555230124316 -0.3215506868472792 -0.867521212230946 -0.4242758140788589 -0.2054280510846965 -0.6546280256962819 -0.8436041823817558 0.9978756018276215 0.9976961385083466 0.9956129605822659 0.9937514593215503 0.9985687596252145 1.001986990746245 1:24.998342 2:21.533733 3:22.945251 4:14.131943 5:8.9162857 6:18.730371 7:32.9812 8:27.036943 9:25.734771 10:1.9477813 11:1.9111457 12:1.3521963 
-2.168836831771236 -0.06549851777037302 -0.3220709094169482 -0.868901342554213 -0.4246671096807549 -0.2058553982347308 -0.6559711704132376 -0.9974758256293006 0.9993296151909976 1.000000000000519 0.9970655424414091 0.9946219646232726 1.000000000000315 0.9978551247912608 1:22.604611 2:22.112109 3:22.425451 4:19.945729 5:16.556829 6:18.167 7:24.392611 8:28.738229 9:25.180131 10:1.2235989 11:1.612507 12:1.3526354 
-0.697505755352683 -0.06548368400844667 -0.3221624322811519 -0.8688201149410403 -0.4252859744243629 -0.2052891745045605 -0.6560384142986013 -0.8447682424241101 1.000005252967184 0.9999999969233876 0.9971809954751476 0.9946219641206436 0.9999996114170767 0.9983969817871106 1:23.599726 2:21.995199 3:23.586107 4:6.1084286 5:10.303143 6:15.031486 7:30.850257 8:28.785457 9:38.623829 10:2.2440725 11:1.9293306 12:2.1862738 
-0.6974441224449264 -0.06585885576179401 -0.3222065576985452 -0.8687040016981821 -0.4248748098452465 -0.2050175342405435 -0.6560095675917056 -0.8447680974481935 0.9992632371668369 0.9990606333299762 0.9970889400975592 0.995138528039594 0.9999525978142385 0.9982009496267997 1:24.273805 2:21.263615 3:22.023722 4:17.747257 5:11.425286 6:10.813629 7:29.414943 8:30.390257 9:29.150743 10:1.5866764 11:1.9535996 12:1.9220296 
-0.6975084729879568 -0.06550088028130741 -0.3221118352983152 -0.8687432138685715 -0.4251976897261264 -0.2057992775742185 -0.6555910972676265 -0.8445480049918134 1.000000170163849 1 0.9969121009320376 0.9952656318581713 0.9999999999999883 0.9978522310854437 1:23.539285 2:21.754188 3:21.766636 4:10.282629 5:13.874971 6:4.5368857 7:31.106457 8:33.4596 9:33.667257 10:2.047067 11:1.9847573 12:2.4647378 
-0.697632355658274 -0.06548367619759316 -0.3220859100017136 -0.8687517092656253 -0.4248977896444611 -0.2057992774720572 -0.6560501370976628 -0.8448120987148202 1.000000014612589 1 0.9973574895931796 0.9952307963578078 1.000000000000006 0.9978585806933205 1:24.8447 2:21.790078 3:22.337743 4:7.6781714 5:9.1532857 6:13.822714 7:33.463143 8:27.670943 9:33.495086 10:2.2965239 11:1.9311077 12:1.9891692 
-0.6974793007558057 -0.06586486777863954 -0.3222363643233178 -0.8690549178691629 -0.4253185798083784 -0.2053176769672269 -0.6561504910815894 -0.8448031222395127 0.9993291057984668 0.9999999999999966 0.9974425338901368 0.9954639844787165 1.000011054505873 0.9977823664523685 1:24.253416 2:21.559912 3:22.298018 4:10.017943 5:8.9671143 6:18.339057 7:31.0514 8:29.552771 9:26.647314 10:2.0576075 11:2.0350912 12:1.4177571 
-0.6972844740905605 -0.0654838456687975 -0.3220661635599588 -0.8692175702414939 -0.4246950323863402 -0.2052893872711972 -0.6558571221310244 -0.8446664993736637 0.9993389927158268 1 0.9969121009320376 0.9952082783714953 0.9999999999999962 0.9978522540767687 1:22.840314 2:22.180968 3:22.148571 4:3.3290571 5:1.6141143 6:17.536286 7:35.020657 8:39.358486 9:25.478743 10:2.5935219 11:2.8978683 12:1.3993639 
-0.6971368183382227 -0.06578473886000608 -0.3219081760708534 -0.8680411581304465 -0.4248382253051234 -0.2052170978140857 -0.6556394531812892 -0.8437259384743989 0.9984805709073357 1.006232675371642 0.9963397545975095 0.9939941148501437 0.9986196858955141 0.9970112116900864 1:23.102575 2:21.746394 3:22.706866 4:17.661771 5:7.84 6:18.255686 7:33.0136 8:31.733086 9:27.371771 10:1.771923 11:2.2013958 12:1.4583764 
-0.697479656612319 -0.06535710479880726 -0.3222599453897195 -0.868271970708548 -0.4247450321564124 -0.2051930770356877 -0.6561508256967452 -0.8447873335571112 0.9993214947437474 1 0.997180531559885 0.9961104739437953 1 0.9984001787095674 1:23.386662 2:21.552358 3:22.838365 4:15.017886 5:11.373743 6:18.284314 7:45.815457 8:29.724886 9:28.543629 10:2.5485683 11:1.922735 12:1.5158604 
-0.6954555652417306 -0.0651427311751035 -0.3213542221786814 -0.8665085361154682 -0.4239122789241015 -0.2052353565430615 -0.6540348384280951 -0.8423229208722033 0.9973846547555945 0.9974618915553265 0.9949028013285216 0.9922350535511727 0.9972542540182916 0.995413383954269 1:24.4514 2:21.157928 3:22.799692 4:16.654914 5:7.6633714 6:18.413314 7:33.927629 8:28.620171 9:26.792686 10:1.8685093 11:2.0537531 12:1.4213329 
-0.6966006303021459 -0.06544406054173046 -0.3219123180215888 -0.8682215685340979 -0.4244657421167478 -0.205607274266691 -0.6555932288062869 -0.8442898864111152 0.9991775670258657 0.9986272783659181 0.9965775478437293 0.9943564885526712 0.9993047076252903 0.9977810751757383 1:26.125859 2:22.037836 3:22.037521 4:19.641629 5:12.721286 6:13.751943 7:29.557629 8:30.803943 9:28.506943 10:1.4985978 11:1.909235 12:1.7419132 
-0.6976331888597396 -0.0654835991125074 -0.32232307822617 -0.8687641431376686 -0.4255121966736869 -0.2050633352224268 -0.6561028168797847 -0.8447608634243993 0.9993286188964844 1.000000001276906 0.997441886155124 0.9955608063968251 0.9999987376369077 0.9978777069330223 1:24.220125 2:21.472458 3:22.029365 4:18.220486 5:14.073429 6:13.868514 7:34.0172 8:27.965257 9:26.3212 10:1.7942928 11:1.6985111 12:1.6261479 
-0.6976053600049648 -0.06581581823865219 -0.3222734307187606 -0.8687666760980547 -0.4253661749457918 -0.2050364695078009 -0.6555439475862904 -0.8447616041959066 0.9993450752183979 0.9999999991242943 0.9965461238437515 0.9949712539598765 1.000000005601374 0.9978519427554936 1:25.952101 2:21.663562 3:22.847251 4:13.497886 5:4.8121429 6:17.486343 7:35.691171 8:31.005314 9:26.718371 10:2.1159262 11:2.3170491 12:1.4642063 
-0.6975360972531708 -0.06535710479880103 -0.3224187219290883 -0.8687760185610114 -0.4247450321563667 -0.2052714585163883 -0.655590016170532 -0.8448440981372876 0.999087926056348 0.9999999999966182 0.9970692045387255 0.9954467586946748 0.9999999938148532 0.9978691034914949 1:23.04619 2:22.151903 3:23.11928 4:7.8588286 5:14.3796 6:16.0748 7:28.695314 8:28.026771 9:32.1076 10:2.0477034 11:1.6862092 12:1.8061637 
-0.6974971283947923 -0.06549851776368293 -0.3223878808150916 -0.8687669226342994 -0.4247450321566709 -0.2057992775655179 -0.656024487939388 -0.8448024337574244 0.9993389923000638 1 0.9972034002077564 0.9949850570262357 1.000000003245688 0.9978659757620424 1:23.710462 2:21.928176 3:23.479686 4:17.856629 5:15.8784 6:17.9522 7:31.088457 8:28.162 9:40.560286 10:1.6653249 11:1.6176459 12:2.1367833 
-0.691921073618809 -0.06528811536766033 -0.3194984478893806 -0.8619346993583588 -0.421886450734095 -0.2041135821279635 -0.6509341096372894 -0.8381374937287363 0.9913974553840514 0.9912974075125313 0.9892915289943512 0.9874243383119051 0.9922835771213849 0.9899171499783048 1:24.286435 2:21.576175 3:22.673781 4:17.2212 5:12.837 6:17.024343 7:36.999257 8:30.4162 9:25.737057 10:1.9944833 11:1.8839201 12:1.438094 
-0.6970892421782156 -0.06549851777037319 -0.3220237055947974 -0.8691055187381862 -0.4246671030137306 -0.2057580468986066 -0.6561534763075869 -0.8448169696219554 0.9993386644181207 1.000000000000084 0.9971075704888969 0.9954956485000263 1.000000015164785 0.9978455315756424 1:24.062591 2:22.135669 3:21.50326 4:18.573514 5:11.075629 6:2.2833429 7:33.143343 8:25.7978 9:25.707857 10:1.7326024 11:1.7402625 12:2.1778351 
-0.69780925127495 -0.0653086133375162 -0.3223878808147174 -0.8688219143688306 -0.4254252274457225 -0.2057580468983638 -0.6561477925798009 -0.844787333557554 0.9999999508112807 1.000026289389953 0.9971815283504935 0.9955314996494666 1.000014147038169 0.9983974481058457 1:23.813312 2:21.818002 3:21.914325 4:14.219457 5:15.486657 6:17.371571 7:30.406086 8:26.704286 9:29.704057 10:1.8138986 11:1.5640465 12:1.620104 
-0.6976323557912099 -0.06548384564782234 -0.3223231975455029 -0.8688222812304431 -0.4249738071890786 -0.205748264868457 -0.6561927876688725 -0.8448460184473219 1.000190667631047 1.003561592443109 0.9970475238520594 0.9946407179937219 1 0.9984001798368244 1:23.630213 2:21.905825 3:21.957173 4:14.844771 5:12.799371 6:8.9406571 7:34.145114 8:32.458114 9:27.632686 10:1.9704628 11:1.9884839 12:1.9398755 
-0.6971505565966256 -0.06546646799434819 -0.3220672584894228 -0.8682199590176769 -0.4244629755142859 -0.2057952108980649 -0.6558517596822107 -0.8439961384620951 0.9988139569968404 0.9988088227829109 0.9965393225210671 0.9949425622847362 0.9997331585682217 0.9978731640258198 1:25.463633 2:22.228674 3:21.490155 4:18.425514 5:14.6026 6:13.636371 7:28.228714 8:32.493914 9:26.347714 10:1.492926 11:1.8996138 12:1.6391537 
-0.6975168477274678 -0.06549851776282462 -0.3220112590999897 -0.868774577728906 -0.4247450321512235 -0.2051930770331027 -0.656050137420646 -0.8448029673405352 1.000000145377062 0.9999999999429372 0.9970919666885131 0.9952083751261113 0.999999984804949 0.9983969818325118 1:25.060489 2:22.170116 3:21.387761 4:12.189857 5:7.5377143 6:2.8027143 7:31.125457 8:42.9284 9:27.874743 10:1.9521228 11:2.7795199 12:2.2606756 
-0.6975018281734035 -0.06529096103287807 -0.3220859101598063 -0.8682719706978783 -0.4247277841331323 -0.2057580469000984 -0.6561723374257739 -0.8443194632294809 0.9990855811479311 1 0.9970695766901978 0.9952083751261114 1 0.9983974480407704 1:24.686139 2:22.480756 3:21.511825 4:8.4124857 5:3.1634 6:3.3029143 7:30.785257 8:42.938943 9:31.878057 10:2.1249512 11:3 12:2.4368198 
-0.7008098751148325 -0.06548693327211475 -0.3224140172534228 -0.868589383216705 -0.4251340533669312 -0.2052662458960877 -0.6563867323654326 -0.8457662242201831 -1.000539836533745 0.9999999999403452 0.9975309329921392 0.9956600402006445 1.000507919635336 0.9981637706181111 1:22.645484 2:22.442535 3:22.764532 4:3.7427714 5:12.743086 6:13.956029 7:29.678971 8:39.547457 9:30.827257 10:2.304128 11:2.3477816 12:1.8483217 
-0.7006936340503438 -0.06548716508619262 -0.3224132011343616 -0.8695778919070923 -0.4255452533354108 -0.2056331411679562 -0.6565123038044481 -0.8459006476418276 -0.9999987210526673 0.9999987384029908 0.9969318608454848 0.9957991864023726 0.9999975059803103 0.9978347036532207 1:23.414726 2:22.299216 3:23.557939 4:19.538171 5:12.595114 6:18.382057 7:31.009543 8:37.360143 9:43.919657 10:1.5768053 11:2.245239 12:2.2840856 
-0.7011136039752596 -0.06594774476912485 -0.3224866726569998 -0.8695213736365967 -0.4252462071911727 -0.2052665376160249 -0.6562073398690868 -0.8461623648797438 -1.000661335743862 1 0.9973881770899974 0.995885841838307 1.000507920040489 0.9986697368458769 1:23.556768 2:23.006319 3:21.970445 4:17.763 5:14.083314 6:3.7634 7:37.6128 8:37.6978 9:31.1268 10:1.9980907 11:2.1873872 12:2.3758907 
-0.700808130635066 -0.06535626523870497 -0.3224247528664931 -0.8690800071678019 -0.4252557829880815 -0.2059640799240718 -0.656064701981733 -0.8454589181356835 -1 1 0.997743454330444 0.9956480762459476 0.9999999999999883 0.9981618312915992 1:23.665214 2:23.541214 3:23.443902 4:18.7318 5:13.919714 6:17.419429 7:26.840657 8:37.901229 9:42.151571 10:1.4077308 11:2.2058422 12:2.2435854 
-0.7010974878299805 -0.06535643044264194 -0.3224747848853726 -0.8695775589783678 -0.4253341186498423 -0.2056336607521404 -0.6565085291535134 -0.8458987045688859 -0.9999999999998968 0.9999999999999389 0.9974220602761784 0.9956505903999706 1.000727359617356 0.9987288718547434 1:23.447858 2:23.915503 3:23.119389 4:7.7847143 5:8.0822 6:14.895114 7:30.289629 8:39.387886 9:29.876114 10:2.1315956 11:2.5741173 12:1.753277 
-0.7005470081894285 -0.06548045252748382 -0.3225082374560551 -0.8695774737838985 -0.4253384621570188 -0.2059304557529646 -0.6560662952546538 -0.8460333295482897 -0.9999999508112807 0.9999999508117956 0.9975376720789401 0.9957717487995795 1.000570111569396 0.9987233777253828 1:22.990525 2:22.840861 3:23.136155 4:3.995 5:10.121514 6:18.131029 7:30.670657 8:32.916714 9:30.078371 10:2.3413095 11:2.1461918 12:1.6007381 
-0.7005616744241231 -0.06530681671192756 -0.3222734009354336 -0.8695016505267577 -0.4250977133718583 -0.2054697187777178 -0.6564793317310318 -0.8459526181763799 -0.9999999999972633 1 0.9977455177327953 0.995767103115379 0.9999998452228269 0.9986124487794863 1:23.323914 2:22.615225 3:21.775753 4:8.1053714 5:14.383 6:10.249629 7:28.263257 8:40.566571 9:24.659217 10:2.0135819 11:2.3165664 12:1.7245452 
-0.7006296782835996 -0.06548690287289416 -0.3224746292936865 -0.8686255769193041 -0.4251392730965157 -0.2054479911494176 -0.6561213558444596 -0.8456950616681476 -0.9999997739839319 0.9999997740874658 0.9970508626428005 0.9957723815339419 1.00073983652599 0.9986173104897627 1:23.591765 2:22.497277 3:21.600483 4:7.9872286 5:14.947886 6:12.388057 7:28.791629 8:35.777229 9:25.610514 10:2.0460901 11:2.0473442 12:1.6648536 
-0.7010445361792606 -0.06590721357146334 -0.3223332499739821 -0.8695470313883444 -0.4254175336859305 -0.2059236613814153 -0.6563669734959574 -0.8456951709423158 -0.9999999999999998 0.9999999999999991 0.997387969310416 0.9957903262002135 1 0.9986711667104724 1:23.498615 2:23.019815 3:23.046332 4:3.7596 5:4.716 6:18.388371 7:29.235629 8:33.0944 9:29.401857 10:2.2809896 11:2.4269271 12:1.5537818 
-0.6901547972384162 -0.06491919287824111 -0.3175184048067049 -0.8563059495638233 -0.4188134501963846 -0.2023824140822024 -0.6463460388087625 -0.8331086632903354 -0.9856188619900266 0.9859902968563747 0.982611316575981 0.9809813469651565 0.9856414703058689 0.9832912194066059 1:23.946542 2:22.105476 3:21.501814 4:13.525686 5:15.742429 6:10.671057 7:30.636914 8:33.344 9:25.656857 10:1.8603894 11:1.8850449 12:1.7535183 
-0.7008872452073756 -0.06548045908997739 -0.3223174369832894 -0.8691017799567962 -0.425256856676508 -0.2059304760102532 -0.6562073398664784 -0.8458072048145793 -1.000689040971613 1 0.9977841798991294 0.9949699469567779 1.000729888994125 0.9981685393714856 1:22.837638 2:22.479555 3:22.76555 4:3.8492571 5:8.7837714 6:15.469086 7:30.363429 8:28.524686 9:34.953 10:2.3331897 11:1.9926157 12:1.9796932 
-0.6982647590262918 -0.06516696707122341 -0.3211960941474847 -0.8661286899915155 -0.4239982226864825 -0.2050855166345413 -0.6544001071549936 -0.8424826687704071 -0.9972562675911736 0.9972630725155295 0.9938996664573159 0.9921453217543047 0.9972542970392192 0.9949796444945726 1:23.603486 2:22.232372 3:21.584935 4:13.771686 5:16.481686 6:12.821257 7:27.910629 8:32.908714 9:25.940914 10:1.7109365 11:1.8259864 12:1.6596846 
-0.7010865664247266 -0.06548045868575131 -0.322474782486638 -0.8695471165923168 -0.4250979053269727 -0.205266245980057 -0.6564952543658653 -0.845855826702795 -1.000551686764902 1 0.9978370499304422 0.9956505908006621 1 0.9981705413458002 1:23.751863 2:23.796813 3:22.624322 4:5.3525429 5:15.548429 6:19.848357 7:29.519143 8:41.357971 9:33.554771 10:2.2151487 11:2.2977594 12:1.689188 
-0.7005882755240468 -0.06594011666250232 -0.3223291606819975 -0.8693642320466035 -0.4253819016705665 -0.2061061985364743 -0.6567582484805817 -0.8457567867108916 -0.9999947733149046 1.000000024351804 0.9974650187296336 0.9957240258723457 0.9999915307504848 0.9986680280077236 1:23.431589 2:22.786814 3:21.386755 4:14.149429 5:12.191457 6:12.304657 7:30.746257 8:37.444029 9:28.828829 10:1.8345243 11:2.2697537 12:1.8308709 
-0.7007202443710781 -0.06590933242412955 -0.3224255663448832 -0.8690807948592171 -0.4252068949732832 -0.2060927391322629 -0.6565249335228407 -0.8456952540140306 -1.00067038447157 1.000000182048322 0.9973882089702223 0.9951197382386312 1.000581595034157 0.9978372206613351 1:23.432611 2:22.539318 3:21.580898 4:14.762314 5:2.2146571 6:9.3720286 7:30.801371 8:35.627629 9:28.894743 10:1.8064784 11:2.6800762 12:1.9816441 
-0.6955810444672237 -0.06550192816105506 -0.3199790388678458 -0.86308420438164 -0.4222744662274499 -0.2045848932435296 -0.6513661664535007 -0.8395082627157576 -0.9932138640180304 0.9942101770466646 0.9903630840968755 0.9884471161920428 0.9932839137464866 0.990744123622583 1:23.698843 2:22.450561 3:21.534948 4:12.498429 5:12.7036 6:11.036514 7:30.201829 8:33.949829 9:27.260657 10:1.8901651 11:2.0683062 12:1.8157849 
-0.6865214059229253 -0.06463819675849342 -0.3159966525645114 -0.8516441932581487 -0.4166698406257424 -0.201206364780168 -0.6433108866863427 -0.8285105858070019 -0.9805703172430085 0.980509702261264 0.9778072778248664 0.9753118845134012 0.9806294089645834 0.9781425168910874 1:23.77724 2:22.613556 3:21.189127 4:12.915371 5:14.336629 6:10.341771 7:28.354286 8:32.575 9:26.001171 10:1.7763019 11:1.9170646 12:1.7873884 
-0.7003451939988937 -0.06586280418518464 -0.3220941830957201 -0.8679646739288971 -0.4250023892622086 -0.2058544370858937 -0.655263822330332 -0.844751063720692 -1.00000035198347 0.9994355191683686 0.9965158899827806 0.9943832103330714 0.9993555297621596 0.9968855364018484 1:23.583919 2:22.30976 3:21.493907 4:15.878286 5:12.711 6:10.858971 7:31.070171 8:32.836657 9:26.659886 10:1.7638807 11:2.0119614 12:1.794504 
-0.7005565950847328 -0.06548044600717867 -0.3223235738780427 -0.8690666207789906 -0.4254071620846492 -0.2058382622270418 -0.6564880357648946 -0.8454610524214236 -1.000665804524215 1 0.9973881770768083 0.995801698514755 1 0.9986223622877936 1:23.702612 2:22.551507 3:21.204346 4:5.5501143 5:15.133086 6:2.2281143 7:42.339629 8:34.829543 9:27.095486 10:2.849856 11:1.9903803 12:2.250385 
-0.7007221628861062 -0.06546703406459381 -0.3222803889164183 -0.8684008139163306 -0.4251566161809308 -0.2056016085433263 -0.6568605799486753 -0.8455081800258508 -1.000000170163849 0.9998946616891369 0.9968322227889299 0.9956487088813263 0.9998907557818595 0.9984612482623358 1:24.241409 2:22.657377 3:20.896367 4:6.3427143 5:13.567943 6:3.1244286 7:31.5866 8:35.832314 9:31.3554 10:2.269317 11:2.1195006 12:2.4195141 
-0.7007221906155392 -0.0654735468388435 -0.3223622522036256 -0.8692337810910807 -0.4253423431047127 -0.2052294333157247 -0.6560626151139656 -0.8457164526019393 -0.9998941800909253 1.000000000342123 0.9971776495289183 0.9947602700726576 0.9999997900534907 0.9984031915319876 1:24.649967 2:23.757726 3:20.803428 4:6.2812286 5:11.436314 6:1.3378286 7:30.092514 8:36.558514 9:29.115029 10:2.1972828 11:2.2631983 12:2.3966975 
-0.7005619917866452 -0.0659072200011338 -0.3222735491136954 -0.8693831946807562 -0.4254260086294868 -0.2054698115398072 -0.656174007718887 -0.8458041407098226 -1.000000014612589 1 0.9977349968187717 0.995656305112901 1 0.9986715445776784 1:23.094551 2:22.650407 3:21.928753 4:3.9015429 5:7.5260286 6:10.222343 7:29.514429 8:35.205686 9:26.050571 10:2.2878711 11:2.3917928 12:1.7958774 
-0.7010994681872061 -0.06594308084940445 -0.3223332816417784 -0.8685847107516912 -0.425546328932552 -0.2056674219517327 -0.6564401677471525 -0.8456727306304948 -1.000005252967184 1.000674233972158 0.9975241454140306 0.9949580871869147 1.000563279664667 4096 1:25.480569 2:23.183839 3:20.507228 4:10.678971 5:6.9129429 6:3.5483429 7:31.469286 8:30.886 9:24.949234 10:2.0453818 11:2.205417 12:2.0760829 
-0.7005928383068585 -0.06548693325332669 -0.3225087747921285 -0.8693007301663243 -0.4252267977705976 -0.2058382622264642 -0.6568325823998545 -0.8458815134816662 -1.000549020644206 1.000000000125775 0.9978085120647481 0.9951197382358962 1 0.9981713290490085 1:23.300136 2:22.49234 3:21.624226 4:4.1821714 5:9.1058857 6:3.3456857 7:33.8362 8:32.059286 9:27.990171 10:2.4910685 11:2.1541464 12:2.2391778 
-0.7006953744049651 -0.06548045601260794 -0.3224747722064427 -0.8690665862654577 -0.4255818744392241 -0.2059646056762396 -0.6561688116016927 -0.8457967551019267 -1 1.000686761823583 0.997388146731674 0.995846316451407 1 0.9987273144223059 1:23.465355 2:22.514709 3:21.595479 4:7.5328286 5:15.3804 6:4.8144571 7:29.312286 8:33.546971 9:27.498686 10:2.095118 11:1.9134544 12:2.1406119 
-0.7008099473171977 -0.06594308084940424 -0.3225087747930107 -0.8695435283831114 -0.4254295882091654 -0.2058295661175785 -0.6569605626641737 -0.8456954638082679 -1.000661298532267 1.000000000000025 0.9976829180924681 0.9956508891557874 1 0.9977517612894677 1:24.463184 2:22.103051 3:21.874679 4:11.227114 5:5.9263714 6:3.6732571 7:30.073829 8:38.183 9:29.128543 10:1.9476534 11:2.6219328 12:2.2799466 
-0.7006425568243331 -0.0659597915113659 -0.3224279142369156 -0.8691425338848506 -0.4251298444008285 -0.2060906486639199 -0.6561672472924953 -0.8457069686119809 -1.000008424471088 0.9999950575831647 0.9977251147677653 0.9956409361669467 1 0.9987136192794277 1:23.984105 2:22.006623 3:21.753708 4:11.875857 5:15.022 6:10.959371 7:32.902343 8:38.706914 9:27.986343 10:2.057257 11:2.1909285 12:1.8561528 
-0.7005470772783344 -0.06594404458226783 -0.322322867844667 -0.8691998455478106 -0.4255666511180678 -0.2056448365994928 -0.6564952543659646 -0.8459239223144945 -1.000667063472905 1.000000000000002 0.9973880675027138 0.9957830985989224 1 0.9986177851537418 1:23.284015 2:23.492668 3:22.992526 4:6.5076857 5:12.851086 6:16.9446 7:44.345171 8:43.077057 9:38.132971 10:2.9025503 11:2.519827 12:2.065397 
-0.7011286048598003 -0.06548693325350363 -0.3224866726569997 -0.8685893835695001 -0.4251176640137685 -0.2061030467977963 -0.6565023475982073 -0.8455513521395304 -1.000544973638749 1 0.9973880675026088 0.995774768860618 1 0.9986131794677701 1:22.782556 2:22.495243 3:22.957802 4:4.2834286 5:1 6:4.3716571 7:37.273714 8:40.555514 9:39.387543 10:2.6588227 11:2.9889365 12:2.7606742 
-0.7010612887903058 -0.06541041411973692 -0.3223670547387205 -0.868625989338303 -0.4251345876021994 -0.2054480884399822 -0.6561583578216603 -0.8458945107536936 -1.000000145377062 1 0.9975241452240554 0.9951197380552194 1 0.998165538357 1:22.706863 2:22.751695 3:22.19001 4:4.2165429 5:10.995914 6:18.779743 7:27.752829 8:37.605 9:26.605829 10:2.1834552 11:2.3379622 12:1.3935125 
-0.7001759217218241 -0.06551128800929749 -0.3223674217244747 -0.86887679057573 -0.425075727513813 -0.2054657012069444 -0.6566744445976801 -0.8458428018151029 -1.000000001276906 -0.9999586331342953 0.9968063355216027 0.9955077031077968 1.000544596564203 0.99868255970509 1:24.115177 2:21.963763 3:22.621156 4:18.148 5:13.932 6:19.3544 7:34.057629 8:30.195657 9:28.779257 10:1.7999704 11:1.8177717 12:1.4739021 
-0.7006950598327599 -0.06551137385429973 -0.3227485107968844 -0.8688444504595334 -0.4250894554630256 -0.2055156123765088 -0.6566747271377679 -0.8454749521051188 -1.000000000054751 -0.9999997740874658 0.9973595355040064 0.9957489767792186 1.000915560203504 0.9986338242635759 1:24.967586 2:21.520488 3:23.771492 4:16.262229 5:10.5892 6:20.278314 7:29.811143 8:30.346771 9:32.610829 10:1.6812686 11:1.9934533 12:1.6201054 
-0.7008952208072004 -0.06632943354199311 -0.3222884044197462 -0.868873706945632 -0.4250084115031516 -0.2058567022229202 -0.656369018239007 -0.8454100369354848 -0.9999999969233876 -0.9991265252721471 0.9974080949110943 0.9952976984097887 1.000088502489371 0.9985445142623651 1:24.952899 2:21.473021 3:23.318247 4:18.380571 5:15.357143 6:20.166514 7:35.055171 8:25.912686 9:32.569429 10:1.8384348 11:1.5307554 12:1.6236453 
-0.6886771687146729 -0.06470195297710951 -0.3167459927067856 -0.8540918332449333 -0.4177619162919206 -0.2017464292853041 -0.6446812571446099 -0.8311721189913891 -0.9836730368955113 -0.9819893086004665 0.9802347245310485 0.9785441669789476 0.9834595356393476 0.9814987502777859 1:25.333837 2:21.935565 3:22.658262 4:11.7748 5:3.0713143 6:8.5293143 7:46.1062 8:27.8004 9:32.426657 10:2.7262568 11:2.2434317 12:2.2016099 
-0.6882669723545817 -0.0647191436119155 -0.3166741601800743 -0.8541593715128854 -0.4177145173610096 -0.2019432490196698 -0.6449066742143985 -0.8313249592012326 -0.9835628162409184 -0.9821986296488854 0.9803012573933434 0.9785455321486709 0.9837161799066785 0.9808679035791271 1:25.929178 2:22.539745 3:22.545738 4:13.164114 5:3.0663714 6:7.0588857 7:45.414629 8:29.3146 9:31.732629 10:2.6216253 11:2.3198175 12:2.240649 
-0.7007387891520314 -0.06551137385685296 -0.3222912234159071 -0.8688427328204533 -0.4250452991786353 -0.2058789723128444 -0.6559222634955467 -0.8457162445679644 -1.000000969418411 -0.9999999999999991 0.9974085848632939 0.9980858296632378 1.002968436299865 0.9979989179799801 1:26.318624 2:22.223456 3:22.568009 4:22.570826 5:11.737371 6:19.207657 7:37.308457 8:27.168943 9:26.874629 10:1.7410399 11:1.7759327 12:1.3855118 
-0.7003475218535803 -0.06536916615540472 -0.3222836542087754 -0.8690324588505054 -0.4250800015725839 -0.2057420725848599 -0.6561903344068163 -0.8456303069999642 -1.00911897579845 -1 0.9974090937296918 0.9953680027970674 1.001454332365578 0.9985680684732327 1:25.54969 2:21.616067 3:23.028141 4:18.677857 5:7.5846857 6:19.556514 7:32.973086 8:31.007086 9:27.891543 10:1.7187949 11:2.1777287 12:1.4191032 
-0.7001254812905794 -0.06551137385667404 -0.3222520056908709 -0.8691133931224385 -0.4251835628504673 -0.2059247943664014 -0.6559965021083994 -0.8457020213357558 -1.000000000000519 -0.9993378256938681 0.9967120695468295 0.9954370605311338 1.00000000000008 0.998544576444528 1:25.642877 2:21.941287 3:21.615152 4:16.641886 5:7.4640857 6:6.1818571 7:33.068314 8:30.651857 9:24.99934 10:1.8259562 11:2.1659311 12:1.9461836 
-0.7010389425818943 -0.06551137246199015 -0.3222520056585898 -0.8689843945354232 -0.4250906373300971 -0.2052053263181319 -0.6560221497570825 -0.8455982120511353 -1 -1 0.9974097563608201 0.9955070319051173 1.00000831199621 0.9985445778560994 1:24.044633 2:22.095061 3:23.974501 4:10.679486 5:10.709686 6:17.272057 7:28.399714 8:35.7026 9:35.455657 10:1.8910113 11:2.2566976 12:1.9143106 
-0.7006200895730215 -0.06584891019832517 -0.3222447378485367 -0.8692878460028015 -0.4248168144981622 -0.2052053263385341 -0.655904208607905 -0.8451259209381727 -1 -1 0.9973848394985589 0.9958294802140209 1.00003681062028 0.9985447439078132 1:24.435093 2:21.425764 3:23.241751 4:11.019629 5:2.1313429 6:15.154629 7:30.490057 8:27.478914 9:32.2062 10:1.9790151 11:2.2745305 12:1.8573898 
-0.7001696660640459 -0.06538989044904055 -0.3222447378483281 -0.8689345141089199 -0.425121491717238 -0.2060374108618192 -0.6562546997305159 -0.8450451997383831 -0.9999999999993661 -1.000000182048322 0.9972659214801349 0.9953673096512501 0.9999999999984074 0.9979947914184761 1:24.055733 2:21.409632 3:22.238442 4:12.857886 5:2.0234571 6:7.3994 7:33.242086 8:31.849257 9:27.859943 10:2.0249615 11:2.4997055 12:2.0288002 
-0.7005276318624735 -0.06579780044281564 -0.3222889116640048 -0.8688426987523642 -0.4251403600041848 -0.2054946379400462 -0.6560925871145862 -0.8454018351588386 -0.9999999034445161 -0.9993451935951008 0.9971769907127223 0.9952992585315117 0.9999965174324099 0.9986145831537096 1:23.822563 2:21.619505 3:22.155081 4:14.585514 5:15.6964 6:8.9588286 7:34.557286 8:28.889629 9:33.053057 10:2.0042237 11:1.663384 12:2.2115097 
-0.7004970182472257 -0.06579761417327146 -0.3221905704172284 -0.869155869563696 -0.4251461147622618 -0.2057414648482615 -0.6559473331442611 -0.8458699789785608 -1.000770584279075 -0.9992859303377051 0.9974332934944096 0.9956662479781369 1.000900000932287 0.9985691531647708 1:24.495013 2:22.660923 3:22.879148 4:17.268057 5:16.944257 6:19.538314 7:33.347114 8:26.221829 9:28.365657 10:1.8084896 11:1.4664963 12:1.4438578 
-0.7002662651095264 -0.06589352241617236 -0.3222729548836998 -0.868356955623109 -0.4255960026898779 -0.2060367938583071 -0.6560681164222183 -0.8454092189327345 -1.000623628491912 -0.9993594212117373 0.9971740071989148 0.9952901356332784 0.9999999999370155 0.9985094479902023 1:24.601329 2:22.304897 3:21.12753 4:9.5883143 5:13.58 6:2.1952571 7:31.411086 8:33.532771 9:26.537457 10:2.097296 11:2.0032683 12:2.2239783 
-0.7006900837939314 -0.06551137237081059 -0.3222773071589972 -0.8687992976120629 -0.4249571916108536 -0.2055368150645228 -0.6560677048207728 -0.8457864860012675 -0.9999999991242943 -0.9999950575831647 0.9974983201041222 0.9958294787008848 0.9999997128977001 0.998568075105242 1:24.142746 2:22.537222 3:21.479755 4:14.311629 5:16.946571 6:4.2700857 7:32.330543 8:29.866543 9:25.012694 10:1.9060298 11:1.649644 12:2.0429831 
