svm_type c_svc
kernel_type rbf
gamma 0.5
nr_class 15
total_sv 344
rho -0.477785 -0.324449 0.231823 -0.453989 -0.54864 1.29194 1.34967 1.192 1.10547 0.349443 0.726997 0.670366 2.31349 0.680522 0.156769 0.6396 -0.00714964 -0.201233 0.39712 0.380986 0.802465 0.6874 0.688068 0.814506 0.797051 0.720093 0.597859 0.941497 0.199319 -0.223526 0.249216 0.237741 0.779224 0.647905 0.668175 0.93479 0.802897 0.6957 0.484154 -0.795669 -0.695191 -0.35045 -0.367527 0.509087 0.170855 0.207038 0.40915 0.809286 0.135367 -0.00866293 0.3675 0.234705 0.187757 0.914234 0.704034 0.711547 0.940225 0.828147 0.763585 0.558356 0.356501 0.359023 0.836756 0.706761 0.701656 0.862341 0.811198 0.750602 0.598413 -2.14813 3.02973 1.78079 0.430549 0.928993 0.75043 0.935072 0.346727 3.59237 2.97165 0.457642 0.991063 0.755844 1.67082 0.791709 -0.336938 0.131666 0.0164127 0.244438 -0.405404 -0.458317 0.0208221 0.025664 0.554489 -0.0294765 -0.447512 0.231172 0.635565 -0.161914 -0.161575 0.170546 0.0949245 0.0307904 -0.69758 -0.482752 -0.800107
label 1 2 3 4 5 6 7 8 -1 -2 -3 -4 -5 -6 -7
nr_sv 19 6 18 26 17 9 24 22 30 29 26 30 30 29 29
SV
0.5456972876524395 0 0.353937179644428 0 1.347017074040458 0 0 0 0 0.3186903043392634 0 0.6047315572504163 0.4987236425371707 0.5693446012930623 1:-0.99790682 2:0.66710615 3:-0.012187348 4:0.0078444155 5:-0.10115728 6:0.55381095 7:-0.76232271 8:-0.14861235 9:-0.31510636 10:0.63779925 11:0.15481621 12:0.51577385 
0 0.5707818607479527 0.3227122665661363 0 0 0 0 0 1.067320348390038 0.6299990197153809 0 0.6741854748311087 0 0.3319512301447098 1:-0.92056079 2:0.066465391 3:-0.074622599 4:-0.22607884 5:-0.049690775 6:0.51685927 7:-0.79474712 8:-0.29032911 9:-0.19001446 10:0.53260868 11:0.2667759 12:0.42691013 
0 0.8249471390950619 0.01716902370365998 0 0 0 25.18288824746318 0 0 0 0.3511609634175245 0 7.148752235431781 0 1:-0.92182576 2:0.073174108 3:-0.086255339 4:-0.25606423 5:0.0088962535 6:0.43760981 7:-0.75573727 8:-0.20844199 9:-0.28626003 10:0.49224067 11:0.24744333 12:0.44154599 
0.3236935839999697 0 0.6989365952625845 2.539237959806051 0.9103718852293223 21.36249063169902 0 0 0 0 0.5925827658216517 0 0 0 1:-0.92519939 2:0.10092366 3:-0.086470546 4:-0.18548753 5:-0.091997141 6:0.54297448 7:-0.78643004 8:-0.22961845 9:-0.34243481 10:0.54918601 11:0.20840915 12:0.52575135 
0 0 0 0 0 0 0 0 0 0 0.8843800963246183 0 45.77853169376647 0 1:-0.94183973 2:0.28002423 3:-0.10523411 4:0.018070592 5:-0.11071738 6:0.29941341 7:-0.80337173 8:0.12295608 9:-0.49920525 10:0.66884618 11:-0.01399001 12:0.49246445 
0 0 0 0 0 0.5432852028051939 0 0 0 0 0 0 0 0 1:-0.93291404 2:0.23843174 3:-0.15132168 4:-0.094612194 5:-0.1471347 6:0.22238396 7:-0.76422201 8:-0.027257508 9:-0.52462232 10:0.58406459 11:0.057964272 12:0.46833346 
0.1234677404759481 0.04258508723505908 0.7115702020254823 0 0 2.939714190028177 2.409571384564739 0.5061341919249985 0.3740166902835668 0.841407806800095 0 1.278448183731664 2.856264131158469 1.1703473331423 1:-0.98492076 2:0.57166107 3:-0.062666261 4:-0.94242363 5:-0.15780375 6:0.11391713 7:-0.51764756 8:0.063987564 9:0.046740518 10:-0.023937301 11:-0.0025829837 12:0.092541883 
0.006771791611465505 0.009484312000585273 0.2027070853841241 0 0 0 3.163960429127803 0.2814216949111131 7.150779187127824 0.1914290294685462 4.458456218193401 0.2422774417843589 1.197264157639003 0.8054080666446752 1:-0.97068863 2:0.32730589 3:0.028321293 4:-0.2236611 5:-1 6:-0.18448872 7:-0.74992372 8:0.5061871 9:-0.080793581 10:0.50598829 11:-0.7019748 12:0.015426342 
0.3476878779182401 0.4665970486787933 0.7342169736041466 0.2753237650479185 0.1564509013579296 0.8099971151394241 0 1.339836910106201 0 0.8158938012808875 6.380913012166528 1.110441459944733 1.909808772454088 1.002781214216869 1:-0.98208452 2:0.37909364 3:-0.026257917 4:-0.1515751 5:-1 6:-0.61185877 7:-0.76412014 8:0.25943328 9:0.081674207 10:0.55346859 11:-0.55305431 12:-0.28931036 
0 0 0 0 0 0 0 3.188851119351743 0 0.1739867627539096 0 0.132963082800887 0 0 1:-0.96109521 2:0.37121271 3:-0.086323739 4:-0.12487715 5:-0.62604839 6:0.46581847 7:-0.71127816 8:0.2265373 9:-0.40959834 10:0.53486855 11:-0.34115532 12:0.52505943 
0 0.1853795942896469 0.2473349069199581 0 0 0 0 1.30689818805068 0 0.08388725521747839 0.5141987001519732 0 0 0 1:-0.94176799 2:0.17150224 3:-0.014468114 4:-0.036844267 5:-0.38349652 6:0.40779816 7:-0.80640257 8:-0.35742393 9:-0.35874735 10:0.64129901 11:0.13584041 12:0.46747758 
0 0 0 0 0 3.249219325738415 0 3.623688023805159 0 0 0 0 0 0 1:-0.93734186 2:0.16933207 3:0.0014801576 4:-0.15762476 5:-0.3865218 6:0.4173555 7:-0.80430123 8:-0.38747806 9:-0.35927653 10:0.57525098 11:0.15242497 12:0.47254492 
0 0 0 0 0 0 38.03030341635704 0 0 0 0 0 0 0 1:-0.88774216 2:-0.021367932 3:-0.12159414 4:-0.54563798 5:-0.45251405 6:0.21557479 7:-0.72304441 8:0.15736223 9:-0.35109474 10:0.31666552 11:-0.21028701 12:0.36724373 
0 0 0 0 0 0 4.052508507962438 0 0 0 0 0 0 0 1:-0.88612266 2:-0.010186272 3:-0.12711802 4:-0.48094279 5:-0.61260723 6:0.044766869 7:-0.63375981 8:0.1092384 9:-0.3193836 10:0.29573559 11:-0.26346045 12:0.26415252 
0 0 0 0 0 20.06900895042249 0 5.828606999664046 8.888978242771007 0 1.203999277419711 0.08669572821208468 0 0.7755397202026386 1:-0.89321893 2:0.017151076 3:-0.13606833 4:-0.56295324 5:-0.71787693 6:-0.11324312 7:-0.65077864 8:0.19697154 9:-0.30421379 10:0.26237678 11:-0.37047107 12:0.17676023 
0 0 0 0 0 0 5.776733665645504 0 0 0 0 0 0 0 1:-0.93484175 2:0.11851053 3:0.01373386 4:-0.53186675 5:-0.34144447 6:-0.21719475 7:-0.74857344 8:0.1620295 9:0.04728271 10:0.33994666 11:-0.15606318 12:-0.072998799 
0.2592295218051519 0.3410260955096454 0.660841592743985 0.281785144330959 0.2368974783883462 0.9852792565385515 1.770801416900443 4.469575410795616 2.04144225863352 0.8217928461122529 1.380173403807241 1.444496831956921 3.183995223779121 8.514532762347846 1:-0.87812718 2:0.076201758 3:-0.10330605 4:-1 5:-1 6:-0.51964513 7:0.79693878 8:0.73420774 9:1 10:-0.87353208 11:-0.83958946 12:-0.76028752 
0.3164606947024798 0.405800741118025 0.7148852906132911 0.3251474599632165 0.265774376540194 1.493467672943867 1.060520673395779 1.712906086316477 1.241844070766615 0.7333017493294761 1.07344785722263 1.099449664226944 1.58509922391248 228.937436831637 1:-0.75854622 2:-0.16398448 3:-0.16167338 4:-1 5:-1 6:-1 7:1 8:1 9:1 10:-1 11:-1 12:-1 
0 0 0 0 0 0 0 0 0 0 0 0 0.8343553023931957 0 1:-0.98916127 2:0.57557327 3:-0.11221393 4:-0.15091523 5:-0.16583654 6:-0.010974104 7:-0.82565562 8:0.13074982 9:-0.32939237 10:0.592147 11:-0.047000542 12:0.24197068 
-0.8866444117493213 0.1749688049716841 0.8883761832988845 0 0 0.6457514561679332 0.6003186803039219 0.554666883864537 0.9636890643167414 0.9533991527612109 0.4932641706953632 1.035264647184048 0.8980720873972775 0.9198374419674938 1:-0.95677827 2:1 3:-3.7273204e-005 4:0.40965054 5:1 6:0.94290626 7:-0.99736986 8:-0.61202181 9:-0.82872065 10:0.9995595 11:1 12:0.99909704 
-0 0 0 0 19.0449890153334 0 0 0 0 0 0 0 0 0 1:-0.92581105 2:0.26056123 3:0.036724394 4:0.41146538 5:0.81108384 6:0.94698061 7:-0.98365652 8:-0.7430995 9:-0.81386756 10:0.9919915 11:0.98208849 12:0.99276834 
-0.9196125790054459 1.770941831195386 1.004109239731056 2.184791569391886 0 1.434063214898426 1.082534069595816 2.574364580245247 0.9454713828613466 0.9331606054490023 2.415282789716244 0.9014949526628691 1.436027936567283 0.8341566802985981 1:-0.91673166 2:0.21835057 3:0.017442385 4:0.4205579 5:0.81770738 6:0.94615401 7:-0.98647659 8:-0.76182134 9:-0.82411327 10:0.99862152 11:0.99678903 12:0.99812392 
-0 0 0 0.9912402845254729 6.93513761373626 0 0.2684108988413891 0 0 0 0 0 0 0 1:-0.93815072 2:0.30220345 3:0.21034097 4:0.40459589 5:0.82559551 6:0.96939632 7:-0.98105059 8:-0.73761222 9:-0.77399394 10:0.98668641 11:0.98622939 12:0.98150664 
-0.1167515074109276 0 0.1653993358503558 0 0 0 0 0 0.07474536853728525 0.102204630839979 0.1162276161613052 0.1819302539615314 0 0.1091538594119579 1:-0.93876355 2:0.29974401 3:0.24297968 4:0.41309742 5:0.83718061 6:1 7:-0.99182324 8:-0.74229647 9:-0.77024035 10:0.99795258 11:0.99500603 12:0.99466568 
-0 0 0 0 10.70550873763176 0 0 0 0 0 0 0 0 0 1:-0.96048839 2:0.7845758 3:-0.01185876 4:0.4066111 5:0.94101291 6:0.93584529 7:-0.99787948 8:-0.64430125 9:-0.82995657 10:0.99824773 11:0.98918797 12:0.99626918 
-0 -0 0 489.011951212179 0 0 0.5127105818505887 0.3524940764426442 0 0 0.06107640624736972 0 0 0 1:-0.13293024 2:-0.52927668 3:0.46750511 4:0.37381604 5:0.40827499 6:0.90921527 7:-0.57867793 8:-0.60359861 9:-0.60941251 10:0.71958771 11:0.6910316 12:0.85881909 
-0 -0 0 908.1297136101623 0 0 0 0 0 0 0 0 0 0 1:-0.095251907 2:-0.54174172 3:-0.19892695 4:0.37264541 5:0.27682423 6:0.74009056 7:-0.43015449 8:-0.68576045 9:-0.72338832 10:0.62645883 11:0.67311025 12:0.838586 
-0 -0 0 54.6034036915128 0 0 0 0 0 0 0 0 0 0 1:-0.20968254 2:-0.40819581 3:-0.15844645 4:0.38072345 5:0.21713139 6:0.74382105 7:-0.3748746 8:-0.68342025 9:-0.7417932 10:0.59636003 11:0.64104219 12:0.85080913 
-0.8682371239937131 -0 0 0 0 2.117164868750361 1.550613351598634 1.83137095420907 0 1.188204317677492 0 0.4166804071266874 0.3139956650954482 0 1:-0.22246122 2:-0.42693595 3:-0.15943314 4:0.3395272 5:0.14931604 6:0.79823228 7:-0.39612992 8:-0.65827172 9:-0.70173128 10:0.58751647 11:0.59103751 12:0.8554082 
-0.9769866778920727 -0.2194507635430657 0 62.82378498965367 0.5853772321191674 1.618764643347739 1.63496360391613 0.9935248500674689 0.6494089235497121 0.09294688008798988 3.163661730287883 0.3821080826317803 1.489473211165569 0.368761748207101 1:-0.25703299 2:-0.34067359 3:0.33086686 4:0.16103446 5:0.31111565 6:0.029946063 7:-0.47199817 8:-0.51940304 9:-0.5391741 10:0.53909422 11:0.59032111 12:0.38049308 
-0 -0 17.34233295150568 0 0 0 0 0 0 1.538149546367275 0 0.3175457072749358 0 0 1:0.45475419 2:-0.50334544 3:0.19544385 4:0.3516287 5:0.24620261 6:0.75779322 7:-0.24063627 8:-0.57274184 9:-0.50609636 10:0.49716046 11:0.58917548 12:0.72509019 
-0 -0 0 488.1854865064987 0 0 0 0 0 0 0 0 0 0 1:-0.10018972 2:-0.58200363 3:0.08354627 4:0.39361171 5:0.395415 6:0.90076307 7:-0.53283008 8:-0.65749726 9:-0.70560695 10:0.701644 11:0.71695608 12:0.90875626 
-0 -1.45157965474762 0 3503.522977117641 3.269281345780748 0 0 0 0 0 0 0 0 0 1:-0.23365137 2:-0.44282142 3:0.11131299 4:0.36484592 5:0.39549586 6:0.88725816 7:-0.49039749 8:-0.68212132 9:-0.69794773 10:0.659798 11:0.73185868 12:0.89770492 
-0 -0 0 1794.624265936741 0 0 0 0 0 0 0 0 0 0 1:-0.21365452 2:-0.4527099 3:0.12166144 4:0.40463754 5:0.21530401 6:0.81920471 7:-0.46364315 8:-0.68843621 9:-0.75203746 10:0.66446383 11:0.64313096 12:0.89419526 
-0.4482166861578271 -0 0 0 0 0 0 0.4413849155684959 0.7338198821032781 0.5268594392783649 0.8136258143836151 0.8556933162752205 0.4675156420998378 0.7756113078956384 1:0.26885304 2:-0.99576242 3:0.63866721 4:0.39283248 5:0.34175974 6:0.91494352 7:-0.38322196 8:-0.65346764 9:-0.57996638 10:0.60804936 11:0.68696907 12:0.84510023 
-0 -0 0 778.8194431838023 0 0 0 0 0 0 0 0 0 0 1:0.011102416 2:-0.72591808 3:0.31798089 4:0.40195342 5:0.35392905 6:0.89971331 7:-0.53621097 8:-0.6711986 9:-0.5583529 10:0.70822086 11:0.70391968 12:0.82533201 
-0.5531613906311567 -0.2748802178763842 4.526599617974225 0 0 0.3253749958941334 0.1225929248371461 0.7936635309004029 0.8484530065789996 1.092829498673921 0.3735831984650367 1.554006097970492 0.7397011475545043 0.7187220796726574 1:-0.054263773 2:-0.57235594 3:0.10745126 4:0.34219213 5:0.16529147 6:0.12328613 7:-0.44040659 8:-0.71449406 9:-0.009368212 10:0.61652071 11:0.63317303 12:0.12880514 
-0 -0 0 881.1116565100676 0 0 0 0 0 0 0 0 0 0 1:0.071972364 2:-0.68271697 3:-0.057728482 4:0.40826469 5:0.33338338 6:0.78470491 7:-0.46572705 8:-0.71079421 9:-0.76881871 10:0.66770588 11:0.71726497 12:0.88642618 
-0 -0 8.14417302930946 251.2920572224195 0 0 0 0 0 0 0 0 0 0 1:-0.094307611 2:-0.49735356 3:0.13183898 4:0.39505171 5:0.247991 6:0.82946659 7:-0.28928697 8:-0.71838937 9:-0.63449903 10:0.55073553 11:0.67799489 12:0.83314503 
-0 -0 0 507.0059814688247 0 0 0 0 0 0 0 0 0 0 1:0.094527837 2:-0.72485028 3:0.037229299 4:0.39414122 5:0.33486961 6:0.80101169 7:-0.40877868 8:-0.73641985 9:-0.7044795 10:0.62466775 11:0.73349378 12:0.8583424 
-0 -0 0 603.742295809348 0 0 0 0 0 0 0 0 0 0 1:-0.15172996 2:-0.44228434 3:-0.16598784 4:0.39088719 5:0.17290988 6:0.69997772 7:-0.4104135 8:-0.63797798 9:-0.65144977 10:0.62394174 11:0.59090665 12:0.77806878 
-0 -0 0 0 0 0 0 0 0.844702067058546 0 2.395829297177187 0.2290156947918892 0.8699254551523825 0.4691570138637065 1:-0.15731527 2:-0.51893537 3:-0.19765563 4:0.29978289 5:0.15980537 6:0.76207523 7:-0.48889063 8:-0.64766549 9:-0.80994719 10:0.62398521 11:0.59002333 12:0.89828756 
-0 -0 0 0 0 0 0 0 0 0 0 0 0 0.1163543302654599 1:-0.14172613 2:-0.49224395 3:-0.19778704 4:0.39415027 5:0.25007542 6:0.75528376 7:-0.44481781 8:-0.65050375 9:-0.81934505 10:0.64711802 11:0.63809513 12:0.90018916 
-0 -0 -2.136013254578699 0.3999620188125145 0 0 0 0 0 0 0 0 0 0 1:0.11978715 2:-0.49561998 3:0.30750809 4:0.39119687 5:0.05207441 6:0.90011254 7:-0.0048826872 8:-0.6592422 9:-0.44226771 10:0.37154037 11:0.54168404 12:0.76017814 
-0 -0 -5.09590100283536 0 0 0 0 0.1861757541236958 0.2228480392486159 0.2227284964376011 0.1715909487211794 0 0 0.1264189797886077 1:0.28275765 2:-0.77716868 3:0.54939844 4:0.37135742 5:0.17388789 6:0.90419696 7:-0.014181368 8:-0.6412999 9:-0.32930543 10:0.36669754 11:0.59341376 12:0.69862143 
-0 -0 -0 0 0 0 0 0 0.02864088012924219 0 0.2593994679659162 0 0.08767528248089529 0.04730092816381606 1:0.66504418 2:-0.79965225 3:0.029626289 4:0.41146909 5:0.32283969 6:0.79459215 7:0.061728377 8:-0.63797688 9:-0.5136963 10:0.34092061 11:0.66790358 12:0.74773261 
-0.02835815465613404 -0 -0 0 0 0 0 0 0 1.669182033305962 0 1.62264190295762 0 0.09029534120165637 1:0.83726402 2:-0.84513437 3:-0.053027139 4:0.42194094 5:0.12549654 6:0.61094519 7:0.14823473 8:-0.63913671 9:-0.61681095 10:0.29265685 11:0.5672565 12:0.71413789 
-0.09685778481894143 -0.1086920643732766 -0 0 0.1035177384529708 0 0.102645940157946 3.193660074818039 0 0 0 0 0 0.07314901389997061 1:0.33681664 2:-0.49978316 3:-0.20586037 4:0.13431191 5:-1 6:0.70687132 7:0.038035891 8:-0.21880614 9:-0.58741242 10:0.20711801 11:-0.264428 12:0.74545746 
-0.09165903158814739 -0.01850156855075825 -0 0 0.008424720125459683 0.04158885185954853 0 6.640244109399832 0.1328079706848637 4.934286735912321 0 10.80160476888654 0.9244534955145747 0.08913986354127401 1:-0.015991434 2:-0.21207241 3:-0.048962477 4:0.29571802 5:-1 6:0.27731874 7:0.37137936 8:-0.47307797 9:-0.64432992 10:0.086024361 11:-0.11097026 12:0.5631401 
-0.005881859162002832 -0 -0 0 0 0 0 0 0.3302052691597967 1.831112705151967 0.07625389475474059 0 0.1662871669025278 0.1124994646527357 1:0.36655438 2:0.15577855 3:-0.83752591 4:0.17371108 5:0.26278488 6:0.22226389 7:0.25718688 8:-0.517247 9:-0.44644931 10:0.091747532 11:0.56419927 12:0.42426407 
-0.5651043360218498 -0 -0 0.5090758200334313 0.1749073819752292 1.447151350457722 1.135100404710261 0 0.1896562871768747 0.7753823203900149 0.844806861134176 0 0.1549276797735067 0 1:-0.11274329 2:-0.088669284 3:0.2938366 4:-0.040790342 5:0.032831423 6:0.65814355 7:-0.060672153 8:-0.44647437 9:-0.44128876 10:0.17473786 11:0.40339235 12:0.63887674 
-0.8547415322211346 -0.3259004883289648 -0 0.1251042936294343 0.2555450822600601 0.8511186511189862 0.64778984376306 1.988322807554747 1.53875010107961 2.679924041360566 1.669738914506433 4.542191573511419 1.44279039437046 1.211695069977778 1:-0.18386557 2:0.52438967 3:0.96676365 4:-0.98184179 5:0.036636299 6:0.78016194 7:0.43483363 8:0.4557064 9:0.57223208 10:-0.63827757 11:-0.13913637 12:0.12918064 
-0 -0.2235309797128808 -10.83679710001957 3.429286653092214 0.4858575188797576 0 0 0 0 1.740550408277728 0.06720592496535723 0 0.01313071674767845 0 1:0.089231726 2:-0.3945791 3:0.030031643 4:0.40039039 5:0.35776595 6:0.69997393 7:-0.056689818 8:-0.69017675 9:-0.35888329 10:0.408734 11:0.71734381 12:0.6133592 
-0 -0 -0 0 0 0 0 0 0 0 0 2.252355560969463 0 0 1:0.22640912 2:-0.48547008 3:0.08986514 4:0.39975627 5:-0.86096759 6:0.55770866 7:0.029831198 8:-0.69355512 9:-0.43322016 10:0.35450822 11:0.09349292 12:0.58421408 
-0.2644569572162306 -0.06903079401915745 -0 0 0 0.3863644008891321 0.2202154086248166 1.098959587827289 1.266815313245562 3.704082448369271 0.6642977745385198 0 0.9906298782199799 0.5467129903666098 1:0.046012633 2:-0.50004153 3:0.29312898 4:-0.3717698 5:-0.88080289 6:0.67444241 7:0.10401114 8:-0.65091142 9:-0.34900784 10:-0.10523563 11:0.057570086 12:0.59505851 
-0 -0 -0 0 0 0 0 0 0 7.242035320179236 0.3459527406085954 1.512391683905374 0 0 1:0.18475915 2:-0.72407602 3:0.32268671 4:0.0764863 5:-0.70396996 6:0.63659924 7:0.063043957 8:-0.62266503 9:-0.20887658 10:0.16054783 11:0.13133675 12:0.49728312 
-0 -0 -0.654490118111272 0 0 0 0 0 0 0 0 0 0 0 1:0.23571896 2:-0.75820241 3:0.29684246 4:0.35466096 5:-0.24034261 6:0.83774031 7:-0.12984163 8:-0.62490638 9:-0.25649618 10:0.42978211 11:0.37078877 12:0.62446762 
-0 -0 -0 0 0 0 0 0 0 0 0 15.12370846677978 0 0 1:0.39856205 2:-0.49284079 3:-0.25249193 4:0.39650719 5:-0.99259135 6:0.1616614 7:-0.079432042 8:-0.56752801 9:-0.56222486 10:0.42081658 11:-0.050163146 12:0.45920026 
-0 -0 -0 0 0 0 0 0 0 1.884081595991745 0 3.478365138712888 0 0 1:0.30017753 2:-0.52262342 3:-0.28534855 4:0.34275972 5:-1 6:0.22289463 7:0.19062612 8:-0.50265977 9:-0.67781799 10:0.22381344 11:-0.093117096 12:0.55483368 
-0.5523696898605297 -0.1341304005946263 -0 0 0.08542403251662487 0.936381841735769 0.6901458460565528 0 1.050485570714824 1.920251332731706 3.333896400772571 0 1.341936948791916 0.679170417531627 1:0.29830125 2:-0.54692387 3:-0.39624936 4:0.10472101 5:-1 6:-0.010808723 7:-0.062862998 8:-0.3288972 9:-0.49739994 10:0.25409757 11:-0.19798601 12:0.33663731 
-0 -0 -0.8907905964289364 0 0 0 0 0 0 0 0 0 0 0 1:0.38694275 2:-0.54726762 3:-0.058880185 4:0.3234492 5:0.21029029 6:0.7126837 7:0.0089657004 8:-0.61314644 9:-0.62772764 10:0.32660221 11:0.59511736 12:0.7710545 
-0.6883548294564034 -0.3407863613734184 -0.2121065161958463 0.6863163653173939 0.2779677516148645 0.5855775661411672 0.5797901570040726 1.280805209731629 1.017254189412731 0.6058276401458475 1.252199007151077 1.204540843514055 1.011222645462486 0.8622807466548975 1:1 2:-1 3:-0.78494905 4:1 5:0.5438914 6:0.7473722 7:-0.4858987 8:-1 9:-1 10:0.99744373 11:0.99991399 12:0.99794531 
-0 -0 -0 0 0 0 0 0 0 1.307181742073802 0 0 0 0 1:0.3616015 2:-0.49448106 3:-0.13831671 4:0.2565758 5:-0.066298749 6:0.76988094 7:0.046947463 8:-0.5516008 9:-0.6181146 10:0.26710223 11:0.41592904 12:0.79418585 
-0 -0 -7.744017654849521 1.48846207556608 0 0 0 0 0 0 0 0 0 0 1:0.4845501 2:-0.64608235 3:-0.24671098 4:0.40786197 5:0.021568416 6:0.50552962 7:-0.17446876 8:-0.71931321 9:-0.65954815 10:0.48609235 11:0.56227142 12:0.68559214 
-0 -0 -0 0 0 0 0 0 0 0 0.9132130716938864 0 0 0 1:0.29347281 2:-0.51756246 3:-0.22079496 4:0.40042932 5:0.010185713 6:0.2642286 7:-0.073595714 8:-0.72661567 9:-0.66313838 10:0.41928397 11:0.56083292 12:0.5671964 
-0 -0 -0 0 0 0 0 1.575759039154997 0.3796460167607695 0 1.039246601913457 0.9784181239200431 0.02148666585399177 0.1465257519702906 1:0.24216553 2:0.15679643 3:-1 4:0.4024846 5:0.12082823 6:-0.30043003 7:0.1908278 8:-0.57418363 9:-0.68926236 10:0.25570084 11:0.52565867 12:0.3001208 
-0 -0 -0 0 0 0 0 0 0 0 0 1.747311516528176 0 0 1:0.22790131 2:-0.4109193 3:-0.36943163 4:0.30165808 5:-0.71196749 6:0.0267199 7:0.040844406 8:-0.6449362 9:-0.65191921 10:0.29506771 11:0.14067062 12:0.44235583 
-0.8948405557870601 -0.4125925252161011 -0 0.2957392938837741 0.4649622824857187 0.8637002041036415 0.7085850327351887 1.614955793318295 0.9561917852474121 0 1.529803556669575 0.871778515839793 1.31394135311442 0.6759865427243105 1:-0.018643558 2:0.6452698 3:-0.90789702 4:0.28794661 5:0.33515466 6:-0.25787503 7:-0.3385882 8:-0.41644932 9:-0.71613801 10:0.52403149 11:0.54053205 12:0.33648744 
-0.6216863856793621 -0.4247195767111127 -2.442989355770164 0.7273385136573821 0.6196596682385299 0.2913844006703059 0.5419614750713636 1.530277872303182 0.7806001929128289 0 0.9195583635595603 2.571278201643464 1.008448104017178 0.6026437391558445 1:-0.075342955 2:0.056847122 3:1 4:0.22751956 5:0.2378071 6:0.72568515 7:-0.28371803 8:-0.56449684 9:-0.23288085 10:0.45746859 11:0.57988789 12:0.55525366 
-0 -0 -635.3204381303143 -0 0 0 0 0 0 0 0 0 0 0 1:-0.21777159 2:-0.48444466 3:0.45579079 4:0.39262227 5:0.36970736 6:0.95926378 7:-0.54964546 8:-0.67525691 9:-0.58500635 10:0.71158638 11:0.71447201 12:0.87005483 
-0 -0 -0 -0 0 0 0 0 0 0.09569050286430138 0 0.1726555792020542 0 0 1:-0.4965853 2:-0.01818166 3:0.40481645 4:0.38922103 5:0.30557789 6:0.94026098 7:-0.57283992 8:-0.64562205 9:-0.5591368 10:0.72420895 11:0.66365265 12:0.84600791 
-0 -0 -1510.438567391889 -0 0 0 0 0 0 0 0 0 0 0 1:-0.15539395 2:-0.57649937 3:0.19381446 4:0.4080857 5:0.34633302 6:0.7807219 7:-0.51184097 8:-0.58282949 9:-0.60813955 10:0.69633 11:0.64668629 12:0.79398013 
-0 -0 -77.93267251514519 -0 0 0 0 0 0 0 0 0 0 0 1:-0.2140198 2:-0.43917227 3:-0.042242038 4:0.28625494 5:0.23986382 6:0.83156132 7:-0.52598017 8:-0.63365667 9:-0.64192163 10:0.63983375 11:0.62268337 12:0.83836911 
-1.997936239962104 -0 -0 -1.467082888513399 0 2.287701190955631 6.431719176294308 2.863187809717322 0.9768581524565276 0.7236844532794535 2.206248231928643 1.186319646058238 2.412900104801312 0.7579489066127875 1:-0.45508672 2:-0.20129885 3:0.36999976 4:0.20290225 5:0.27852509 6:0.59399943 7:-0.60624228 8:-0.22939316 9:-0.55233453 10:0.64514383 11:0.39855767 12:0.66938279 
-0 -0 -0 -0 0.9753906580483365 0 0 0 0 0 0 0 0 0 1:-0.48863587 2:-0.083423093 3:0.30052932 4:0.20400325 5:0.3820443 6:0.78367586 7:-0.6211765 8:-0.53067608 9:-0.50774968 10:0.65503512 11:0.63355054 12:0.73893724 
-0 -2.008302911810127 -245.611784299691 -0 0 0 0 0 0 0 0 0 0 0 1:-0.55164102 2:-0.051271228 3:0.15922136 4:0.38930236 5:0.39995317 6:0.91274478 7:-0.55991443 8:-0.65739875 9:-0.72315578 10:0.71620247 11:0.71922724 12:0.92461507 
-0 -1.167728942107232 -6.349930546600289 -0 12.41692202898225 0 0 1.906168904710833 0.1816959790443064 0.2812481355789367 0.1345119837735791 0.3133019713448386 0 0.4818284023224431 1:-0.64630668 2:0.024250831 3:0.13171077 4:0.38715285 5:0.34229542 6:0.88649676 7:-0.50763725 8:-0.70012772 9:-0.74569743 10:0.68249173 11:0.71540439 12:0.92420686 
-0 -0 -463.9769670749992 -0 0 0 0 0 0 0 0 0 0 0 1:-0.29469241 2:-0.34803051 3:0.33154926 4:0.34777796 5:0.36912936 6:0.9066383 7:-0.54380635 8:-0.51867931 9:-0.65362973 10:0.68391283 11:0.6196777 12:0.8824263 
-0 -0 -511.8194002987987 -0 0 0 0 0 0 0 1.872413581185595 0 0 0 1:-0.17016683 2:-0.48734138 3:0.095294773 4:0.088833003 5:0.31837139 6:0.79917414 7:-0.50008885 8:-0.64805577 9:-0.59620285 10:0.51788873 11:0.67169164 12:0.79646833 
-0 -0 -0 -1.215510723792421 0 0.009498528066235641 0 0 0 0.0654324125550573 0 0 0 0 1:-0.46639138 2:-0.18284505 3:0.16492738 4:0.12556186 5:0.31262228 6:0.69495312 7:-0.49085882 8:-0.67642373 9:-0.52893334 10:0.53182716 11:0.68585973 12:0.70658762 
-0 -0 -839.7801145993504 -4.978691421686406 0 0 0 0 0.8453957412689214 1.867721218763716 0.741814950251812 1.008055613879526 0 0.807707728252649 1:0.0017130541 2:-0.62662091 3:-0.077953795 4:0.40681446 5:0.31596299 6:0.7448611 7:-0.40621678 8:-0.75578971 9:-0.75848937 10:0.62986514 11:0.73547421 12:0.86072768 
-0 -0 -1228.09766914813 -0 0 0 0 0 0 0 0 0 0 0 1:-0.077180284 2:-0.57287772 3:0.061028431 4:0.40672817 5:0.27665132 6:0.88051659 7:-0.45714197 8:-0.72967625 9:-0.70329789 10:0.66153545 11:0.69952546 12:0.89735268 
-0 -0 -4096 -0 0 0 0 0 0 0 0 0 0 0 1:-0.10391214 2:-0.54882399 3:0.041619386 4:0.40405377 5:0.35056964 6:0.86499432 7:-0.46169413 8:-0.72026557 9:-0.72865983 10:0.66293706 11:0.73180725 12:0.90388471 
-0.08829542104611501 -0 -0 -0 0 0 0.1289016016357184 1.787068367196049 0.2010632052904573 0.1431004458256452 0 0.1156214173388429 0.3122313143278876 0 1:-0.41261428 2:-0.12075805 3:-0.14360848 4:0.39135145 5:0.052354183 6:0.65335184 7:-0.44103413 8:-0.64600188 9:-0.76676027 10:0.64326133 11:0.53383694 12:0.81971794 
-0 -0 -707.5454732539357 -0 0 0 0 0 0 0 0 0 0 0 1:-0.29788516 2:-0.26264569 3:-0.22280526 4:0.39058522 5:0.1227382 6:0.653916 7:-0.41734799 8:-0.64768775 9:-0.80185334 10:0.62809873 11:0.57100064 12:0.839756 
-1.335262668139926 -0 -0 -0 1.82389130946204 4.306831154513558 2.235439016701999 0 0.3339328333153302 0 0.9065150574883711 0 1.958072126875482 0.04434302824672336 1:-0.53775285 2:0.039139045 3:-0.1817912 4:0.2497987 5:0.33476016 6:0.7403998 7:-0.56183969 8:-0.56747084 9:-0.71398416 10:0.64262647 11:0.63147373 12:0.83344601 
-0 -24.38374883822271 -0 -0.1911558114524517 -0 0 0 0 0.5967776064209361 0.6049843787791788 0.4499249991943501 0.710166103753307 0 0.6846518674874897 1:-0.95089548 2:0.58489407 3:0.068958617 4:0.36118921 5:0.72758895 6:0.91094461 7:-0.94756029 8:-0.61785764 9:-0.76361038 10:0.94256209 11:0.86362328 12:0.94649168 
-0.203907123517992 -0 -0 -0 -0 0 0 0 0 0 0 0 0 0 1:-0.94261936 2:0.57445931 3:0.060579307 4:0.3728748 5:0.68508467 6:0.78357276 7:-0.9367645 8:-0.61623508 9:-0.72136044 10:0.94210197 11:0.84081564 12:0.85914336 
-0 -0 -0 -0 -0 0 0 1.358375686485639 0 0 0 0 0 0 1:-0.84991179 2:0.022722594 3:0.039524835 4:0.4129248 5:0.53018225 6:0.89452062 7:-0.85526574 8:-0.7420342 9:-0.77075566 10:0.9128111 11:0.83718642 12:0.94231819 
-0 -4.35869966955257 -0 -0 -0 0 0 0 0 0 0 0 0 0 1:-0.84837709 2:0.0061480134 3:0.026644928 4:0.40184876 5:0.57274084 6:0.89505629 7:-0.87881048 8:-0.75253866 9:-0.76195176 10:0.92153809 11:0.86538235 12:0.93762913 
-0 -7.943186858926148 -0 -0 -0 0 0 0 0 0 0 0 0 0 1:-0.90294806 2:0.23172216 3:0.028096856 4:0.39379746 5:0.64418631 6:0.84770482 7:-0.90247581 8:-0.70322601 9:-0.8029841 10:0.93196146 11:0.87231261 12:0.93709942 
-2.652856613043562 -0 -0 -0.9043135436992392 -4.607188737713266 2.671205556439194 2.163306230865747 3.119198551714878 0.7861673178197579 0.6934001090146468 0 0.7914699116652324 1.58151485273375 0.58499008416304 1:-0.87314944 2:0.4298958 3:0.055228811 4:0.287093 5:0.17811128 6:0.90379072 7:-0.72525947 8:-0.62608365 9:-0.66432979 10:0.76439546 11:0.58639943 12:0.88702913 
-0 -0 -0 -0 -3.317272796292485 0 0 0 0 0 0 0 0 0 1:-0.85354225 2:0.054666575 3:0.071963369 4:0.31584818 5:0.56950103 6:0.85600538 7:-0.72878875 8:-0.68007729 9:-0.72729889 10:0.78200653 11:0.81998674 12:0.89863277 
-0.05974797899469661 -0 -3.854658577899916 -1.178299680188976 -7.291742462486876 1.458098668141087 1.433643607100442 2.48533327939235 0.6998692851266254 0.7767855227278396 3.471791310210402 0.6986442918504741 1.189155063116677 0.6033692590467152 1:-0.79915591 2:-0.049912152 3:0.11112572 4:0.33685565 5:0.49545963 6:0.84864658 7:-0.80693726 8:-0.7300835 9:-0.71880292 10:0.84193813 11:0.8121419 12:0.89017747 
-0 -0 -0 -0.2024971412085487 -0 0 0 0 0 0 0 0 0.7250117885271163 0 1:-0.91629719 2:0.55909459 3:-0.080956549 4:0.35463321 5:0.48297504 6:0.75641233 7:-0.68982948 8:-0.60010311 9:-0.76458598 10:0.77853152 11:0.72728477 12:0.86992435 
-3.933367225910598 -0.1692333561593448 -0.1490024860580983 -0.359538326580813 -0.1747086516221644 -0.2420106450809866 0 4.767704766080686 0 0.7435216590469352 0.594600560404363 0.6728330077551689 0 0.3130945057849413 1:-0.95672776 2:0.34823317 3:0.29378 4:-0.50558037 5:-0.497809 6:0.60639347 7:-0.54689081 8:-0.40225579 9:0.50586618 10:0.22842704 11:0.10419123 12:0.079826967 
-1.492449651179155 -0.1657274790967755 -0.1958791627769772 -0.8959661868144799 -0.08828037678280766 -0.01245033437244611 0 0 0 0.7939407057897534 0 1.143119326292102 1.652777510830241 0.5785201378509056 1:-0.95469702 2:0.37763383 3:0.32371581 4:-0.85674981 5:-0.066444652 6:0.72728451 7:-0.46674699 8:-0.080294979 9:0.25632787 10:-0.0097166816 11:0.13141235 12:0.28063937 
-0 -0 -0 -0 -0 -0 66.64816681109096 0 0 0 0 0 0 0 1:-0.84002457 2:-0.11238482 3:0.034043951 4:-0.17487785 5:-0.26089893 6:0.55711556 7:-0.61765668 8:-0.28565629 9:-0.63384705 10:0.44975968 11:0.15548823 12:0.69686608 
-11.83621265543283 -0 -0 -0 -0 -0 47.43635196717974 0 0 0 0 0 0 0 1:-0.86174421 2:-0.080393048 3:0.072892857 4:-0.43928884 5:-0.30229148 6:0.41313807 7:-0.69170125 8:-0.38753061 9:-0.3587648 10:0.35414876 11:0.19571381 12:0.4701522 
-0 -0 -0.4551335821743073 -0 -0.6347056696994329 -0.5985894656958573 0 1.451612054581016 0 0 0 0 0 0 1:-0.85288386 2:-0.12242026 3:0.030996566 4:-0.13357209 5:-0.067359557 6:0.63567358 7:-0.68795739 8:-0.56313883 9:-0.5409577 10:0.51568366 11:0.42234767 12:0.68377465 
-0 -1.190833757221038 -1.035499063902796 -1.164060571211451 -5.216415380365906 -2.862347478852208 0 0 0 0.733510871616065 1.094169044771979 0.9884494862577428 4.465533263787918 0.6827893006124355 1:-0.90322508 2:-0.031752837 3:-0.17654046 4:-0.055285746 5:0.13988896 6:0.5231231 7:-0.66828025 8:-0.43009049 9:-0.67146613 10:0.5453907 11:0.44848458 12:0.70108137 
-13.89123535058022 -0 -0 -0 -0 -0 39.87397116691734 0.2763876507017008 0 0 0 0 14.39099649797801 0 1:-0.89332318 2:-0.065594048 3:-0.19439187 4:-0.024448305 5:0.0073423872 6:0.55457792 7:-0.70412683 8:-0.079438251 9:-0.60376589 10:0.58424531 11:0.16878919 12:0.67866477 
-0 -0 -0.2825221677912497 -0 -0 -0 70.27754162068125 7.993916570415397 0 0 0.6113439206930699 0 0 0 1:-0.83506337 2:-0.24746782 3:0.16325123 4:-0.32613565 5:0.037313601 6:0.66238195 7:-0.61523602 8:-0.31733729 9:-0.40407964 10:0.36717669 11:0.32775759 12:0.62004402 
-0 -0 -0 -0.4539607584292097 -0 -0 31.4779349395286 0 0 0.06844434441491522 0 0 0 0 1:-0.85312089 2:-0.22619559 3:0.10270946 4:-0.29149977 5:-0.33562345 6:0.40115524 7:-0.24758875 8:-0.054611412 9:-0.43858655 10:0.15676856 11:-0.022326958 12:0.50911005 
-0 -0 -0 -0.3534955925287175 -0 -0 0 0 0 0.5894260010185244 0.6554390248633004 0.5617554526358631 0 0 1:-0.85095676 2:-0.19841603 3:0.10765238 4:-1 5:-0.54740109 6:0.6998243 7:-0.5419723 8:-0.31952579 9:-0.4118876 10:-0.039649077 11:0.028793752 12:0.64312464 
-2.440981961088434 -0.06013357866000767 -0 -0 -0 -0 114.6267428667449 61.22270223499282 17.70580357428238 0 1.79729736906568 0 4.128668156174543 2.488181634629437 1:-0.89930449 2:0.038228257 3:-0.067382759 4:-0.98401395 5:-0.97379224 6:0.25850203 7:-0.58074536 8:0.0082122943 9:-0.27182216 10:-0.0069323018 11:-0.38797862 12:0.3440373 
-0 -0.007059086772462093 -0 -0 -0 -0 0 6.578759704532086 11.11648987316962 0 0.7027104724457739 0.1329092900529754 0 0 1:-0.91272537 2:0.022450002 3:-0.072377853 4:-1 5:-1 6:-0.17014131 7:-0.64328291 8:-0.24876387 9:-0.23374071 10:0.023447868 11:-0.24634796 12:0.10869162 
-0 -0 -0 -0 -0 -0 0 14.22734907458258 0 0 0 0 0 0 1:-0.90046199 2:-0.022673477 3:-0.0053092191 4:-0.099696537 5:-0.73640432 6:0.60566106 7:-0.66406743 8:-0.48489859 9:-0.5650743 10:0.51896239 11:0.031535252 12:0.68237449 
-0 -0 -0 -0 -0 -0 0 8.796374693645948 0 0 0 0 0 0 1:-0.87146616 2:-0.19056692 3:-0.083663918 4:-0.49135615 5:-1 6:0.20982214 7:-0.60724161 8:-0.34178697 9:-0.46689757 10:0.27363823 11:-0.1902068 12:0.42956711 
-0 -0 -0 -0 -0 -0 0 0 7.762798098636469 0 0 0 0 0 1:-0.89101364 2:-0.12120506 3:-0.057696985 4:-0.90899945 5:-0.82284597 6:0.24591485 7:-0.59950484 8:-0.25499755 9:-0.5365704 10:0.0449596 11:-0.15160703 12:0.4868026 
-0 -0 -0 -0 -0 -0 0 0 4.125716748931617 0 0 0 2.729579858685324 0 1:-0.90191983 2:-0.15356721 3:-0.081922563 4:-0.78326388 5:-0.12320192 6:0.17587197 7:-0.58009595 8:-0.30652121 9:-0.57081602 10:0.10026687 11:0.23879593 12:0.4711284 
-0 -0 -1.446004432319459 -0.3508869289544711 -0 -0 0 0.4686287076534876 2.105925271485955 0.1307911372403748 0.4889657779644357 0 0 0 1:-0.74995173 2:-0.31256293 3:-0.27807165 4:0.080401154 5:-0.29181558 6:0.32713718 7:-0.63252685 8:-0.50371208 9:-0.58147972 10:0.59585249 11:0.27121145 12:0.55261799 
-0 -0.07136558075892836 -0 -0.874412187936799 -0 -0 0 4.551690783372534 2.542242967710416 0.7403056298167646 2.739869324978655 1.085025348051308 0 0 1:-0.7674617 2:-0.2853247 3:-0.26767902 4:0.035798043 5:-1 6:-0.25709772 7:-0.62591893 8:-0.5038989 9:-0.61164021 10:0.56782941 11:-0.092369254 12:0.27804565 
-0 -0 -0 -0 -0 -0 23.93172669795182 0 0.6552912269300926 0 3.137101171167349 0 7.761445580100821 0 1:-0.82291941 2:-0.31330751 3:0.022620801 4:-0.72627675 5:-0.47487327 6:0.48054953 7:-0.60935869 8:-0.13623295 9:-0.57849175 10:0.14903745 11:-0.044579651 12:0.62749351 
-0 -0 -0 -0 -0 -0 0 0 2.481971036628879 0 0.5908300927873306 0 0 0 1:-0.80305986 2:-0.33530951 3:0.026770865 4:-0.55499474 5:-0.65116272 6:0.59853929 7:-0.62823191 8:-0.49277523 9:-0.56997202 10:0.25260034 11:0.080065419 12:0.68157779 
-0 -0 -0 -0.1379986135771651 -0 -0 0 0 0 0 0.1856716462906591 0 0 0 1:-0.79945968 2:-0.31754328 3:0.046041697 4:-0.46725632 5:-0.24655673 6:0.59187775 7:-0.56178776 8:-0.58144276 9:-0.49308294 10:0.25824696 11:0.34136637 12:0.63496682 
-2.946395115311387 -0.4154618323978033 -0.4972636129693475 -0.8129481009431665 -0.4899207950651141 -0.4139063005787827 6.686119657694338 7.727801312570241 1.892101753933 0.9417478523527348 4.049525430955609 1.550210536467008 0 2.725250626581939 1:-0.93091158 2:0.16672159 3:-0.2098994 4:-0.56040861 5:-1 6:-0.64647686 7:-0.62326892 8:0.29678749 9:-0.40205634 10:0.24660748 11:-0.57559827 12:-0.034257555 
-11.53273895039402 -0 -0 -0 -0 -0 0 0 0 0 0 0 0 0 1:-0.93226053 2:0.16581225 3:-0.21362104 4:-0.56265288 5:-0.6751879 6:-0.2903767 7:-0.67007186 8:0.078381241 9:-0.56989419 10:0.27455373 11:-0.27697637 12:0.2379364 
-3.379081435418491 -0 -0 -0 -0 -0 0.0008376842994564206 33.57272837749515 12.04064518019809 0 0 0 5.886940015293577 0.9320607143142411 1:-0.92017806 2:0.15206649 3:-0.21031508 4:-0.68953824 5:-0.85403971 6:-0.21921993 7:-0.60920583 8:0.32994397 9:-0.56471787 10:0.16863439 11:-0.52064981 12:0.27053177 
-5.791023317097351 -0 -0 -0 -0 -0 -4.615382170472167 17.9336854993107 0 0 0 0 0 0 1:-0.98786413 2:0.3957135 3:0.19832361 4:-0.8957542 5:-1 6:0.21833084 7:-0.70842566 8:0.078522153 9:-0.10518465 10:0.11989579 11:-0.44387111 12:0.23017779 
-0 -0.111808264384278 -0.07070218908113962 -0.05724509358754873 -0.1643208725455126 -0.1253635891808664 -0 0 0 0.1401957760559053 0.9702934532839626 0.005865736296438902 0 0 1:-0.982062 2:0.32498737 3:0.20014672 4:-1 5:-1 6:-0.2645048 7:-0.67691051 8:0.56554293 9:0.17258227 10:0.044391367 11:-0.73779714 12:-0.16714859 
-0 -0 -0 -0 -0 -0 -228.5787255173879 0 0 0 0 0 0 0 1:-0.84916306 2:-0.13588859 3:0.087786322 4:-0.31739816 5:-0.1600303 6:0.49132979 7:-0.61430918 8:-0.21821757 9:-0.50027413 10:0.37128282 11:0.16658956 12:0.58883863 
-0 -0 -0 -0 -0 -0 -0 1.449449213953773 6.093000138130049 0 0 0 4.362058187861327 0 1:-0.8494885 2:-0.1446407 3:-0.14163185 4:-0.68088394 5:-1 6:0.2286034 7:-0.709248 8:0.34750512 9:-0.32840989 10:0.23558011 11:-0.6062073 12:0.36097442 
-4.928012601528855 -0 -0 -0 -0 -0 -0 0 0 0 0 0 0 0 1:-0.85429701 2:-0.14856826 3:-0.13837987 4:-0.63675133 5:-1 6:0.21337441 7:-0.67784046 8:0.23406877 9:-0.30849448 10:0.23967471 11:-0.53774637 12:0.34216278 
-0 -1.117881529370912 -2.72704275993983 -1.881196847070807 -8.067120817083511 -2.941823220122994 -28.34528319387053 9.587720284466547 2.160317766459716 1.229141461362511 2.685609227583302 1.37084057511762 3.858664675923388 1.094911626947132 1:-0.83746149 2:-0.17341402 3:0.11951305 4:0.066268737 5:0.076306807 6:0.6393786 7:-0.70127559 8:-0.22273479 9:-0.56246293 10:0.63109459 11:0.29068849 12:0.69773049 
-0 -0 -0.1046997180939019 -0 -0 -0.09924422887212069 -0 21.84033621408702 7.271871370907208 0 0 0 8.120854454256232 5.77010046504686 1:-0.9083684 2:0.065821042 3:0.038081336 4:-1 5:-1 6:0.36403782 7:-0.50000288 8:0.30559153 9:-0.41393307 10:-0.06578792 11:-0.58091167 12:0.47670797 
-0 -0.2161959277833509 -0.05791541141264383 -0.6847819587741408 -0 -0.005927353054915326 -72.30433245947144 85.76648495319421 4.241782139857951 0.7709760174548003 2.66588012492613 0.9149534432192362 3.448415052218558 0 1:-0.93431184 2:0.055797253 3:0.057383928 4:-1 5:-1 6:0.47024245 7:-0.61363511 8:0.007484545 9:-0.45979246 10:0.004983014 11:-0.4009986 12:0.55552519 
-0 -0 -0 -0 -0 -0 -24.30601336471544 9.762478610543973 52.81214018853049 0 0 0 0 0 1:-0.911661 2:0.036894839 3:0.030936533 4:-1 5:-0.94714329 6:-0.08768588 7:-0.55379143 8:0.11635826 9:-0.14431934 10:-0.032288043 11:-0.43956094 12:0.099497496 
-9.910284281472222 -0 -0 -0 -0 -0 -0 0 0 0 0 0 14.78695898473313 0 1:-0.8953315 2:0.05078288 3:-0.02288325 4:-0.2703697 5:-0.028982139 6:0.48963691 7:-0.58727812 8:0.044772578 9:-0.47098153 10:0.37965532 11:0.075170926 12:0.57150282 
-8.073014225367462 -0 -0 -0 -0 -0 -0 0 0 0 0 0 1.737307349986748 0 1:-0.90132293 2:0.020045238 3:-0.010676408 4:-0.29966714 5:-0.50693075 6:0.57417254 7:-0.70214295 8:0.39406047 9:-0.45121499 10:0.43549026 11:-0.38108488 12:0.60256073 
-11.37791479178333 -0 -0 -0.4357245417161327 -0 -0 -0 2.284070071840485 0 0.2766399916583001 0 0.3909899161858036 2.787324473583647 0 1:-0.89628106 2:0.015739586 3:-0.016740944 4:-0.57604271 5:0.10627668 6:0.19268533 7:-0.67676293 8:-0.076965351 9:-0.21691876 10:0.27154391 11:0.2181052 12:0.28028339 
-11.04518213214964 -0 -0 -0 -0 -0 -0 0 0 0 0 0 0 0 1:-0.87204365 2:-0.093700127 3:-0.025976121 4:-0.31019953 5:-0.059645225 6:0.33037101 7:-0.63659192 8:-0.10220016 9:-0.4329121 10:0.38901919 11:0.14812442 12:0.47059188 
-3.876055074921114 -0 -0 -0 -0 -0 -0 0 0 0 0 0 0 0 1:-0.8614507 2:-0.1028053 3:-0.017542081 4:-0.44777228 5:-0.34850323 6:0.29039291 7:-0.65632395 8:0.23122535 9:-0.048634813 10:0.32756834 11:-0.20144923 12:0.23430291 
-12.3479263454212 -0 -0 -0 -0 -0 -0 0 0 0 0 0 0 0 1:-0.86702524 2:-0.12477613 3:-0.065955005 4:-0.41036023 5:-0.11845016 6:0.1064383 7:-0.69440299 8:0.15386604 9:-0.059546193 10:0.37133738 11:-0.036615972 12:0.1486465 
-0 -0.1320727351132768 -0.009814118434036248 -0.5731621326473231 -0 -0 -0 0 2.082840644636401 0.4797716314825127 2.260480912582858 0.490589684512785 0 0 1:-0.76361263 2:-0.35941114 3:-0.23156275 4:-0.26618133 5:-1 6:-0.054084373 7:-0.62931251 8:0.17954745 9:-0.036202339 10:0.40807962 11:-0.50484174 12:0.055398527 
-0 -0 -0.01461956192203915 -0 -0 -0 -38.72485842149587 27.40901140891003 18.65674641665775 0.04868060358005531 5.971804969794901 0.09136277876467067 0.3828082716773469 0.8666029883692159 1:-0.76113341 2:-0.32731383 3:-0.21542007 4:-0.83714437 5:-1 6:0.11270494 7:-0.52506276 8:-0.028296787 9:-0.054402464 10:0.037111454 11:-0.37940391 12:0.14887796 
-0 -0 -0 -0 -0 -0 -0 0.5784956925132332 0 0 0 0 0 0 1:-0.75035524 2:-0.36321731 3:-0.20921808 4:-0.11159625 5:-0.53968656 6:0.091111124 7:-0.61352997 8:0.026595729 9:-0.12959262 10:0.48110897 11:-0.17613512 12:0.18043216 
-0 -0 -0.3565206850085186 -0.1821072425538346 -0 -0 -0 0 5.465536547391288 0.2996563392788125 1.292422932244681 0.4211826179443001 0.8336124705079739 0.7466070082042586 1:-0.79775394 2:-0.25740386 3:-0.0095270954 4:-0.39323064 5:-0.24926291 6:-0.30267393 7:-0.66573207 8:0.12781877 9:-0.13710466 10:0.36266254 11:-0.088075833 12:-0.011850118 
-10.30068195301323 -0 -0 -0 -0 -0 -0 0.7964074536240058 0 0 0.3906606636290694 0 0 0 1:-0.80596165 2:-0.29563628 3:-0.023953398 4:-0.41880798 5:-0.62293723 6:0.077840833 7:-0.67124826 8:-0.08266886 9:-0.30646306 10:0.3523884 11:-0.15294593 12:0.27338354 
-0 -0.3733051920893094 -0.4795660183103877 -0.8120162917734743 -0.5646181050030007 -0.4245914467352934 -0 0 8.863028354865458 0.8515282974089051 1.840191225637383 1.567414698688328 10.3972500509727 11.34376915670538 1:-0.91875536 2:0.22434263 3:-0.1814888 4:-1 5:-1 6:-0.32721639 7:-0.51297235 8:0.69751754 9:0.20919058 10:-0.057710441 11:-0.81744626 12:-0.21905325 
-3.797193018662514 -0 -0 -0 -0 -0 -4.084798284675133 13.39219470847607 0 0 0 0 0 0.7655260317802092 1:-0.92125929 2:0.22300739 3:-0.18860079 4:-1 5:-1 6:-0.25287426 7:-0.65844188 8:0.51248324 9:-0.099005809 10:0.032888979 11:-0.70577464 12:-0.0084471992 
-0.3485141718113176 -0.03875799840862636 -0.05348029324780421 -0.08789026896161518 -0 -0.02622039315851488 -0 -0 3.110978900178217 0 0.9676570758159109 0.8314770596497226 0.5437921309705859 3.985368785546818 1:-0.94795794 2:0.4265429 3:0.29549794 4:-1 5:-1 6:0.24962014 7:-0.66316776 8:0.55605005 9:1 10:0.091427029 11:-0.72360691 12:-0.30453975 
-0 -0.07383735238145681 -0 -0 -0 -0.04495442468694852 -0 -0 0 1.27166304353821 0 1.819674595423181 0 0 1:-0.86728087 2:0.24660456 3:0.59302673 4:-1 5:-1 6:0.43759995 7:-0.61547296 8:-0.32163951 9:0.8059449 10:0.060128086 11:-0.17717745 12:-0.094191757 
-4.399293310071908 -0.1417691274170774 -0.1616773508782727 -0.346800886392968 -0.07010556579143264 -0.1182227176545011 -0 -0 1.860744734967963 0.7058510253809939 1.880163498364365 1.802887594258053 2.785348164780038 5.226861711078864 1:-0.81559271 2:-0.032732794 3:0.51761598 4:-1 5:-1 6:-0.5240538 7:1 8:0.81860103 9:1 10:-1 11:-0.88706515 12:-0.73511818 
-0.8713741904653116 -0.09947088881874494 -0.1177453860958354 -0.6344777397506125 -0.2820572937769051 -0.2667667400230816 -0 -0 0.5429918060829522 1.309478965716576 0.3116161112474647 1.272642263671542 0.8984972048418023 0.7960798961149279 1:-0.31325128 2:1 3:0.023360937 4:0.48141452 5:-0.23419724 6:0.71537501 7:-0.042107406 8:0.48764151 9:0.068269754 10:0.36620542 11:-0.31441727 12:0.46232005 
-0.01696967271983538 -0 -0 -0 -0 -0 -0 -0.3291787681676648 0 0 0 0 1.15878438879459 0 1:-0.88988218 2:-0.168654 3:0.19717325 4:0.54181683 5:-0.0060956826 6:0.70722765 7:-0.96551796 8:-0.37751771 9:-0.57906756 10:1 11:0.33340636 12:0.81048512 
-0.1704927530159924 -1.916182819079536 -1.206952464872601 -0.2994079962676857 -3.361971617260883 -5.400218522550483 -0 -0.8010700010620031 0.998509411057051 0.6992315357581123 1.288538497840085 0.9872668889427031 1.57273697152031 0.3773281660111078 1:-0.92818278 2:-0.10795705 3:0.059573081 4:0.46779975 5:0.11300115 6:0.78603949 7:-1 8:-0.48917282 9:-0.80586891 10:0.98853603 11:0.45993353 12:0.97791874 
-2.880958096570139 -0 -0 -0 -0 -0 -0 -0 0 0 0 0 0 0 1:-0.95214425 2:0.1996232 3:-0.00050575421 4:0.10430642 5:-1 6:0.47967747 7:-0.72632051 8:0.020363792 9:-0.61934599 10:0.64151332 11:-0.39010089 12:0.70579051 
-0 -0 -0 -4.397854540719988 -0.01048932307043001 -0 -0 -0 0 1.993537907295582 2.650908437872597 1.757763771546323 1.936387445572227 0.009382096683992499 1:0.18072702 2:-0.24792079 3:-0.085296355 4:0.19036088 5:-1 6:0.28186335 7:0.35178911 8:0.11206508 9:-0.6661662 10:-0.02634207 11:-0.44719201 12:0.62120939 
-0 -0.07907732731243458 -0.3439553022824249 -4.888200148425097 -0.201892967010608 -0.06185868553976538 -0 -0 0 23.62138594410278 0.009735777602371133 3.813085528195076 0 0.3312942958725141 1:0.31128887 2:-0.33161613 3:0.016010964 4:0.2661039 5:-1 6:0.5573289 7:0.75401518 8:-0.46312819 9:-0.66457562 10:-0.25540922 11:-0.089089829 12:0.77364963 
-0 -0.07690257076200026 -0.08177007191217399 -0.1938436267711965 -0.01941649871549562 -0.07383696723070546 -0 -0 4.802787737691446 0.3922741582372026 8.280280672342695 1.211062102663997 2.892834973638156 4.185958894141475 1:-0.81889061 2:-0.28926294 3:0.32221493 4:-1 5:-1 6:0.46496342 7:-0.32131637 8:1 9:0.90989635 10:-0.13290744 11:-1 12:-0.13560054 
-0 -0.08105048569511422 -0.1028487908666763 -0.2886775552376588 -0 -0 -0 -0 2.842281810685364 1.430518417773053 5.059669851771724 0.9649362600168568 0.3718180812114791 0.1654128071092041 1:0.16243234 2:-0.43855691 3:0.61328953 4:0.21895576 5:-1 6:0.45509994 7:-0.25435814 8:0.45300646 9:0.30459934 10:0.38460309 11:-0.65945432 12:0.18870394 
-0 -0.1021080586303515 -0.08352169091267429 -0.4261367972462833 -0.06231884861515066 -0.1120923772899311 -0 -0 0.4404708267387077 4.256707696034593 0.1372695817443734 0.7587317950254339 0.4092727939206209 0.3083251026020977 1:0.019425851 2:0.25575052 3:0.71972153 4:0.38610179 5:-0.91320341 6:0.3467604 7:1 8:-0.57493797 9:-0.447288 10:-0.36156179 11:0.022071074 12:0.53807203 
-1.843524449309956 -0 -0 -0 -0 -0 -0 -4.256575134527044 14.73191416093316 0 0 0 0 0 1:-0.98165053 2:0.23703601 3:-0.056684097 4:-0.89133235 5:-1 6:0.3947926 7:-0.82878899 8:0.00077289043 9:-0.33446448 10:0.25016559 11:-0.37790404 12:0.50333225 
-0 -0.0716264774945955 -0.0870929538013344 -0.627985061875093 -0.02491429715612081 -0.05146104441044633 -0 -0 0.6731257555498247 1.386388869200069 0 1.177429822605345 0.3719603823949854 0 1:-0.19566724 2:0.22414749 3:0.85024297 4:-0.87447604 5:-1 6:0.31796046 7:0.88582527 8:-0.29496216 9:1 10:-0.86725836 11:-0.19378616 12:-0.26650581 
-0.995695997537205 -0 -0 -0 -0 -0 -13.75132330250148 -12.62034744106525 11.73267672311495 0 2.122423754984013 0 0 0 1:-0.88431075 2:-0.050842751 3:0.11908989 4:-1 5:-1 6:0.17872717 7:-0.65867142 8:-0.099347367 9:0.41072128 10:0.088476374 11:-0.31557146 12:-0.022927967 
-0.9120987709682052 -0 -0 -0 -0 -0 -13.79740846723508 -1.535939326514731 0 0 0 0 0 0 1:-0.98740635 2:0.16374925 3:-0.11122575 4:-0.34917628 5:-1 6:0.4416585 7:-0.42950665 8:0.032209166 9:-0.50701899 10:0.23785997 11:-0.39747555 12:0.62343058 
-0 -0.07026497299722348 -0.07351846310624498 -0.2500021380135645 -0.01853823026370817 -0.06468613913663231 -0 -0 1.573023179580386 2.443594913811893 1.96639212954955 6.889246346737739 0.9580937759414007 0.4446886226463209 1:0.092455911 2:-0.31560599 3:0.69067694 4:-1 5:-1 6:0.41991903 7:0.73074099 8:-0.14872219 9:1 10:-0.82330311 11:-0.28483182 12:-0.20976207 
-0.07068741707386939 -0.1671351557089981 -0.4699580036867068 -2.632584060639733 -0.3006219901223778 -0.1774519595820975 -0 -0 2.048581687475478 1.613039231839443 2.136445350444013 2.047224906588356 1.275683963734451 0.447687283804194 1:-0.016431669 2:0.25502424 3:-0.85811764 4:0.49655488 5:0.0035084948 6:-1 7:0.10889706 8:-0.36077268 9:-0.96166644 10:0.27408482 11:0.32757893 12:0.068806826 
-1.031845878070219 -0.06660424617901105 -0.08732519477294388 -0.04226722049182945 -0.03118713155723879 -0.05941326141488668 -0 -3.26288918569872 13.77059462893304 0.0295382880826973 1.776450065902247 0 1.964063293827263 0.3079263781768115 1:-0.9707204 2:0.18580373 3:-0.061241677 4:-1 5:-1 6:-1 7:-0.59967313 8:0.31922381 9:-0.045496189 10:0.049759699 11:-0.57616431 12:-0.4303652 
-0 -0.07729407729531962 -0.08104901395082341 -0.1954168639668653 -0 -0.0635248130254677 -0 -0 0 0.8047799062530967 0 1.864069344636325 1.640996853133608 1.550344826256441 1:-0.93197339 2:0.13611182 3:-0.024692471 4:-1 5:-1 6:-1 7:-0.12502326 8:0.055925305 9:-0.4461536 10:-0.26172162 11:-0.41224067 12:-0.21206847 
-0 -0.02344364049529906 -0 -0 -0 -0 -2.026798571365574 -43.78368765412156 0 0 0 0 4.999025849090194 2.143069205998513 1:-0.9631098 2:0.21266219 3:0.038881019 4:-1 5:-1 6:0.30408572 7:-0.39226781 8:0.091893479 9:-0.53972305 10:-0.086346695 11:-0.43463364 12:0.56468487 
-1.423731712279456 -0 -0 -0.6403861417174526 -0 -0 -3.276932079073227 -0 0.3474781875679995 0.4154646786678815 5.373465009523453 0.7526374294949432 0.4298296631123268 0 1:-0.74284177 2:-0.41680563 3:-0.037569418 4:0.31262653 5:-1 6:-0.038001964 7:-0.73072869 8:-0.28988647 9:-0.21707755 10:0.74035832 11:-0.19694617 12:0.19850808 
-0.003343686391027615 -0.04350626543399488 -0.01239677385089509 -0 -0 -0.01537542653943897 -0 -7.989291374487197 16.99626044521733 0.4992007990757882 29.11487047248913 0.6579140394108772 9.356952706295999 5.203979647235891 1:-0.51765254 2:-0.65642532 3:-0.17345465 4:-1 5:-1 6:-0.22715247 7:-0.44143549 8:0.56525178 9:-0.033234966 10:-0.0540812 11:-0.7293357 12:-0.006927195 
-0 -0 -0 -0.5406798866163737 -0 -0 -0 -0 3.289591583413665 0 1.987445406911031 0 2.444297029898523 0 1:-0.81229466 2:-0.17228314 3:-0.19872761 4:-0.46643954 5:-1 6:0.25164795 7:-0.68370607 8:-0.16218543 9:-0.75475632 10:0.3506628 11:-0.27644991 12:0.65266139 
-0 -0 -0 -0.586209625065751 -0 -0 -0 -2.813276216048833 0.4245194827953326 0.7226743220557574 2.406501382096803 1.395033303794959 0 0 1:-0.27109993 2:0.18028805 3:0.93250822 4:-0.82944045 5:-1 6:0.432974 7:-0.40072885 8:0.11457142 9:0.17382679 10:-0.002234579 11:-0.44875241 12:0.24764098 
-3.410782684620814 -0 -1.449146572950671 -2.030339690071938 -2.172911318283854 -0.426824045349968 -19.28870948103932 -8.587266296408965 0 0.9566993940279914 0.05961199673786562 0.5410972930546064 1.830271714567925 0 1:-0.78764367 2:-0.26968072 3:0.14055505 4:-0.038774234 5:-0.33646133 6:0.69659222 7:-0.60768056 8:-0.43740598 9:-0.21074675 10:0.49775484 11:0.21254096 12:0.60388785 
-0 -0 -0 -0 -0 -0 -15.00264503549689 -33.942910553951 33.42107651555154 0 11.03155166145447 0 1.733006096877588 0 1:-0.82453253 2:-0.2128578 3:0.12327768 4:-1 5:-1 6:0.092549161 7:-0.59447277 8:-0.1777482 9:-0.50846522 10:0.046347047 11:-0.26676089 12:0.42992617 
-2.064911354990694 -0 -0 -0 -0 -0 -25.00206398888595 -4.211301672666965 39.68441049974 0 0 0 0.103113379643752 5.357110254812136 1:-0.92727446 2:0.080358086 3:-0.13099155 4:-0.88769133 5:-1 6:-0.42342826 7:-0.50327859 8:0.36703919 9:-0.5134002 10:0.038231692 11:-0.60593307 12:0.14545429 
-1.813694479030082 -0 -0 -0 -0 -0 -31.24833580225675 -0 14.02779110916503 0 0 0 0 0 1:-0.91975298 2:0.056513846 3:-0.20370218 4:-0.79042812 5:-1 6:-0.14280512 7:-0.68198378 8:-0.091437594 9:-0.66652644 10:0.2003035 11:-0.3204959 12:0.38506181 
-0 -0 -0 -0 -0 -0 -28.24143920276942 -66.66660048620011 24.15022459016396 0 0 0 5.230374795933204 0.2376367071962573 1:-0.95507806 2:0.13645305 3:-0.14791271 4:-1 5:-1 6:0.43718421 7:-0.68251709 8:0.18257997 9:-0.20466525 10:0.10412471 11:-0.49109297 12:0.45620413 
-0.4650515558949177 -0.1222202505555313 -0.1520187181293853 -0.9857198592462245 -0.134228995783801 -0.1140240920142695 -0 -2.053001838366552 -8.194708051713393 1.51605258474963 4.482855724264039 2.406963499065491 1.504054725310269 1.967714245930752 1:-0.33075498 2:-0.093966456 3:0.26797224 4:-0.50340732 5:-1 6:0.58335183 7:-0.12032613 8:0.34269662 9:0.71287842 10:-0.036073549 11:-0.59077794 12:0.037631534 
-0.02014481448957695 -0.2580066930725276 -0.526422150025915 -1.444251761308347 -0.3632179633249572 -0.2668173440061046 -0 -0 -1.034602913795652 3.818726102768544 1.186148080743694 2.535622361416717 2.410098776328091 0.6366034087472006 1:-0.247929 2:-0.11729982 3:0.11654088 4:-0.0004973397 5:-0.033969416 6:0.59474434 7:0.74935678 8:-0.49884271 9:0.69076024 10:-0.3751487 11:0.395597 12:0.056022901 
-2.221425166126123 -0.06415507059090683 -0 -0.04546570253649604 -0 -0.01483796687525116 -22.18002192915947 -14.25357938618287 -57.43696440660902 0.1469405183455301 0.2824009019729042 0.3692448357508697 2.262344305644164 1.149108617346635 1:-0.93996662 2:0.10301576 3:-0.17542824 4:-1 5:-1 6:0.18668985 7:-0.78240998 8:0.048083156 9:-0.61743325 10:0.16967782 11:-0.40735833 12:0.54168981 
-0 -0 -0 -0 -0 -0 -0 -0 -0 0 11.00235496209997 0 0 14.41581452266258 1:-0.90256014 2:-0.26529413 3:-0.1479536 4:-1 5:-1 6:-1 7:-0.17270595 8:1 9:-0.14298028 10:-0.23043063 11:-1 12:-0.37725135 
-0.5343916910643602 -0.2139534497206801 -0.2362518798212497 -0.5607705386504089 -0.1991056903529136 -0.2000234926368026 -0 -0 -1.010264772476052 0.8961491327416707 1.213506155963448 2.828420193284111 6.4334268976307 2.536987109903687 1:-0.023857676 2:-0.44187722 3:-0.18186143 4:-1 5:-1 6:-1 7:1 8:-0.037850542 9:0.52394434 10:-1 11:-0.35385797 12:-0.7406228 
-2.725911721716194 -0 -0 -0 -0 -0 -12.495521509239 -1.204084886993529 -3.029990145938245 0 2.56056287813243 0 0 0 1:-0.86501878 2:-0.3593229 3:-0.13572116 4:-0.79016315 5:-0.6055777 6:-0.044403123 7:-0.70502904 8:-0.43583432 9:-0.32770919 10:0.21554863 11:0.082732869 12:0.25522285 
-0 -0 -0 -0 -0 -0 -5.285253137921035 -14.49418662012598 -10.14417063518492 0 0 0 12.38024490377277 33.64807264980935 1:-0.93321525 2:-0.0043357993 3:-0.10171846 4:-1 5:-1 6:0.042917787 7:-0.032937434 8:0.46611318 9:-0.26793835 10:-0.32215146 11:-0.66761427 12:0.27125427 
-0 -0 -0 -0 -0 -0 -0 -0 -0 0 6.375545867271788 0 11.2097587187029 63.96165431251037 1:-0.91356035 2:-0.12193316 3:-0.040497432 4:-1 5:-1 6:-1 7:0.1798302 8:1 9:0.055969901 10:-0.46177679 11:-1 12:-0.48564863 
-9.023654339329092 -0.1288196930500619 -0.1696940612268461 -0.2746602154508647 -0.1595095103537134 -0.1358105485339241 -2.338135235243926 -3.592876206728944 -4.668279598203467 0.06576116551519978 3.063410749458772 0.2988018542942468 4.756223066489715 1.159576956981489 1:-0.94787736 2:-0.010602078 3:-0.17420961 4:-0.20781629 5:-1 6:-0.2809089 7:-0.75394352 8:0.71653877 9:-0.22579298 10:0.51587682 11:-0.82352352 12:0.068069884 
-0 -0 -0 -0 -0 -0 -0 -0 -0 0 0 0 2.230695697186375 0 1:-0.48594911 2:-0.15822394 3:-0.14981098 4:-1 5:-1 6:-1 7:0.45570455 8:0.62398893 9:-0.31760489 10:-0.64281489 11:-0.7659041 12:-0.28210777 
-0.9265348453161904 -0.1108589123533718 -0.1056380403873369 -0.03619813301815161 -0.08497859196622339 -0.1038704922303109 -0 -0 -5.424668750618766 0 0 0.4896982961632295 4.044023401374609 0 1:-0.98601248 2:0.18742519 3:-0.0060672688 4:-1 5:-1 6:0.07727979 7:-0.24231001 8:0.60784154 9:1 10:-0.18475409 11:-0.7558511 12:-0.40045359 
-0 -0 -0 -0.06517438559890321 -0 -0 -0 -0 -0 0.7061237185574754 1.152937195170477 1.882856313657115 7.331793130915751 6.632270322307583 1:-0.50404704 2:-0.094475254 3:0.06747385 4:-1 5:-1 6:-0.31574111 7:-0.009925425 8:-0.20043825 9:0.63261944 10:-0.33725272 11:-0.25263458 12:-0.41901843 
-0.7424836408666118 -0 -0 -0 -0 -0 -3.403370443856817 -21.59172640286931 -5.208366877447512 0 0 0 0 8.465579027117501 1:-0.82687856 2:-0.19291961 3:-0.32440108 4:-1 5:-0.80765702 6:-0.16020362 7:-0.50960796 8:-0.041501712 9:0.19284425 10:-0.0093441162 11:-0.25950768 12:-0.092846097 
-0 -0.1090543157603343 -0.1145265961778764 -0.3924982195455227 -0.07599560479203622 -0.08523850615461852 -0 -0 -0 0.4426302875109723 1.494034329762258 2.784437992029709 1.363676690613846 0.4245421126844792 1:-0.42165888 2:0.01388037 3:-0.59354419 4:-0.93550912 5:0.21546934 6:-1 7:0.31723395 8:0.14115678 9:-0.7974947 10:-0.5222413 11:0.11655762 12:-0.02064155 
-0 -0 -0 -0 -0 -0 -0 -0 -8.071631680740818 0 0 0 0 0 1:-0.81100716 2:-0.23831104 3:-0.33105355 4:-1 5:-1 6:-1 7:-0.17707596 8:0.33100651 9:-0.46138854 10:-0.22756288 11:-0.58349995 12:-0.20376777 
-0 -0.04902499278108256 -0.06914184681981918 -0.2723434552789913 -0.0649295033543032 -0.04905717765183885 -0 -0 -0 0.05779537154617685 8.397630636827662 0.1836594315106791 46.9757162116199 31.25923070363759 1:-0.99117432 2:0.13452233 3:-0.081457071 4:-1 5:-1 6:-0.58621187 7:-0.41467571 8:1 9:0.6333298 10:-0.071641877 11:-1 12:-0.56993254 
-0 -0.03535747463006759 -0.03369021200907972 -0 -0.02022635582484478 -0.02732301843190523 -0 -0 -1.718191329407474 0.1746117769010707 1.71334634651254 0 0 4.686936732225275 1:-0.97702454 2:0.047475431 3:-0.19084093 4:-1 5:-1 6:-0.75058824 7:-0.62078372 8:0.9188652 9:0.40471787 10:0.063613185 11:-0.94948733 12:-0.53685574 
-0 -0 -0 -0 -0 -0 -0 -2.796380103434961 -0 0 0 0 0 0 1:-0.94762656 2:0.1685737 3:-0.34821975 4:-1 5:-1 6:-0.21894356 7:-0.35137585 8:0.69797235 9:0.72672249 10:-0.11318138 11:-0.81196449 12:-0.41641869 
-0 -0.05942888405739463 -0.06840553416137475 -0.07341359065208777 -0.05789620228639934 -0.06381925014796114 -0 -0 -8.111854061780241 0.1739903137678543 0 0 1.904992650211609 13.96101294548931 1:-0.91299076 2:-0.020535785 3:-0.1567081 4:-1 5:-1 6:-1 7:-0.47493251 8:0.91094617 9:-0.3654096 10:-0.032099322 11:-0.94455712 12:-0.25606155 
-0.9156404923494956 -0.1664595917090261 -0.1920536954268827 -0.4300267915059504 -0.157068057803331 -0.1535082769782737 -0 -0 -0 0.555415703800159 0 3.441717084426712 0.7074725878619199 0 1:-0.85433182 2:-0.22667488 3:-0.26011935 4:-1 5:-1 6:-1 7:0.97359667 8:1 9:-0.129283 10:-0.98267324 11:-1 12:-0.38471427 
-0 -0.01531873126339521 -0.01181430752661175 -0.04832103889066872 -0.01492543710790424 -0.01698028358109779 -0 -0 -0 0.1870863803111489 0 1.641915796307014 0.474527684710305 0.4914067715258635 1:-0.32010846 2:0.028124226 3:-0.58940107 4:-1 5:-0.24879332 6:-1 7:1 8:0.46083526 9:-0.19084813 10:-1 11:-0.30471565 12:-0.35117073 
-0 -0.2891612509586199 -0.8762684146778886 -1.629215400395473 -0.798856265517474 -0.5000303235080029 -3.963619435287754 -0.1249040106464703 -6.377689940023118 1.131663397392682 3.621536440269425 1.633280582977039 2.780147614723616 0.3706870562193445 1:-0.70245776 2:-0.41743677 3:-0.34865689 4:-0.68335385 5:-0.61138596 6:0.23165838 7:-0.61796582 8:-0.67692346 9:-0.69405606 10:0.20761114 11:0.23004897 12:0.60846414 
-0 -0 -0 -0.2819928380969318 -0 -0 -0.07356214289773706 -0 -3.864636393993569 0.6111546891945713 1.273358946726879 0.1405231006698034 0 1.642811761493968 1:-0.71665798 2:-0.31988994 3:-0.45294188 4:-0.20540089 5:-1 6:-0.2374589 7:0.012339952 8:0.69537428 9:-0.31809435 10:0.014128174 11:-0.81034699 12:0.1425415 
-2.594452755738552 -0 -0 -0 -0 -0 -11.14958742870506 -47.5365241120877 -56.20348789676426 0 4.259045554355742 0 5.360745243422139 0 1:-0.91710637 2:-0.14628921 3:0.16416077 4:-0.97608376 5:-1 6:-0.092812915 7:-0.65579642 8:0.14889192 9:-0.18489063 10:0.097605524 11:-0.47011956 12:0.15046682 
-0 -0 -0 -0 -0 -0 -0 -0 -0 0 0 0 8.176758241368484 0 1:-0.79850427 2:-0.3543258 3:-0.17639685 4:-0.59374247 5:-1 6:-0.38186273 7:0.28178698 8:0.71195463 9:-0.20614238 10:-0.34156215 11:-0.82066954 12:0.0011787475 
-0.3947839947220065 -0.02843103929714645 -0.01716127258102936 -0.1646860977316486 -0 -0.01180395910646804 -1.539914469595727 -0 -8.716112468216201 0 1.653665251041565 2.224016191804005 1.92082841622727 0 1:-0.44784874 2:0.12262346 3:-0.49436856 4:-1 5:-0.83563549 6:-1 7:-0.5080507 8:0.26210266 9:-0.27922603 10:-0.010366043 11:-0.46191849 12:-0.30301835 
-0 -0.07893448714054373 -0.0807639650593905 -0.1383589941831295 -0.08235368030882205 -0.08038857475200106 -0 -0 -0 0.2943945180130416 0 0.2041473057681722 0 0 1:-0.57810237 2:0.23157867 3:-0.41992628 4:-1 5:-0.13203005 6:-1 7:0.53744902 8:0.83295087 9:-0.75318469 10:-0.69645838 11:-0.48049018 12:-0.044783697 
-0 -0 -0 -0 -0 -0 -0 -0 -0 0 0 0.1255267376323757 0 6.217553708984324 1:-0.6194733 2:0.27939626 3:-0.45868221 4:-1 5:-1 6:-1 7:-0.1316361 8:0.41103856 9:-0.23693726 10:-0.25738206 11:-0.63332607 12:-0.32605923 
-0.1999057803594528 -0.2547209787746834 -0.4225331852598501 -1.050804593683331 -0.3256540525988191 -0.2592809027584893 -0 -0 -2.254413853690719 1.285375687883126 1.307412714784604 1.712559542733294 1.249608925958521 0.2797052341303911 1:-0.63644286 2:0.21001301 3:-0.36179892 4:0.51587902 5:0.45679586 6:-1 7:0.51631152 8:0.10169157 9:-0.84977333 10:0.015626347 11:0.256654 12:0.0078422707 
-0.2104475236125273 -0.08530767824917326 -0.1037144438442794 -0.2437054580541048 -0 -0.03186413916881671 -0.1372679542489718 -0.1372269039386009 -0.06230967925413022 -0 0.450988836990642 0.8031349398322208 0.2414535151974154 0.3018117340954514 1:0.39797211 2:-0.35343276 3:0.34091435 4:0.80302605 5:0.6308266 6:0.91048651 7:1 8:-0.37647123 9:-0.32748719 10:-0.16952656 11:0.63765808 12:0.78653361 
-0.233154144397209 -0.1797847592935855 -0.7178839152781638 -0.9195921467069798 -0.7937705731929399 -0.2078161571762295 -0.1834204248866493 -0.2468363467431507 -0 -0.2458523716092033 0.6866041442225501 0.3688381303534576 0.4179165169399096 0.3844641790337436 1:0.13518331 2:-0.67083553 3:-0.091932456 4:0.77601039 5:0.24892346 6:0.88537439 7:0.56477068 8:-1 9:-0.74493004 10:0.10364226 11:0.84303068 12:1 
-0.2271568177573984 -0.1109279913181569 -0.2987869267198851 -1.157105274077626 -0.1494015321011172 -0.1054903787792614 -0.2468886252787597 -0.1475027672187382 -0 -0.2149157011368846 0.2920493991674272 16.55731609314387 0 0.2102703186886522 1:0.23906098 2:-0.77444851 3:-0.099305884 4:0.99277045 5:-1 6:-0.12437783 7:0.44967058 8:-0.92191001 9:-0.59859883 10:0.27901449 11:0.19653724 12:0.35830717 
-0 -0 -0 -3.299786803260496 -0 -0 -0 -0 -3.095902601533664 -0 0 12.95086222082164 0 0 1:0.41673492 2:-0.40063468 3:-0.20723006 4:0.25497522 5:-1 6:-0.09841933 7:0.44604223 8:-0.33202459 9:-0.40322423 10:-0.05843281 11:-0.17071194 12:0.26630491 
-0 -0 -0 -0.9069891570425011 -0 -0 -0 -0 -14.93319173794506 -0 0 2.914622205046604 0 0 1:0.32406461 2:-0.49935611 3:-0.016311485 4:0.57853668 5:-1 6:0.48924477 7:0.77767544 8:-0.4648053 9:-0.84424816 10:-0.12702941 11:-0.088045704 12:0.8336522 
-0 -0 -0 -0 -0 -0 -0 -0 -5.392592447650316 -0 0 0 0 0 1:0.46113705 2:-0.63585203 3:-0.18538766 4:0.082970954 5:-1 6:0.5424868 7:1 8:-0.73404317 9:-0.82903329 10:-0.50118379 11:0.079575641 12:0.8549936 
-0.1204620030146894 -0.03834098260841465 -0.01772271341430767 -0.4138465808226339 -0.02077729196474314 -0.03726435259357903 -0.1333650606944999 -0.09741350345407074 -0.2882540992589143 -0.754981477072709 0.4451844341399198 1.272527474899777 1.117950561294808 0.1500643544088387 1:0.0055426663 2:-0.11006588 3:-0.51721714 4:0.67416587 5:-0.25600733 6:-0.61100152 7:1 8:-0.54658573 9:-0.83389101 10:-0.22887953 11:0.31902818 12:0.21568102 
-0.4889922822798266 -0.1952921047794992 -0.2162212696144828 -1.172838423611923 -0.1950467005779741 -0.187089942209595 -0.3800631910838581 -0.4235242550766864 -1.168191404386006 -0.8446188597391456 0.6336200434587408 2.032804592480173 1.638932356164779 0.7404122685660319 1:-0.24665855 2:0.34214537 3:0.67097184 4:-0.9611079 5:-1 6:0.71165307 7:1 8:0.35492988 9:0.07489492 10:-0.98208631 11:-0.59839409 12:0.45663895 
-0.01531827624121876 -0 -0 -0.5159085942080887 -0 -0 -0.04969986758430976 -0 -7.0379176393343 -0.07800137175625534 0 0 1.178162370226372 0 1:-0.21361703 2:0.33551362 3:0.59731171 4:0.34024903 5:-0.70207614 6:0.43950222 7:1 8:-0.12414743 9:-0.26906214 10:-0.38268156 11:-0.15751136 12:0.4925806 
-0 -0 -0 -0 -0 -0 -0 -0 -0 -0 0 6.994621915739129 0 0 1:0.028580946 2:-0.57682408 3:-0.13384415 4:0.35734902 5:-1 6:0.10878191 7:0.87229977 8:-0.68037257 9:0.25539776 10:-0.29100409 11:0.046161552 12:0.022772335 
-0.2104915322013649 -0.1121572914727271 -0.04502211852565989 -0 -0.06490553269528079 -0.1021916311550215 -0.04545226738371678 -0.09149068194725059 -1.694152243695451 -1.266199297189064 1.896795798255932 0.6282204345390401 0.184386491735272 0.2914969701905829 1:0.26074997 2:-0.5338527 3:0.30243634 4:-0.21373288 5:-1 6:0.40269499 7:1 8:-0.48911596 9:0.84435811 10:-0.63784552 11:-0.072910441 12:-0.13454697 
-0.2885621725845355 -0.1571665574602223 -1.708629972893321 -4.699513684391888 -0.9631454002137807 -0.332423686551902 -0.3519934006498204 -0.2179194303211973 -0.7332093558769145 -0.7356531711319717 0.2845481315889735 0.8019052463584572 0 0.1765155812429792 1:0.22959885 2:-0.3986962 3:-0.029934052 4:0.018210922 5:-0.017940018 6:0.86145306 7:0.17160859 8:-0.99769082 9:-0.27170202 10:0.012606256 11:0.71384192 12:0.72885032 
-0.1838085947166684 -0.1214369453357305 -0 -0 -0 -0.09372902939078222 -0.1091593482097978 -0.09211612533505005 -1.418616359461846 -0.01004182821446564 0 0 1.568090464207774 0.322122055577901 1:0.20460332 2:-0.7061846 3:0.095610252 4:-0.75079163 5:-1 6:0.47581607 7:1 8:-0.73198716 9:-0.3195333 10:-0.88521468 11:0.078295621 12:0.54028964 
-0 -0 -0 -0 -0 -0 -0 -0 -0 -0 0 0.02829959597915865 0 0 1:0.25669217 2:-0.83686276 3:0.11864709 4:0.2495807 5:-1 6:0.38376854 7:0.88214178 8:-0.92912665 9:-0.27005897 10:-0.34710082 11:0.20103016 12:0.46210585 
-0 -0 -0 -5.177108468602309 -0 -0 -0 -0 -0.2431823506037543 -0 0 0 0 0 1:0.13473794 2:-0.76737751 3:0.072234297 4:0.27543252 5:-1 6:0.48925581 7:0.44192088 8:-0.8513212 9:-0.34130936 10:-0.046305608 11:0.15259026 12:0.55963397 
-0.1380500005102659 -0 -0.5993007799982741 -9.117666285844754 -0.274939341236786 -0 -0.5585320923929801 -0.5607942432805082 -3.062905466830067 -0.3652645693075585 1.805365188896195 6.149960812283982 0.8781359510003677 0 1:0.077618145 2:-0.67797322 3:-0.016929595 4:-0.051361174 5:-0.50509332 6:0.5509938 7:0.17301771 8:-0.23369855 9:-0.2591755 10:-0.020363348 11:0.004990979 12:0.54924312 
-0.1635394716116705 -0.01091568028705089 -0 -0 -0 -0.006234100104662421 -0.2433122073273964 -0.2062762018551305 -0 -0.7074671868213799 5.399744841289954 0 2.588720581162042 0.6412699086343068 1:0.28941438 2:-0.71354157 3:-0.17043913 4:-0.21431783 5:-1 6:-0.310282 7:0.28050009 8:-0.38052992 9:-0.22248838 10:-0.16595473 11:-0.14051362 12:0.049922155 
-0.2788567191034563 -0.131739804586292 -0.02379996291872828 -0 -0.07364929013302082 -0.1284196504012654 -0.1461980478453399 -0.2015305739504159 -1.598987198987497 -0.6089323597813183 2.170460444340067 0.2695976266341023 1.085023218124561 0.5164722245877406 1:0.26278133 2:-0.63435954 3:0.16503625 4:0.061336542 5:-1 6:0.63274203 7:0.73682841 8:0.59920759 9:0.11962647 10:-0.33844649 11:-0.7504758 12:0.38835019 
-0 -0 -0 -0 -0 -0 -0 -0 -0.3480016814812842 -0 0 5.829340568121359 0 0 1:0.57171854 2:-0.36088319 3:0.0090468876 4:0.97672261 5:-0.71286931 6:0.8913528 7:1 8:-0.31431027 9:-0.33032395 10:-0.089521954 11:-0.044287157 12:0.77743058 
-0.1471246681110005 -0.08153917154640494 -0 -0 -0.01744911890522601 -0.07483634166218531 -0.06687543155537778 -0.06655276917081987 -0 -0 0 1.780909881942032 0 0.1560822583145759 1:0.66380046 2:-0.30850241 3:-0.023629964 4:1 5:-1 6:0.49689439 7:1 8:-0.165049 9:-0.64415263 10:-0.078800395 11:-0.27466712 12:0.72888817 
-0.7847456087703129 -0.214906123098199 -0.2271994661900968 -2.118623227513034 -0.1939073360245126 -0.2125837832531758 -1.156238478829158 -0.6736346969820459 -2.767556979438762 -2.07701069174117 1.390256189779854 6.965919607894104 1.378664185575146 1.049344841646547 1:-0.27554348 2:0.025235599 3:0.9602376 4:-1 5:-0.42843503 6:0.45209558 7:-0.031932307 8:-0.32488542 9:0.68284681 10:-0.32281106 11:0.098459192 12:-0.019054855 
-0.2645498424658476 -0.1314621280375353 -0.07100640343816199 -0.360418653383389 -0.08905392672067426 -0.1641979541265021 -0.2304240622343676 -0.2372081452380666 -0.1234069174638783 -0.8828776211683465 0.2921180986537957 2.5331030104729 0 0.3084733188624378 1:-0.1646886 2:0.21175472 3:0.88860658 4:0.61306122 5:0.069630391 6:0.59311268 7:1 8:-0.5196459 9:-0.31194609 10:-0.25702432 11:0.4581432 12:0.60143572 
-0.5063099794889148 -0.2261131396138196 -0.2450328212076162 -0.4135240628080359 -0.2145200432132407 -0.2171051490498818 -0.4551551284083796 -0.4231636158340521 -0.5836509336498683 -1.092034480201238 1.022419200320923 0.7553981801681782 1.69664278322305 0.8152437647206087 1:0.065436442 2:-0.37430695 3:-0.50596235 4:0.29710232 5:-0.89919581 6:-1 7:1 8:0.67652493 9:-1 10:-0.40255493 11:-0.7503555 12:0.089692726 
-0 -0 -0 -0 -0 -0 -0 -0 -0 -2.033735628906328 0.08604562883638334 0 0.3082461735856323 0 1:0.36037263 2:-0.29288444 3:-0.14979837 4:0.096417725 5:0.072416351 6:0.50017953 7:1 8:-0.24817772 9:0.28712505 10:-0.49499021 11:0.290467 12:0.22331322 
-0.1232933121277287 -0.06411449456051886 -0.04447113559225496 -0 -0.001130949322441005 -0.04865798909399864 -0.06764631572046714 -0.1034017128342868 -0 -0 0.2692164943120988 5.802564459899822 0 0.1714996252944968 1:1 2:-0.03774614 3:-0.046549521 4:0.99211791 5:-0.60434155 6:-0.19726455 7:1 8:-0.63045465 9:-0.41365008 10:-0.082430885 11:0.2044908 12:0.21697435 
-0.2255256260226549 -0.1275595368028624 -0.1201977524498109 -0 -0.1251801325653732 -0.1252657258048065 -0.1799962969622181 -0.1699981451017319 -0 -0.1462847332218142 0.1843925872964468 3.5199482036647 0.2707329890274952 0.2125630957989733 1:0.28986675 2:-0.19958925 3:-0.75832022 4:0.48872185 5:-0.77606923 6:-1 7:1 8:-0.50426975 9:-0.60094907 10:-0.31429501 11:0.043722625 12:-0.12772872 
-0.3321776010524733 -1.803883474505835 -2.024426247701035 -0.8078910964772984 -2.516108972936923 -2.565162415533855 -0.1357830006833393 -0.6611236441993517 -1.104191773677774 -0.6473154344712448 -0.650564392465215 0.9732383270724871 1.414688301831084 0.8966132092108167 1:-0.47480805 2:-0.37728535 3:0.20700674 4:-0.020523889 5:1 6:0.61191391 7:-0.87544333 8:-0.67460885 9:-0.84449462 10:0.68187595 11:1 12:0.90205644 
-1.019221522782001 -0 -2.074143051151086 -1.002426684167796 -2.041960280900727 -0.5417377065236528 -3.677919712340087 -1.135702957319607 -1.357032124722866 -1.956811363532599 -0.3834424726150604 0.4511632785593034 1.166270282377135 0 1:-0.4403624 2:-0.42957913 3:0.3050197 4:-0.38759651 5:-0.21027096 6:0.29354579 7:-0.76623936 8:-0.45625215 9:-0.86401588 10:0.44113903 11:0.28468318 12:0.73550878 
-0.09533587094920579 -0.1215184594801207 -0.3048206315264407 -1.223579980336264 -0.1091105062247447 -0.09344541712205054 -0 -0 -1.567102089878817 -0.1871278094756853 -0.7727438884097418 2.665598100395551 0.7265924730042952 0.4897443394826312 1:0.44625836 2:-1 3:0.34501134 4:0.68728209 5:-0.99147399 6:0.25566205 7:-0.045796812 8:-0.46622901 9:0.49019592 10:0.4634491 11:-0.083077819 12:-0.023412307 
-1.305463330564765 -0.04308605251662693 -0.01625691966923393 -0.1886200058038276 -0.01064179737615911 -0.04254700703641656 -0.6745692967909563 -1.000311465304083 -4.313106487598791 -25.00183178277191 -0.1198998299754838 0.851660627205297 26.60622392328001 49.17895866457371 1:-0.83784712 2:-0.26648087 3:-0.15114713 4:-1 5:-1 6:-0.84382596 7:-0.17143386 8:0.9729105 9:0.28536578 10:-0.23126541 11:-0.9831347 12:-0.52371746 
-9.71875551154174 -0.09861322234785078 -0.00836383697986562 -0.114650291058221 -0.01135587694129221 -0.07321961669909247 -3.250518701822482 -2.286046687754343 -2.427225088405794 -5.160497479001482 -0.3414650016061486 0.7476914762751744 3.980220679877415 1.451791031475207 1:-0.97149249 2:0.37784928 3:-0.042018343 4:0.13856558 5:-1 6:-0.58419936 7:-0.75850646 8:0.41268516 9:-0.27542445 10:0.6784146 11:-0.6343512 12:-0.073681052 
-0 -0.1192428861145147 -0.0648839579406794 -1.10200641994066 -0 -0.1110077725616772 -0.8166001974210603 -0 -1.636358720617329 -0.2544673689243888 -0.5259498863421307 1.354862879142436 1.092093193658211 0.5115409025691904 1:-0.17954108 2:0.064359795 3:-0.65152927 4:0.65440861 5:-1 6:-1 7:-0.5205514 8:-0.50082334 9:-0.93582461 10:0.75985762 11:-0.065621693 12:0.054726998 
-0.2648227063846227 -0 -0 -0.4620568349580853 -0 -0 -0.6004685406158056 -1.085002369744091 -5.729435244673539 -0 -0 0 0.06132314974474774 0 1:-0.36503648 2:-0.48849759 3:0.047154579 4:0.048314733 5:-1 6:-0.11371825 7:-0.73959272 8:0.13662413 9:-0.39566793 10:0.62443324 11:-0.46248191 12:0.25367347 
-0 -0.07287966756816802 -0.007599052992907309 -0.09093825985218582 -0.002775959450019922 -0.05390928672846517 -0 -0 -0 -0 -0.1760665867720546 0.3151576933654586 2.453126944339086 0 1:-0.29997698 2:-0.53991907 3:0.015434012 4:-0.21645808 5:-1 6:-1 7:-0.67664833 8:1 9:0.10730005 10:0.46117269 11:-1 12:-0.51361568 
-0 -0 -0 -0 -0 -0 -0 -0 -2.55389877056021 -0.03366369987623621 -0.4140886938090222 0.292800326988385 5.897959905646362 5.29636329528141 1:-0.31088802 2:-0.53424099 3:-0.060271447 4:-1 5:-1 6:-0.34703509 7:0.2176213 8:0.37885395 9:-0.042002265 10:-0.48657659 11:-0.61328867 12:-0.068869515 
-0.2303746877128348 -0.1324311950853388 -0 -0.896041283497945 -0.05651358502025831 -0.09208615571338524 -0.2315970986893619 -0.03838389432534187 -1.573861660601358 -1.506802958570499 -0.7363393214151874 2.327858652211093 0.9355925694264473 1.959161695842673 1:-0.34353878 2:-0.17752987 3:0.50232015 4:-1 5:-0.017101271 6:0.81253861 7:-0.43475648 8:1 9:0.63185856 10:-0.058464191 11:-0.52947321 12:0.20932591 
-1.375502419321257 -0 -0 -0 -0 -0 -0 -2.996509876747103 -18.30385357769296 -2.744825008105222 -0 0 7.019990210872305 0 1:-0.59755882 2:-0.42295244 3:0.26826139 4:-1 5:-1 6:-0.016807028 7:-0.53993317 8:0.64178077 9:0.37516589 10:0.010556318 11:-0.77698089 12:-0.11237783 
-0.1190334749113609 -0.06656393577492138 -0 -0 -0 -0.008547862133733757 -0.6852166541261221 -0.04116699575644629 -1.378761489509032 -3.064069092386123 -0.05388156037731634 1.338997896093455 1.011915834785438 1.355901571517445 1:-0.35770112 2:-0.20249048 3:-0.17222583 4:-1 5:-0.18628263 6:-0.86679044 7:-0.41830291 8:0.56257872 9:-0.96400273 10:-0.069261581 11:-0.3381341 12:0.14421583 
-0 -0 -0 -0 -0 -0.007408453354730286 -0 -0 -4.229942615649804 -0 -0 0 0 0 1:-0.25299118 2:-0.80260454 3:-0.11207944 4:-1 5:-1 6:-0.028964899 7:-0.64326772 8:1 9:0.47476571 10:0.078367947 11:-1 12:-0.17341073 
-0.2662569498089701 -0.08888560683482093 -0 -0.2693059045753779 -0.002109292854467934 -0.06567446273150568 -0 -0.019648868475431 -3.582712217107486 -2.967756625578545 -1.491951891254025 1.314020756980112 0.8566933292646577 1.242227835192489 1:-0.074971539 2:-0.475317 3:0.51527361 4:0.17029916 5:-1 6:0.74603298 7:0.31032156 8:0.26560884 9:1 10:-0.0083700837 11:-0.54278485 12:-0.028267483 
-0 -0.01036402971523277 -0 -0 -0 -0 -0 -0 -0.8599570468375539 -1.070194949961408 -0.5164396178439896 1.165033244480979 0 0 1:-0.52938684 2:-0.6092313 3:0.019456864 4:-1 5:-1 6:-0.27658953 7:-0.52357804 8:-0.32580477 9:-0.21564716 10:-0.00017647743 11:-0.17458425 12:0.064945858 
-0 -0 -0 -0 -0 -0 -0 -0 -0.0510643424640093 -0 -0 0 0 0 1:-0.40784713 2:-0.54849393 3:0.0036091547 4:-1 5:-1 6:0.16159955 7:-0.36600681 8:0.52256235 9:0.67653236 10:-0.10358006 11:-0.70275823 12:-0.17728633 
-0.01175917374443898 -0 -0 -0 -0 -0 -0 -0 -0 -0 -0 0 0 0 1:0.31890395 2:-0.48866232 3:-0.47442656 4:-0.20527157 5:-0.038962441 6:-1 7:-0.55857797 8:-0.45407586 9:-0.86781841 10:0.38884342 11:0.36533595 12:0.017674065 
-0 -0 -1.397704340581965 -2.051140245472289 -0.3534289735656651 -0 -0 -0 -0.5767704836393273 -0.303284545986685 -0.005842677471225477 0.3602100490990132 0.02629409572391143 0.3481454526449858 1:0.38419249 2:-0.44548744 3:-0.51818412 4:-0.089081763 5:0.36675664 6:-0.32431994 7:-0.41447232 8:-0.59591923 9:-0.81054738 10:0.34779341 11:0.64786756 12:0.36251132 
-1.261121040232984 -0.04231980515217056 -0 -0.24081928791449 -0 -0 -5.773475142491202 -7.605685641662663 -15.14465684961028 -6.643636833309899 -0 0.1460136974763501 3.87947402064502 3.015685752184413 1:-0.55273915 2:-0.46148 3:-0.032998393 4:-1 5:-1 6:0.13709499 7:-0.61121468 8:-0.13455855 9:-0.3284768 10:0.057333656 11:-0.29364978 12:0.35665155 
-0 -0.01166519371792932 -0 -0.8083257762123822 -0 -0 -0 -0 -0 -0.1470263790627372 -5.363543340874887 0.5069953856079411 1.215245155185392 0 1:0.50635919 2:-0.90857918 3:-0.08048787 4:-0.12565355 5:-1 6:-0.17998995 7:0.50082154 8:-0.068073778 9:0.30785582 10:-0.26969838 11:-0.33504168 12:-0.16652156 
-0 -0.06563345011081039 -0 -0 -0 -0.05627254557148093 -0 -0 -0 -0.3345494437811409 -0 2.064759092304697 0 0 1:0.57622754 2:-0.78885242 3:-0.22153205 4:-0.65744468 5:-1 6:-0.0091232868 7:0.45672108 8:0.266757 9:0.52421152 10:-0.48570105 11:-0.54349967 12:-0.18930851 
-0 -0 -0 -0.5305920466318908 -0 -0 -0 -0.2342367352945418 -1.930062892525237 -0 -0.2471259430354811 0 0 0 1:-0.21074925 2:-0.7643994 3:-0.42323835 4:-0.26693913 5:-1 6:-0.09125945 7:-0.1520825 8:0.30581378 9:-0.24015032 10:0.093683258 11:-0.56781552 12:0.18143942 
-0.3579391582706115 -0 -0.888599893190702 -2.063841168846141 -0.7361784987777533 -0.0134983233657977 -0.8013754914077879 -0.973524373099284 -0 -1.18601670040151 -2.64195580715652 1.394171117832112 1.547790826005129 0 1:-0.22604957 2:-0.71285246 3:-0.41843201 4:-0.057543417 5:-0.093871091 6:0.20244739 7:0.016451937 8:-0.056246211 9:-0.3082524 10:0.079532875 11:0.091370801 12:0.38200341 
-0 -0.05831809762904321 -0.02097851482717546 -0.1611499912169254 -0.02132006057998942 -0.03345011340718033 -0 -0 -0 -0 -0 0.4900564762241868 2.207019400612091 0 1:-0.1381782 2:-0.58475165 3:-0.52515596 4:-1 5:-1 6:-0.46607279 7:-0.0033428622 8:0.98656618 9:0.82763575 10:-0.34157242 11:-0.99163641 12:-0.60893755 
-0.03062866728850671 -0.06568339568370704 -0 -0.494716798950281 -0 -0.005687532243575261 -0 -0 -0 -0.7254720922923392 -1.260440491449536 1.522351977594566 0.8476458709944946 0.2145793313266435 1:0.26631381 2:-0.51104157 3:-0.66505201 4:-0.12220829 5:-0.52340248 6:-1 7:-0.41049031 8:-0.68161514 9:-0.82530574 10:0.32992221 11:0.27508877 12:-0.0054888036 
-0 -0 -0 -0 -0 -0 -0 -0 -2.060400245634237 -0 -0 0.2077031631375365 0 0.2760568758659952 1:-0.32389978 2:-0.61207831 3:-0.097022059 4:-1 5:-1 6:-0.017454958 7:0.34179868 8:0.93256892 9:0.54891056 10:-0.56806599 11:-0.95801895 12:-0.20740257 
-0 -0 -0 -0 -0 -0 -0 -0 -0 -0 -0.7375743213230595 0 0 0 1:-0.29368006 2:-0.77092459 3:0.19022325 4:-1 5:-1 6:0.042747138 7:-0.20040644 8:0.079429481 9:-0.079579554 10:-0.21225263 11:-0.42687384 12:0.16853269 
-0.2278769248636863 -0.1614374898640856 -0 -0.5497669155435235 -0 -0.1222626280506824 -0 -0 -1.059694354825868 -1.104403167868535 -0.6356339216495019 1.096222405735525 1.092580638947896 0.9018802033844898 1:0.39309226 2:-0.056528119 3:-1 4:0.041541343 5:0.95032443 6:-1 7:0.12414003 8:1 9:-0.68118487 10:0.054502722 11:-0.066353559 12:-0.08401254 
-0.2230432550958198 -0.03221138737170501 -0 -0 -0 -0.03169554697919355 -0 -0 -0 -0 -0 0 0 0 1:-0.30284847 2:-0.72818322 3:-0.36574727 4:-1 5:-1 6:-0.4534642 7:0.36450215 8:1 9:0.44898191 10:-0.58296478 11:-1 12:-0.39561222 
-0 -0.03003722710003098 -0 -0.02929453749945955 -0 -0.004103463648277283 -0 -0 -7.120908658461904 -0 -0.2348598157043164 0.1095983804227217 1.582012583605054 0 1:-0.34219434 2:-0.72575496 3:-0.39271618 4:-1 5:-1 6:-0.17804834 7:-0.15836277 8:0.38904514 9:-0.60963855 10:-0.23984311 11:-0.61963347 12:0.33445249 
-0 -0.02688175789253897 -0.09238786228491111 -0 -0.01363419426604496 -0.0005857625948602007 -0 -0 -0.07485356320988544 -0.3173322529454082 -2.093774154894555 -0.2082281184557878 0 0.1505722458196423 1:0.48482009 2:-0.034683336 3:0.89736347 4:0.97676413 5:-0.21241198 6:0.62977718 7:0.66192467 8:-0.42211699 9:0.14852034 10:0.13235365 11:0.26240647 12:0.37095742 
-0.2149401240237284 -0.1480155586009988 -0.1101097823456788 -0 -0.04766971108573365 -0.1230935740627964 -0.1651834025053605 -0.107831379216012 -0.4083648818691225 -0.2604116190483024 -3.530754809789906 -0.9546308776776871 0.2930030243565013 0.3756032771839928 1:0.17641373 2:-0.62571036 3:-0.00082391041 4:0.98197588 5:-1 6:-1 7:0.25357854 8:-0.89795721 9:-0.93465791 10:0.40272475 11:0.18162478 12:0.054091327 
-0.2113016263455177 -0.1436141726943837 -0.09847387212253175 -0 -0.1056632608939582 -0.1387889790537329 -0.08478362187575902 -0.1159102996663473 -1.460233250987978 -0.2235840409841055 -3.777850439269268 -0.2999964493426762 0.06310054745866976 0.3409474442660508 1:0.22969474 2:-0.5396625 3:0.78960435 4:0.97864667 5:-1 6:0.96506364 7:1 8:-0.96378296 9:-0.37210513 10:-0.088635733 11:0.22260638 12:0.84121774 
-0.2330529360412942 -0.0386314537191668 -0.05676328371132035 -2.57524177135863 -0.04966374316326412 -0.02839717601646805 -0.4955887522981212 -0.1672690570010632 -0.05197592770160018 -0.3695541525529236 -1.646813478621866 -0.5278404907458076 0.341418729902474 0.06958944108890974 1:-0.34431193 2:0.45316653 3:0.92102324 4:-0.86570285 5:0.17626503 6:1 7:0.43598051 8:0.022607765 9:-0.024642255 10:-0.56801406 11:0.1715959 12:0.67134725 
-0.5644240882047411 -0.1184885078306054 -0.1058579774845734 -0.6633155735360384 -0.1013956386080652 -0.1090698352036956 -0.4754453385659455 -0.3068227136967307 -0.6359115819767472 -0.4683642850446376 -0.2436924814707042 -1.1048357040382 0.3220000135594875 0.1217674345356075 1:-0.44200118 2:0.80138487 3:-0.10969575 4:-1 5:0.55536661 6:0.61209827 7:-0.12583446 8:1 9:0.35501214 10:-0.26118929 11:-0.25542516 12:0.24861214 
-0.1238246584281508 -0.05138001862997232 -0.272059036168407 -7.652183095924464 -0.210589366425955 -0.05531465340798506 -0 -0.1689311974894901 -3.333796608514234 -0.5726721687441183 -14.14700853602026 -1.320923714233112 0.7904531643838695 0.2594397269406961 1:0.28017656 2:-0.56550193 3:-0.24699826 4:0.58864615 5:-0.57352191 6:0.47045692 7:0.49712003 8:-0.099115336 9:-0.4364341 10:0.061736978 11:-0.11155514 12:0.60100005 
-0.09233577687936584 -0.03833276267172552 -0.3465680657860284 -22.05931219044608 -0.4004895020759548 -0.1202186649575555 -0.3577856496371793 -0.1479626540758021 -1.9937885542996 -0 -6.451840927868838 -0 0 0 1:0.32120165 2:-0.39140834 3:-0.002693173 4:0.47974291 5:-1 6:0.092178317 7:0.034000361 8:-0.61500179 9:-0.78016571 10:0.31549098 11:0.0054632034 12:0.57775481 
-0 -0.02705779537861095 -0 -0 -0 -0 -0 -0 -0.3841452770825289 -0 -22.32491128148796 -0 0.08977777268909722 0 1:0.43750603 2:-0.53172363 3:-0.17915317 4:0.80481964 5:-1 6:-0.1646506 7:0.94366414 8:-0.6938194 9:-0.3008768 10:-0.13173093 11:0.054533245 12:0.17368111 
-0 -0 -0 -1.516296501828079 -0 -0 -0 -0 -0 -0 -3.178355697098872 -0.7301691602407756 0 0 1:0.27652417 2:-0.40128582 3:-0.37812209 4:0.1711722 5:-1 6:-0.48590592 7:0.091068475 8:-0.93213515 9:-0.54138627 10:0.13591334 11:0.20290318 12:0.12593125 
-1.013532424481745 -0.1414108048698132 -0.1387633380844971 -0.09374024732789985 -0.1202485876058944 -0.131887157112679 -0.1704735266341747 -0.245736939004664 -0.9061449938672457 -4.560603216275942 -0.4425549269736175 -1.131609516144951 4.488989733919094 2.614333538274039 1:-0.22862272 2:0.11591396 3:-0.52715995 4:-1 5:-1 6:-1 7:1 8:0.98008184 9:-0.098076024 10:-1 11:-0.98759941 12:-0.40171727 
-0.4610725690395534 -0.06067529358961495 -0.06622429061935491 -0 -0.05211553927698847 -0.05581935842110043 -0.8953790451759051 -0.4734788453148658 -1.245936823077089 -2.058094106852356 -0 -2.077390527331971 0.2170713666375971 0.2884742263345155 1:-0.0014547613 2:0.14199403 3:-0.62320706 4:-1 5:-1 6:-1 7:-0.52468495 8:0.048102577 9:-0.8176559 10:0.00054991865 11:-0.40737042 12:-0.0096567953 
-0.6216428846539703 -0.09082524255074978 -0.07900814692543659 -0.7935709845544189 -0.06839276376345616 -0.08100198916859058 -0.295373312696583 -0.5836260980492209 -0.7991779824122418 -1.203240260862135 -0.2418082905056946 -1.723674564807437 1.453922120201317 6.106748490584515 1:-0.50117012 2:0.51067365 3:0.6015671 4:-1 5:-0.2887357 6:0.24425044 7:-0.1780939 8:1 9:1 10:-0.22689487 11:-0.65950825 12:-0.30752819 
-0.183092855334217 -0.06497573583322475 -0 -0 -0 -0 -0.236167452035048 -0 -0.691962472388344 -0.277344600098835 -0.4695127058364524 -0.0257687748932852 0.5628647041422988 0.4192075723321763 1:-0.26784048 2:0.20966485 3:0.98452461 4:0.30029594 5:-0.18159067 6:0.51366662 7:-0.27066645 8:-0.59008305 9:0.99735678 10:0.43277042 11:0.38173288 12:-0.15614789 
-0.6065110772239182 -0.06653445142744155 -0.07572235093749918 -0 -0.06445105716975014 -0.06287706882349445 -0.03276365345942862 -0.09673054005893665 -2.04013094039985 -1.780909042366495 -0.1879901197367425 -0.3003573176456668 3.213570792359258 0.8017205196108295 1:0.10787141 2:-0.18390221 3:0.61589875 4:-1 5:-1 6:-0.64810304 7:0.68418858 8:-0.026430066 9:0.88116467 10:-0.79275385 11:-0.3609681 12:-0.73940921 
-0.3325637678411759 -0.1058254817475146 -1.036203410080668 -1.394433164988433 -0.5475461255513978 -0.2545936788505764 -0.3801107766380547 -0.4072323368599418 -0.09060895624888862 -0.6919390115068651 -0.3409202141480511 -0.9930458995073813 1.148916812480488 0 1:0.023149577 2:-0.069478262 3:0.69069094 4:0.22544112 5:0.093925804 6:0.67870012 7:-0.33721308 8:-0.43279876 9:0.76486329 10:0.44196246 11:0.4157047 12:0.062372647 
-0.2958209042065071 -0.1416485057827955 -0.2460220449803828 -0.5446351323725638 -0.1628581492730139 -0.1417632626032833 -0.1962793051963996 -0.1866978745347317 -0.8118073969867811 -1.014989030135503 -0.5359575830713337 -1.098333347408223 0 0.3084224480673076 1:-0.059721165 2:0.31893226 3:-0.82903399 4:-0.49343316 5:0.52565754 6:-0.68452942 7:0.60380101 8:-0.35759805 9:-0.61172893 10:-0.50667621 11:0.57556223 12:0.0537158 
-0 -0.02076232081991545 -0 -0 -0 -0.01278200878119982 -0 -0 -0.3979775598452041 -2.556176789888299 -0.8397181099456194 -0.09497492248432531 1.326200295706689 0.2128695019966825 1:-0.20594687 2:0.32281813 3:-0.75640248 4:-0.66155972 5:-0.084380048 6:-1 7:0.71598279 8:-0.17344613 9:-0.87026047 10:-0.65773276 11:0.16888028 12:0.019004613 
-0.1686084430093886 -0.03787828620777876 -0.018562527797541 -0 -0.02325494429156545 -0.03344820130725416 -0.07605719414973802 -0.08344481851578273 -0.1743047672802591 -1.234856352974722 -0.6117914629885086 -0.101885250827307 4.22488858143466 0.7431654548396853 1:-0.15017395 2:0.36167425 3:-0.83474053 4:-0.64683753 5:-1 6:-1 7:0.2850426 8:-0.42067111 9:0.039033994 10:-0.36815417 11:-0.11552264 12:-0.47642117 
-0.1556293408568127 -0 -0.4040061820248005 -4.903858984295905 -0 -0 -0.3951585659426607 -0.2477217721183369 -0.2185302788554252 -0.553290540304172 -4.283906044936496 -2.374535664320356 0.3814492456885077 0.02755276516648599 1:0.12038108 2:-0.48911062 3:0.17176027 4:0.407779 5:-1 6:0.07634215 7:0.0080128463 8:-0.68601018 9:-0.050433561 10:0.29939831 11:0.0496714 12:0.17134948 
-0 -0.06884043734765424 -0.05546943064724219 -0.06189150185327076 -0.05533599464110421 -0.06556647617914052 -0 -0 -1.766655948974088 -0 -0 -2.058918580679969 0 0 1:0.58685038 2:-0.40884542 3:0.16416446 4:-1 5:-1 6:0.34217608 7:0.49133901 8:0.12593563 9:1 10:-0.66619943 11:-0.4558275 12:-0.25302892 
-0.2542655462151435 -0.1342985691077067 -0.1161173367933548 -0 -0.1002088103714671 -0.12388276733846 -0.1978887255002311 -0.2160079280136101 -0.1780525665062604 -0.8045524360182599 -0.4333337419104599 -1.129749988666116 1.505942010907535 0.7474893055535189 1:-0.010042418 2:-0.46736877 3:0.075148102 4:-0.063625315 5:-1 6:-1 7:0.10576187 8:-0.4895259 9:1 10:0.018123353 11:-0.072655221 12:-1 
-0 -0 -0 -0 -0 -0 -0 -0 -0 -0 -0 -0 4.916289987355055 0 1:0.091237448 2:0.30293445 3:-0.87950648 4:-1 5:-1 6:-1 7:0.17209677 8:0.32697391 9:-0.81922569 10:-0.45670186 11:-0.58098934 12:-0.0088015012 
-0 -0 -0 -0 -0 -0 -0 -0 -0 -0 -0.3439638886925137 -0 0 0 1:0.12057906 2:0.30402496 3:-0.9008712 4:-1 5:-1 6:-1 7:0.099803806 8:0.80687305 9:-0.71359456 10:-0.40926076 11:-0.87976357 12:-0.066354238 
-0.08924290211577032 -0.1133140342794707 -0.1045235180466816 -0.1488893203564044 -0.09469264914756782 -0.1049852707271737 -0.1885784672179867 -0.4145100473992516 -0.5456329283233623 -0.5244439459951638 -0.07418416266933353 -0.6506688546291449 0 3.899406806567021 1:-0.029019801 2:0.32868895 3:-0.76444254 4:-1 5:-1 6:-1 7:-0.31499632 8:0.91387779 9:-0.79479618 10:-0.13705486 11:-0.94638228 12:-0.022111831 
-0.3658812961350192 -0.2449236207229974 -0.2373928309072007 -0.4753910728155445 -0.4415457607736859 -0.3460104035801124 -0.3215880229438616 -0.3443593612008423 -0.9661224649705079 -0.6320285182614246 -0.9164808556894971 -0.480355218801111 0.3697661002796474 0.355669228030515 1:-0.57164946 2:0.64006656 3:0.62939056 4:0.3252634 5:0.69661329 6:0.87566747 7:0.491432 8:0.12822796 9:-0.12127697 10:-0.055844391 11:0.35493687 12:0.65480263 
-0.002895977009014179 -0.06828166460393156 -0.005456780361876371 -0.9062832022984152 -0.0196312211880416 -0.05697980837282468 -0.07926228665789686 -0 -2.728617965011032 -0.4608421577103014 -4.361935342649421 -0 0 0 1:-0.22771488 2:-0.068949986 3:0.92695636 4:-1 5:-0.36696486 6:0.71708606 7:0.57668728 8:-0.4982803 9:0.81516576 10:-0.72220785 11:0.23583748 12:0.056328744 
-0.2952135591959609 -0.089066448048609 -0.06943565413221665 -2.089273156493715 -0.0738047441851524 -0.08961212023131079 -0.5453798927410468 -0.4895842611323144 -1.137861839304785 -0.9857622784577366 -2.147064234230439 -0.9428799590300467 1.95345336228789 0.8901923525734411 1:-0.19359942 2:-0.12393179 3:-0.63400756 4:-1 5:-1 6:0.019352332 7:0.21790704 8:-0.60895752 9:-0.56250395 10:-0.48676411 11:0.0017001787 12:0.41863221 
-0.1335306233563241 -0.04095253692446366 -0 -0 -0.008746333916105896 -0.02579525465579443 -0.4008751269343511 -0.3620733643868319 -1.71723879854723 -1.295476706218798 -2.684461750908161 -1.365392102293042 0 0.5322799910608238 1:0.080998286 2:-0.52581967 3:0.49670522 4:-1 5:-1 6:0.6217048 7:-0.24125583 8:-0.27288132 9:0.86157149 10:-0.18544587 11:-0.20753318 12:-0.022038482 
-0.1421274531384979 -0 -0 -0 -0 -0 -0 -0 -2.159956251504018 -1.451811978630959 -1.04272638438837 -0 3.444612589189358 0.3150564005285196 1:0.078650387 2:-0.34475457 3:-0.03343605 4:-1 5:-1 6:0.1412651 7:0.58617222 8:-0.19079806 9:1 10:-0.72843219 11:-0.25863635 12:-0.36484338 
-0.112178591003301 -0.03607439252676429 -0.01992158382880125 -0.8282703967187599 -0.03401613014933205 -0.03780683581892481 -0.1441803287064357 -0.08726796299440572 -3.624389765571729 -0.6051116276131195 -1.606583574471758 -0 0 0 1:-0.29529724 2:0.35466288 3:1 4:-1 5:-1 6:0.43080112 7:0.050700601 8:0.29821135 9:1 10:-0.37703757 11:-0.56308243 12:-0.20370578 
-0 -0.1515666186528976 -0.1038784263719838 -0.06792607016025913 -0.08290716890151119 -0.1339877924761766 -0 -0 -0.6598833624749543 -0 -2.285728987162692 -0 -1.492258487885358 0 1:-0.1129515 2:-0.1696249 3:0.10263716 4:-0.63639319 5:-1 6:0.13007256 7:1 8:-0.12789329 9:-0.5549919 10:-0.83252278 11:-0.29779942 12:0.47615924 
-18.87165869961288 -0 -0 -0.2084447947262353 -0 -0 -0 -0.7056569731342626 -1.197777603015039 -1.284534777998845 -0.2879569933143361 -0.5910520496413297 -0.3805187767367567 0 1:-0.98048738 2:0.36111465 3:-0.1392113 4:0.27365504 5:-0.19694721 6:0.22072645 7:-0.79347508 8:0.43528638 9:-0.56264152 10:0.76358437 11:-0.26399008 12:0.53077938 
-18.87100082311161 -0 -0 -0 -0 -0 -0.3263396314333855 -5.121599406638447 -0.2018813577457906 -0.2576156192094792 -0.1199109055130789 -0 -0.4054484599165151 0 1:-0.99426424 2:0.4370424 3:-0.039215419 4:-0.074787357 5:0.11602381 6:0.25144074 7:-0.98141618 8:0.10456686 9:-0.094041939 10:0.72642518 11:0.091731761 12:0.29255825 
-0 -0.1516343011109406 -0.1642607101390597 -0.4096605838363067 -0.1332241292262757 -0.1417327979297471 -0 -0 -1.300194276871641 -5.871183008894983 -0.4578104876360857 -13.34401439711838 -0.5368176029878844 3.513373598398061 1:-0.66165262 2:-0.5973379 3:-0.089305452 4:-1 5:-1 6:-1 7:-0.28071658 8:1 9:0.62776055 10:-0.15955039 11:-1 12:-0.79718669 
-0 -0.04792621996379689 -0.09069537534538805 -0.2359191519472553 -0 -0 -7.090271601565259 -11.41869202549002 -14.90439990586309 -9.657803118770012 -0.2170712845543254 -5.47408597423975 -0.6823618990385703 10.82134415523583 1:-0.81364408 2:-0.34950333 3:-0.075395202 4:-1 5:-1 6:0.37182708 7:-0.51204651 8:0.25320768 9:-0.39032396 10:-0.0077438534 11:-0.53506417 12:0.52098592 
-0 -0.1187656428217121 -0.1088361444491845 -0.2262117901590674 -0.09940253685500908 -0.1124512235641117 -0 -0 -0.5976097876226373 -2.934261740789337 -0.7899725624471996 -1.686110922370125 -2.021600768579917 0.7602638509169624 1:-0.11065867 2:-0.46459348 3:-0.15235452 4:-0.37320277 5:-1 6:-1 7:1 8:0.98673145 9:0.21845257 10:-0.71129732 11:-0.9917393 12:-0.57417673 
-8.992685474850713 -0 -0.04071425325613189 -0.4461682140563866 -0 -0 -15.23653843195929 -14.24862593377508 -2.437168797096335 -2.149403016790886 -0.2820466199439389 -0.02419508651323522 -0.6542259736232201 0 1:-0.95232406 2:-0.0059082232 3:-0.087197163 4:-0.63050254 5:-0.19224818 6:0.45222199 7:-0.63506541 8:0.10212378 9:-0.66411484 10:0.24317577 11:-0.054321164 12:0.71490265 
-0 -0 -0 -0 -0 -0 -0 -0 -0.5936345473844903 -0 -0.3296110576472357 -3.775123096964573 -0.3188919693349771 4.610670660731104 1:-0.052954869 2:-0.27698837 3:-0.11381135 4:-0.90099685 5:-1 6:0.13606745 7:0.27313906 8:1 9:-0.22307912 10:-0.4774084 11:-1 12:0.29865415 
-15.34089853261993 -0.1800454300602698 -0.4120951198399291 -0.1515179897277042 -2.424854076337161 -1.202576609224277 -11.57868176040725 -5.859737625266353 -0.5263149484563271 -0 -0 -1.213884762313666 -0 0 1:-0.96075916 2:0.10643458 3:-0.043794146 4:-0.01845009 5:0.10190958 6:0.27841834 7:-0.75490773 8:-0.21283839 9:-0.73247005 10:0.6037316 11:0.28258434 12:0.65541752 
-0.7668694024237982 -0.1366744987685915 -0.1401305117388634 -0.5463293309461995 -0.1132627199240865 -0.1253532669275969 -0 -0 -2.923523331611828 -0 -0.6179135593703374 -0.5312788666319795 -1.526695152267412 4.821093216059534 1:-0.91290112 2:0.12761845 3:0.052098612 4:-1 5:-1 6:0.19791209 7:0.44899641 8:1 9:1 10:-0.63841278 11:-1 12:-0.33331721 
-0.2227357869401427 -0 -0 -0 -0 -0 -0 -0 -0 -29.99741878712158 -0 -0 -0.1008399802285073 18.39141482293854 1:-0.96559853 2:0.24413682 3:0.015051404 4:-1 5:-1 6:-0.48053583 7:-0.11893787 8:1 9:0.73164914 10:-0.26571506 11:-1 12:-0.56468881 
-0 -0 -0 -0 -0 -0 -0 -0 -0 -0 -0.2477299449592288 -0 -0 11.20913777112264 1:-0.94152712 2:0.2112068 3:0.1101682 4:-1 5:-1 6:0.16591038 7:0.57040677 8:1 9:0.45042769 10:-0.71808637 11:-1 12:-0.051694887 
-0 -0.1138448589094371 -0.06275462989193165 -0.2735956268007893 -0.0678545381115936 -0.1043348838086594 -0 -0 -1.128108661022836 -6.689246582014679 -0.7298356739619657 -0 -6.022355426396329 1.63198718507397 1:-0.20762328 2:-0.17072176 3:-0.10549543 4:-1 5:-1 6:-0.57518395 7:0.48985554 8:-0.21209581 9:0.89602698 10:-0.66522592 11:-0.24537685 12:-0.70692469 
-0 -0 -0 -0 -0 -0 -1.022210923919078 -0.1821871668716192 -3.31724962745987 -9.026677875682948 -0 -5.883951763708281 -0 4.668545843679942 1:-0.36713987 2:-0.29234439 3:-0.31471919 4:-1 5:-1 6:-0.69391246 7:0.16831859 8:-0.032414943 9:-0.28039834 10:-0.45422248 11:-0.35724205 12:-0.13203048 
-0 -0.100079323435054 -0.1181661258729276 -0.07365448126138596 -0.09115233414457137 -0.1008308957051419 -0 -0 -0 -1.51138816952309 -0.1111433005785513 -0 -0.1217013195594368 0 1:-0.87525779 2:-0.12969693 3:-0.095381398 4:-1 5:-1 6:0.14205211 7:0.75353182 8:1 9:-0.64762343 10:-0.83825923 11:-1 12:0.53329626 
-0 -0.04402014840378567 -0.05680573681832984 -0.2069854460292884 -0.04162842615132886 -0.03538103567108779 -0 -0 -0.4046108863717767 -4.957627685987277 -0.05549548118284781 -1.376564502846693 -1.708950510054349 1.894234796600357 1:-0.89302106 2:0.10975342 3:0.17741567 4:-1 5:-1 6:-0.67346727 7:0.90579395 8:1 9:-0.25902409 10:-0.9381788 11:-1 12:-0.13229765 
-0 -0 -0 -1.59094729668994 -0.0825985839155599 -0 -0.05842356150829738 -0 -0.605002204948212 -1.918473867204763 -1.994988770561952 -1.202103141191512 -0.09745273692001753 0 1:-0.2948831 2:-0.45259488 3:-0.023981622 4:-0.40284327 5:-1 6:0.24307478 7:0.56903748 8:-0.014540524 9:-0.4618267 10:-0.44213753 11:-0.36837026 12:0.48828847 
-0 -0 -0 -0 -0 -0 -1.249657532736793 -7.637353523627036 -5.697477534150619 -35.83053248047673 -0 -16.66003561018308 -0 3.743705846939182 1:-0.93350621 2:-0.011468022 3:0.00094439067 4:-0.94827755 5:-1 6:-0.49425059 7:-0.46673555 8:0.88821045 9:0.20778882 10:-0.013655095 11:-0.93040238 12:-0.2868982 
-0 -0.003992103332244621 -0.3497906825578844 -0.6897121892660527 -0.05269825676137013 -0 -0.3161456031497073 -0 -0.3767126577775298 -1.152115122553175 -2.203565916223684 -0 -0.6133241860692393 0 1:-0.32657752 2:-0.33528286 3:-0.21811883 4:-0.043350838 5:-0.43143788 6:-0.5563443 7:0.57953181 8:-0.1598499 9:-0.48801015 10:-0.28344211 11:-0.0057256582 12:0.057647875 
-0.6282234444612258 -0.07320443581799779 -0.1421423180578423 -0.7842550420495571 -0.03816738478300479 -0 -0.7365114788477215 -0.5813372434271299 -2.166261248395357 -1.712699686731443 -0.9804268553207899 -4.267255777867039 -1.061771637056372 0.6174548084390198 1:-0.11472044 2:-0.17183429 3:-0.19537031 4:0.29634512 5:-0.76084752 6:-0.60407536 7:-0.16064789 8:0.36837795 9:-0.07095744 10:0.35875277 11:-0.49228105 12:-0.19614589 
-0 -0 -0 -0 -0 -0 -0 -0 -0.1794542721092766 -0 -0 -0 -0 0 1:-0.16038289 2:-0.26561191 3:-0.098063188 4:-0.26861419 5:-0.74634351 6:-0.015139236 7:1 8:0.28361264 9:-0.66439331 10:-0.66312384 11:-0.43256485 12:0.45495041 
-0 -0.8192317070353817 -1.477324337810719 -1.23242381656277 -1.031682114244442 -1.207958118997294 -2.633664695168903 -0 -3.22630318126247 -0.7598866532755014 -0.7662519446580924 -1.287373773084395 -1.105537980071616 0 1:-0.91691516 2:0.015376054 3:-0.17774873 4:0.27081596 5:0.10936714 6:0.13976844 7:-0.93090404 8:-0.43500002 9:-0.60089459 10:0.85246223 11:0.42446713 12:0.50656527 
-0 -0.1776180501562692 -0.5155149211794148 -1.017336114681473 -0.306294648297977 -0.1514427302176072 -0.7674956621547439 -0.6465070254098102 -1.502213910625436 -2.993859488184458 -1.622142554312433 -1.453048871153652 -2.857435988677999 0.6666198137465406 1:-0.35187321 2:-0.2296336 3:0.34630192 4:-0.11677038 5:0.021019344 6:0.15936263 7:0.096403877 8:-0.13281576 9:1 10:-0.00021422197 11:0.19404084 12:-0.35477143 
-0 -0.1140536443038919 -0.03613345992257842 -0.1862961505160897 -0.07551108411932786 -0.1051376436982306 -0 -0 -0 -0.86326872197446 -0.325635716903646 -0 -8.918388694912503 0 1:-0.072927833 2:0.03005919 3:-0.72465107 4:-0.90795961 5:-1 6:-1 7:0.43909267 8:0.066886131 9:-0.50802549 10:-0.58951982 11:-0.41906463 12:-0.17835779 
-1.298722219051457 -0 -0 -0 -0 -0 -0 -0 -0.2057687812763617 -2.281950356874972 -0 -5.224418005414034 -0 25.54647609821824 1:-0.84973732 2:-0.34615845 3:0.053031037 4:-1 5:-1 6:-0.73578228 7:0.10823959 8:0.54856178 9:0.52884247 10:-0.41479661 11:-0.71894489 12:-0.59624451 
-0 -0 -0 -0 -0 -0 -0 -0 -0 -0 -0 -1.626256788584449 -0 0 1:-0.86049857 2:-0.32447303 3:0.020853877 4:-1 5:-1 6:-0.69682621 7:-0.22009983 8:1 9:0.67952392 10:-0.19932916 11:-1 12:-0.65666225 
-0 -0 -0 -0 -0.003216837637595668 -0 -0 -4.313557048081296 -0.755590776159152 -0 -0 -0 -0 88.27561576900931 1:-0.92915785 2:0.064496387 3:-0.16011723 4:-1 5:-1 6:0.10858106 7:-0.42385873 8:1 9:-0.055603773 10:-0.065615663 11:-1 12:0.19210861 
-0 -0.1014430411922893 -0.06136836781557362 -0.1295462418328534 -0.03874870659386651 -0.07449470615761276 -0 -0 -0 -0 -0.1278195412122027 -0 -0.4811134046225125 17.30554113486265 1:-0.92293194 2:0.075819611 3:-0.1737452 4:-1 5:-1 6:0.092752187 7:-0.32077729 8:1 9:-0.50945599 10:-0.1332612 11:-1 12:0.43057898 
-0 -0 -0 -0 -0 -0 -0 -0 -0 -3.627191130014328 -0 -0 -0 39.25944256470173 1:-0.87090765 2:-0.088820984 3:-0.16791191 4:-1 5:-1 6:0.19844951 7:0.030013438 8:0.89197056 9:-0.52717335 10:-0.36346196 11:-0.93274334 12:0.49905672 
-2.673876621268534 -0 -0 -0 -0 -0 -0 -0 -0 -0 -0 -0 -0 -0 1:-1 2:0.3324876 3:-0.14280356 4:-1 5:-1 6:-1 7:0.57574705 8:0.93282941 9:0.70827788 10:-0.72159084 11:-0.95818113 12:-0.84105627 
-0.6174405382632902 -0.2937912983211923 -0.3880297213518723 -0.8551067800534039 -0.3333265882594306 -0.2953311133175727 -0.5446922571345587 -0 -1.429834615999255 -1.198488733857273 -0.9990842287824477 -0.9156444242157305 -1.789153612512093 -1.219421681789022 1:-0.38909981 2:0.56089158 3:0.72645098 4:0.27680843 5:-0.63802732 6:0.23418502 7:0.082551575 8:1 9:1 10:0.19015845 11:-0.82671883 12:-0.31312997 
-0.3453183012496657 -0 -0 -0 -0 -0 -3.660674695539389 -10.07944415901407 -4.988801464505118 -29.91964996514384 -0 -0 -0 -0 1:-0.9767241 2:0.15819736 3:-0.1688994 4:-1 5:-1 6:-0.24581168 7:-0.3601109 8:0.62436869 9:-0.31838339 10:-0.10744915 11:-0.76614053 12:0.13805034 
-0 -0 -0 -0 -0 -0 -0 -1.690798994752822 -4.238432667470987 -0.05053797461866558 -0 -3.839936370161431 -0 -60.15149315529557 1:-0.90719297 2:-0.17101457 3:-0.10104103 4:-1 5:-1 6:0.037474946 7:-0.36636222 8:0.75981429 9:-0.26062323 10:-0.10334682 11:-0.85046586 12:0.26423951 
-0.1171561037025238 -0 -0 -0 -0 -0 -0 -0.1238869782796882 -0 -0 -0 -0 -0 -1.913424967597482 1:-0.61065988 2:0.73119189 3:0.27207269 4:-1 5:-1 6:-0.39501402 7:-0.02969648 8:1 9:0.17324683 10:-0.32427829 11:-1 12:-0.21284927 
-0.79485463275647 -0.1859866752087303 -0.243438302683607 -0.6172322754631485 -0.2082128634166453 -0.1879992613268253 -0.3618907915620773 -1.615512820601543 -3.056843040263428 -4.774865511207192 -0.6360799924681481 -0 -5.26956286681562 -3.026187832215913 1:-0.50635191 2:0.65265975 3:0.49702501 4:-1 5:-0.52534759 6:0.082303519 7:-0.59920079 8:1 9:1 10:0.049449734 11:-0.77277753 12:-0.3976577 
-0 -0 -0 -0 -0 -0 -0 -0 -0 -12.63142658723844 -0.0258928950013686 -0 -0 -0 1:-0.88372994 2:-0.018110536 3:-0.092166812 4:-1 5:-1 6:-0.066043344 7:0.10048483 8:1 9:-0.26291315 10:-0.40970767 11:-1 12:0.20787537 
-0 -0 -0 -0 -0 -0 -0 -0 -0 -0 -0 -0 -0 -74.61032435496666 1:-0.92526601 2:0.030633324 3:-0.11031553 4:-1 5:-1 6:0.12654037 7:-0.098093341 8:1 9:-0.17762909 10:-0.27939395 11:-1 12:0.26858869 
-0 -0.2173354180875808 -0.2837895018220604 -0.5573935862722853 -0.2419035532578249 -0.2167740475835993 -0.6215007141474469 -0 -1.655893946661583 -2.535628972248632 -0.5994706895445437 -0 -2.959584196877851 -0 1:-0.42119584 2:0.21919966 3:-0.60761696 4:-1 5:-0.37710309 6:-1 7:-0.36620632 8:1 9:-0.85945181 10:-0.10344913 11:-0.7018109 12:0.013115555 
-0 -0 -0 -0 -0 -0 -0 -0.3447250200754926 -0 -6.341303333583652 -0 -7.35924623671332 -0 -12.55445763784711 1:-0.87957046 2:-0.066592006 3:0.098963485 4:-1 5:-1 6:-0.032588018 7:-0.11107702 8:0.94711598 9:0.6006323 10:-0.27087362 11:-0.96707562 12:-0.24400509 
