svm_type c_svc
kernel_type rbf
gamma 0.5
nr_class 15
total_sv 315
rho -0.423787 -0.228054 0.192817 -0.483347 -0.4613 3.54754 5.12311 1.40331 -0.0311238 -0.114665 0.0896035 0.704341 -0.886426 -5.59544 0.00716208 0.622189 -0.000742827 0.0599908 0.17076 0.302607 0.487126 0.402494 0.385326 0.462324 0.459844 0.462647 0.310376 3.77745 6.22755 0.48844 -0.775386 -0.109831 0.485757 0.353458 0.313268 0.517 0.462703 0.359895 0.220961 -2.38802 -1.18945 -0.930397 -0.609725 0.222967 -0.20506 -1.10657 -0.221107 -0.138957 -0.281096 -0.275181 0.593352 -0.715621 -1.77636e-015 0.583267 0.397791 0.358736 0.375425 0.461297 0.425908 0.293295 0 0.100308 0.466479 0.40678 0.396428 0.443585 0.468594 0.465802 0.294095 -15.646 -1.62984 -0.3958 0.0737734 -0.870686 0.587048 -2.38838 0.167736 -1.73833 -1.5115 0.0212631 1.61923 0.970244 -0.0416122 0.427479 -1.82804 1.75258 -2.79447 -0.716179 0.129423 -2.23884 -1.50253 -1.0713 3.03414 -0.87099 -3.65358 0.118531 9.612 -1.20585 -0.942493 1.56735 1.30714 5.45429 -5.15241 -2.30442 -3.26021
label 1 2 3 4 5 6 7 8 -1 -2 -3 -4 -5 -6 -7
nr_sv 23 4 16 14 17 6 20 23 29 28 26 29 29 27 24
SV
0 0 1.218241920346284 0 0 0 0 0 0 0 0 0 0 0 1:-0.25070387 2:-0.02056153 3:-0.036812124 4:-0.43418973 5:-0.60278281 6:-0.29523764 7:-0.08324206 8:0.32850971 9:0.18661492 10:0.64905233 11:0.068707484 12:0.51814743 
0.4993300242494693 0 0 5.990863452066479 1.570923701867356 0 0 89.62727777576734 0 0 0 0.203789484181816 0 0 1:-0.25080415 2:-0.011862631 3:-0.031608257 4:-0.46014725 5:-0.53921563 6:-0.22541148 7:-0.096855578 8:0.30802731 9:0.26040386 10:0.63670833 11:0.15275706 12:0.51418466 
0 4.674199211636127 0 0 0 0 0 0 0 0 0 0 0 0 1:-0.23824691 2:-0.082095418 3:-0.039303288 4:-0.58544845 5:-0.51283175 6:-0.24383222 7:-0.11703627 8:0.22265113 9:0.33075367 10:0.53158783 11:0.26451711 12:0.42541411 
0 1.758973120545102 3.179370766949216 0 0 0 386.094935916669 0 0 0 0 0 66.94727823023065 0 1:-0.23845228 2:-0.081310969 3:-0.040737002 4:-0.60151015 5:-0.48279759 6:-0.28333878 7:-0.092756854 8:0.2719834 9:0.2766266 10:0.49124671 11:0.24521901 12:0.44003462 
1.074769584644901 0 0 5.727738995182587 2.516406699346041 79.52773929858167 0 0 0 0 3.68881286920195 0 0 0 1:-0.23899999 2:-0.07806622 3:-0.040763526 4:-0.56370567 5:-0.53451976 6:-0.23081356 7:-0.11185978 8:0.25922581 9:0.24503475 10:0.54815411 11:0.20625443 12:0.5241517 
0 0 0 0 0 0 9.693897180865696 0 0 0 0 0 0 0 1:-0.24170157 2:-0.057124032 3:-0.043076101 4:-0.45466959 5:-0.54411654 6:-0.35223091 7:-0.12240416 8:0.47163162 9:0.15686939 10:0.66773457 11:-0.015748166 12:0.4908997 
0 0 0 0 0 0 0 0 3.324677106162324 0 0 7.812223974785589 63.32192530972161 7.058024546100304 1:-0.24990953 2:-0.018989013 3:-0.041078227 4:-0.91097714 5:-0.63475631 6:-0.49635895 7:0.039267691 8:0.48434516 9:0.48246998 10:0.049755166 11:-0.11910148 12:0.021171068 
0 0 2.441486110652562 0 0 31.52082427769357 58.83209747404118 0 11.35018830828696 4.976669069087264 3.585807841148197 0 0 0 1:-0.24869584 2:-0.023023003 3:-0.037829691 4:-0.96915917 5:-0.56825499 6:-0.44470245 7:0.055428281 8:0.43610649 9:0.46390113 10:-0.024587448 11:-0.0043614792 12:0.091396425 
0 0 0 0 0 0 0 0 0 0 0 0 12.81658272137037 0 1:-0.24777096 2:-0.024522068 3:-0.03766086 4:-0.7922031 5:-0.74997749 6:-0.49554445 7:-0.032562343 8:0.33039562 9:0.42062351 10:0.24035925 11:-0.080373114 12:0.083832043 
0 0 0 0 0 0 0 0.06428158027406668 1.166625173968007 0.378974511119123 21.09055865074875 0.8142618351467272 0 0 1:-0.24638523 2:-0.051595398 3:-0.02661564 4:-0.58415338 5:-1 6:-0.59346041 7:-0.089138544 8:0.70250621 9:0.39217786 10:0.50498516 11:-0.70250621 12:0.014361734 
0 0 0.5116164971954726 0 0 0 0 6.235765654457585 3.455859332706288 0 7.915580021961167 1.525976665608492 0 3.672747268950653 1:-0.24823537 2:-0.045539868 3:-0.033342429 4:-0.54554045 5:-1 6:-0.80650816 7:-0.097974283 8:0.55385126 9:0.48354731 10:0.55243383 11:-0.55385126 12:-0.29005547 
0 0 0 0 0 0 56.07211922802985 69.7544714141342 0 0 0 0 0 0 1:-0.24482773 2:-0.046461383 3:-0.040745432 4:-0.53123967 5:-0.80829677 6:-0.26927651 7:-0.06508586 8:0.53403333 9:0.20726298 10:0.53384619 11:-0.3423301 12:0.52346051 
0 0 0 0 0 2.282595898871098 0 0 0 0 0 0 0 0 1:-0.24470768 2:-0.042157482 3:-0.045705383 4:-0.60701965 5:-0.743579 6:-0.26833983 7:-0.10552745 8:0.42848822 9:0.17577083 10:0.4985078 11:-0.17206722 12:0.55588935 
0 0 2.374103206449784 0 0 0 0 0 0 0 0 0 0 0 1:-0.24168993 2:-0.069813483 3:-0.031889357 4:-0.48408478 5:-0.68395454 6:-0.29820015 7:-0.12429053 8:0.18223037 9:0.23586082 10:0.64020575 11:0.13381509 12:0.46593903 
0 0 0 0 0 0 0 33.41508730130345 0 0 0 0 0 0 1:-0.24122089 2:-0.070484678 3:-0.030782496 4:-0.51297928 5:-0.70523856 6:-0.2860162 7:-0.1106827 8:0.2185093 9:0.24338148 10:0.59770342 11:0.076252135 12:0.47060232 
0 0 0 0 0 30.47997405239969 0 0 0 0 0 0 0 0 1:-0.24097134 2:-0.070067241 3:-0.029923761 4:-0.54878095 5:-0.68550542 6:-0.29343573 7:-0.12298267 8:0.1641245 9:0.23556321 10:0.57420172 11:0.15037008 12:0.47100106 
0 0 0 0 0 0 118.379350994631 0 0 0 0 0 0 0 1:-0.23291875 2:-0.092365748 3:-0.045092445 4:-0.75662058 5:-0.71933581 6:-0.3940252 7:-0.07240908 8:0.49235934 9:0.24016453 10:0.3157885 11:-0.21169515 12:0.36581027 
0 0 0 0 0 60.07137496642545 562.1143806755101 0 0 0 11.80987865707918 0 0 0 1:-0.23265583 2:-0.091058279 3:-0.045773253 4:-0.72196655 5:-0.80140627 6:-0.47917446 7:-0.016839058 8:0.46336751 9:0.2579984 10:0.29487251 11:-0.26477378 12:0.26282714 
0 0 0 0 0 7.724270253658117 0 0 16.189988088583 0 26.86122332970813 0 0 0 1:-0.23380792 2:-0.087861729 3:-0.046876362 4:-0.76589551 5:-0.85537192 6:-0.55794384 7:-0.027431437 8:0.51622167 9:0.26652968 10:0.26153592 11:-0.37159359 12:0.17552648 
0 0 0 0 0 0 192.834709386716 0 0 0 0 0 35.64881111251362 0 1:-0.24056544 2:-0.076009792 3:-0.028413515 4:-0.74924401 5:-0.66239689 6:-0.60976465 7:-0.088298145 8:0.49517111 9:0.46420605 10:0.33905414 11:-0.157568 12:-0.073970698 
0.1533082504665831 0.06342427537681758 1.705231986054384 0 0 0 5.553168417346769 69.008748242637 11.253157775692 2.812492879857479 4.069803497017491 17.25390660127168 26.31695307322968 185.7700266172277 1:-0.23135775 2:-0.080956947 3:-0.042838471 4:-1 5:-1 6:-0.76053884 7:0.87361632 8:0.83987549 9:1 10:-0.87361632 11:-0.83987549 12:-0.76053884 
0.4247119044106777 0.6847717654523884 0 0.4639472310011034 0.508952404812826 3.836657946573288 2.440038747027657 17.89277241191959 0 0 0 0 0 4028.440193980367 1:-0.21194361 2:-0.10904187 3:-0.050032138 4:-1 5:-1 6:-1 7:1 8:1 9:1 10:-1 11:-1 12:-1 
0 0 0 0 0 0 0 0 0 0 0 0 188.3970553167677 0 1:-0.24983828 2:-0.022548795 3:-0.044852879 4:-0.51175414 5:-0.63371014 6:-0.4455676 7:-0.10417719 8:0.48878343 9:0.29628127 10:0.59242305 11:-0.12249356 12:0.25815113 
-0 0 0 0 0 0 0 0 0.3467609201662895 0 0 0.4035756520991132 0 0.6314431332368238 1:-0.24412687 2:0.02706257 3:-0.030110782 4:-0.24491944 5:0.025283634 6:-0.03144402 7:-0.24314705 8:0.028849837 9:-0.028445137 10:0.99822761 11:0.9964338 12:0.99700112 
-0 0 0 1.282138972664334 40.8644072127429 0.486439282543306 0 0 0.007783001741968648 0 0 0 0 0 1:-0.23909929 2:-0.059399836 3:-0.025579973 4:-0.24394732 5:-0.07156269 6:-0.029412924 7:-0.23461197 8:-0.05011691 9:-0.020091978 10:0.99066465 11:0.97855422 12:0.99067905 
-0 0 6.641184492566689 0 0 0 0 0 0 0 0 0 0 0.3669452328976139 1:-0.23762524 2:-0.064335519 3:-0.027956446 4:-0.2390769 5:-0.068167188 6:-0.029824991 7:-0.23636716 8:-0.061395737 9:-0.025854012 10:0.99729026 11:0.99322855 12:0.99602902 
-2.15211976377163 6.789491532729461 0 6.547589517435167 30.5022982742962 2.385590054332189 2.609967165847907 2.209990188512009 1.141827626632721 1.587407806472855 2.626533325732946 1.145075122585701 1.783461883084746 0.3275821850256302 1:-0.24110266 2:-0.054530621 3:-0.0041820454 4:-0.24762697 5:-0.064123401 6:-0.018238491 7:-0.23299006 8:-0.046811143 9:0.0023323459 10:0.9853631 11:0.98268774 12:0.97942916 
-0 -1.826753556278137 0 4096 35.06717667545477 0 0 0 0 0 0 0 0 0 1:-0.11037394 2:-0.1517554 3:0.027512967 4:-0.26411422 5:-0.27805935 6:-0.048239282 7:0.017443469 8:0.033924327 9:0.094890482 10:0.71844231 11:0.68801632 12:0.85687024 
-0 -0 0 4096 0 0 0 0 0 0 0 0 0 0 1:-0.10425681 2:-0.15321294 3:-0.054623574 4:-0.26474127 5:-0.34544651 6:-0.13254944 7:0.10988327 8:-0.015573437 9:0.030792192 10:0.62537546 11:0.67012693 12:0.83665836 
-0 -0 0 4096 0 0 0 0 0 0 0 0 0 0 1:-0.12283479 2:-0.13759744 3:-0.049634425 4:-0.26041426 5:-0.37604755 6:-0.13068976 7:0.14428903 8:-0.014163603 9:0.020441563 10:0.59529671 11:0.63811605 12:0.84886868 
-3.503596921326124 -0 47.70237547901629 92.34110149569311 0 9.336387314155775 4.393281119432158 2.468207654138779 1.038469068574276 0 9.142236070626248 0 3.446378486643952 0 1:-0.13052221 2:-0.12970209 3:0.010672551 4:-0.37809086 5:-0.32786729 6:-0.48656277 7:0.083840098 8:0.084647306 9:0.13439151 10:0.53806904 11:0.58748541 12:0.37904572 
-0 -0 174.3077426477917 0 0 0 0 0 0 2.960169046615827 2.068771429095399 0.7218790931471932 0 0 1:-0.014962526 2:-0.14872327 3:-0.0060180894 4:-0.27599889 5:-0.36114443 6:-0.12372451 7:0.2278379 8:0.052513753 9:0.15299394 10:0.49616322 11:0.58634182 12:0.72328155 
-0 -0 0 199.5247174018638 0 0 0 0 0 0 0 0 0 0 1:-0.086140506 2:-0.17491978 3:0.043829481 4:-0.26297523 5:-0.35515357 6:-0.078389256 7:0.065566299 8:0.010106509 9:0.13091583 10:0.67145847 11:0.63473992 12:0.79069491 
-0 -4.962737976451324 0 2983.8900678348 11.52542262662496 0 0 0 0 0 0 0 0 0 1:-0.10505847 2:-0.15792075 3:-0.019809262 4:-0.25351065 5:-0.28465192 6:-0.052452774 7:0.0459788 8:0.0014535035 9:0.040792167 10:0.70051055 11:0.71389458 12:0.90675506 
-0 -0 0 4096 0 0 0 0 0 0 0 0 0 0 1:-0.12672617 2:-0.14164621 3:-0.016387065 4:-0.26891908 5:-0.28461047 6:-0.059185094 7:0.072388507 8:-0.013381073 9:0.045099601 10:0.65869242 11:0.7287706 12:0.89571531 
-0 -0 0 4096 0 0 0 0 0 0 0 0 0 0 1:-0.12347965 2:-0.14280247 3:-0.015111636 4:-0.24760466 5:-0.37698434 6:-0.093110338 7:0.089040192 8:-0.01718543 9:0.014680344 10:0.66335515 11:0.64020109 12:0.89220932 
-0 -0 0 2578.883848854415 0 0 0 0 0 0 0 0 0 0 1:-0.086990035 2:-0.17474864 3:0.0090843786 4:-0.24904241 5:-0.30591935 6:-0.052976093 7:0.043874565 8:-0.0068007678 9:0.12360564 10:0.70708303 11:0.70088142 12:0.82341827 
-0 -0 11.84470194504387 0 0 0 0 2.138745640541317 0.7299682843783836 0 0 0.150174294136449 0.4977062530515087 0 1:-0.10492444 2:-0.15709241 3:-0.011564234 4:-0.25908888 5:-0.48060864 6:-0.11530158 7:0.15028929 8:-0.033215777 9:0.048785951 10:0.59062182 11:0.55260713 12:0.83591247 
-1.730976064353796 -0 29.94076400948748 0 0 0 0 0.6467185343837917 0.7798268903513448 0.5984149777794853 0 2.152327882463938 1.215411867484165 0.8810200543861797 1:-0.09760233 2:-0.15679265 3:-0.016863015 4:-0.2810536 5:-0.40262286 6:-0.44003192 7:0.10350244 8:-0.032883783 9:0.43234642 10:0.61544396 11:0.63026092 12:0.12762166 
-0 -0 0 0 0 0 0 0 0 0 0 0 0 0.3052175253747783 1:-0.063766982 2:-0.17573682 3:-0.043715862 4:-0.24581422 5:-0.31394225 6:-0.099813137 7:0.086144224 8:-0.034838987 9:-0.017080043 10:0.66804156 11:0.72089674 12:0.91726691 
-0 -0 0 3048.975419621616 0 0 0 0 0 0 0 0 0 0 1:-0.11342611 2:-0.14158341 3:-0.050563887 4:-0.25497005 5:-0.39871735 6:-0.15254605 7:0.12216991 8:0.013212743 9:0.071249356 10:0.62286005 11:0.58806991 12:0.77620459 
-1.946795387330514 -0 0 837.0471019780222 2.029660226617498 12.65029001527593 6.438234247282249 1.061569881597621 0 0 2.640536148830915 0 0 0.4204690026157159 1:-0.11433289 2:-0.15054619 3:-0.054466886 4:-0.30377015 5:-0.40543527 6:-0.12158989 7:0.073326365 8:0.0073765761 9:-0.017887224 10:0.62290349 11:0.58718816 12:0.89629733 
-0 -0 0 462.6648237387107 0 0 0 0 0 0 0 0 0 0 1:-0.11180197 2:-0.14742517 3:-0.054483082 4:-0.25322218 5:-0.35915907 6:-0.1249755 7:0.10075694 8:0.0056666905 9:-0.023172439 10:0.64602089 11:0.63517424 12:0.89819694 
-0 -0 -6.898287291324915 0 0 0 0 0 0 0 0 0 0 0 1:0.019178358 2:-0.18337035 3:-0.026454802 4:-0.24394533 5:-0.32185706 6:-0.10537992 7:0.41602724 8:0.013213406 9:0.14871985 10:0.34002743 11:0.66492954 12:0.74590023 
-0 -0 -0 0 0 1.371312283426178 1.759872501301909 3.911110249818328 0 0 0 0 0 0 1:-0.034109859 2:-0.14830673 3:-0.055478104 4:-0.39240482 5:-1 6:-0.14910953 7:0.40128122 8:0.2657396 9:0.10726301 10:0.20631396 11:-0.2657396 12:0.74362746 
-0 -0 -0 0 0 0 0 0 0 1.027291563191347 0 9.152651242841134 0 0 1:-0.09138876 2:-0.11466478 3:-0.036140725 4:-0.30594749 5:-1 6:-0.3632453 7:0.60875154 8:0.11255549 9:0.07525345 10:0.085300969 11:-0.11255549 12:0.56150125 
-0 -0 -0 0 0 0 0 0 0.1567957517197194 11.8279116091239 0 0 0 0 1:-0.029281893 2:-0.071652051 3:-0.13332973 4:-0.37130062 5:-0.35264367 6:-0.39069063 7:0.53767905 8:0.085946195 9:0.18653855 10:0.091020328 11:0.56141014 12:0.42277082 
-0 -0 -0 0 0 6.708748720576987 0 0 0 0 4.59807727522082 0 0 0 1:-0.10709656 2:-0.10023528 3:0.0061086394 4:-0.4861985 5:-0.47052742 6:-0.17340075 7:0.33984612 8:0.12858262 9:0.18944076 10:0.17395538 11:0.40088996 12:0.63715848 
-2.257083473759102 -0.157794438183072 -0 0 0 1.099740418498985 1.128445044090223 7.613635441678117 7.342434659454493 13.42030187411723 5.629360994765204 47.38458269294216 5.963476372908785 2.693824208264293 1:-0.11864337 2:-0.028550437 3:0.089045675 4:-0.99027354 5:-0.46857688 6:-0.11257351 7:0.64824497 8:0.6720945 9:0.75942972 10:-0.63851851 11:-0.14067138 12:0.12799677 
-0 -0 -0 0 0 0 0 4.217231806727131 4.500288922907934 18.28970862887928 0 8.474024083332877 0 0 1:-0.08132231 2:-0.14833694 3:0.006021426 4:-0.66348794 5:-0.93889458 6:-0.16527563 7:0.44234369 8:0.0054210918 9:0.24133817 10:-0.10583163 11:0.055684332 12:0.5933862 
-0 -0 -0 0 0 0 0 0 0 5.005658058004626 0 0 0 0 1:-0.058796612 2:-0.17453324 3:0.0096643623 4:-0.42337916 5:-0.84824262 6:-0.18414079 7:0.41684604 8:0.022437912 9:0.3201459 10:0.1597748 11:0.12931947 12:0.49571332 
-3.769981817397222 -0 -0 0 0 9.466367007766785 3.384283454942904 12.20184357067911 6.003608285947331 0 9.25429581563891 32.5196568215438 8.692546832877309 1.679837354133294 1:-0.040362887 2:-0.15381888 3:-0.078943202 4:-0.40825521 5:-1 6:-0.50687939 7:0.33848256 8:0.19941609 9:0.15788468 10:0.25326223 11:-0.19941609 12:0.33523594 
-0 -0 -0 1.386059144685492 0 0 0 0 0 0 0 0 0 0 1:-0.025971811 2:-0.15385908 3:-0.037363064 4:-0.29109326 5:-0.37955459 6:-0.14621201 7:0.38318817 8:0.028172312 9:0.084590329 10:0.32571857 11:0.5922731 12:0.76919766 
-0 -5.134289224836473 -16.22094498732069 9.257659085080704 5.483746899859812 0 0.2020200840855593 0 0 0 0 0 0 0.4608715425868814 1:0.073558922 2:-0.20679697 3:-0.12684973 4:0.07130177 5:-0.20853671 6:-0.12891948 7:0.07518852 8:-0.20488464 9:-0.12477008 10:0.99611325 11:0.99634794 12:0.9958506 
-0 -0 -85.98731072283698 13.70706303423822 0 0 0 0 0 0 0 0 0 0 1:-0.010125117 2:-0.16541346 3:-0.060512869 4:-0.24587749 5:-0.47630131 6:-0.24948015 7:0.26902003 8:-0.035787042 9:0.066694947 10:0.48510248 11:0.55948573 12:0.6838249 
-2.195922085749125 -0 -29.98982658393173 0 0 3.230470006106474 1.779966786861163 2.532151149891866 1.073089364412895 0 6.064281850975617 0 3.29498151918471 0 1:-0.091819336 2:-0.014415951 3:-0.14200285 4:-0.31011026 5:-0.31554389 6:-0.63004413 7:0.1668734 8:0.14667098 9:0.034869655 10:0.52301635 11:0.53778513 12:0.33508622 
-3.207063110742253 -1.349100829547144 -124.699214495925 11.97926144364961 5.812332611123116 1.244112449235556 4.437662266830868 3.013497553307877 0 0 2.64082462633147 0 1.056032779674052 0 1:-0.10102457 2:-0.08322008 3:0.093141995 4:-0.34247806 5:-0.36544832 6:-0.13973067 7:0.20102415 8:0.057480893 9:0.30664626 10:0.45649778 11:0.57707079 12:0.55362308 
-0 -0 -842.3623089676464 -0 0 0 0 0 0 0 0 0 0 0 1:-0.12414806 2:-0.1465132 3:0.026069198 4:-0.25404065 5:-0.29783073 6:-0.023289655 7:0.035513045 8:-0.0092456649 9:0.10861614 10:0.7104463 11:0.71141493 12:0.8680942 
-0 -0 -4096 -0 0 0 0 0 0 0 0 0 0 0 1:-0.11402096 2:-0.15727714 3:-0.0062189086 4:-0.24575765 5:-0.30981339 6:-0.11229436 7:0.059042257 8:0.046436525 9:0.095606374 10:0.69520009 11:0.64375008 12:0.79209926 
-0 -0 -1925.734216364876 -0 0 0 0 0 0 0 0 0 0 0 1:-0.10816741 2:-0.16026942 3:-0.01366181 4:-0.27856498 5:-0.28361609 6:-0.067953302 7:0.070856766 8:-0.02511171 9:0.098512846 10:0.65057826 11:0.74149562 12:0.83353385 
-0 -0 -2767.725588467178 -0 0 0 0 0 0 0 0 0 0 0 1:-0.12353895 2:-0.14121951 3:-0.035312443 4:-0.3110164 5:-0.36439396 6:-0.086950462 7:0.050242132 8:0.015816079 9:0.076607838 10:0.63874147 11:0.61978996 12:0.8364417 
-12.18254967825017 -0 -0 -4.406997708173797 0 27.55749475677447 53.73179605431704 12.5576222961772 1.778396111329203 0.5148577581617162 8.642769099999395 1.964868802088227 4.997297282273637 0.9667126696775842 1:-0.16267652 2:-0.11340503 3:0.015495609 4:-0.35566435 5:-0.34457457 6:-0.20537717 7:0.00028763645 8:0.25936153 9:0.12699028 10:0.64404802 11:0.3960639 12:0.66763255 
-0 -0 -0 -0 18.83447446367111 0 0 0 0 0 0 0 0 0 1:-0.16812327 2:-0.099621844 3:0.0069335049 4:-0.35507459 5:-0.2915063 6:-0.11082179 7:-0.0090073063 8:0.077855945 9:0.15206414 10:0.65393271 11:0.63063776 12:0.73711408 
-0 -7.829728490099501 -0 -0 85.24906532947381 0 0 0 0 0 0 0 0 0 1:-0.17835225 2:-0.095862334 3:-0.010482445 4:-0.25581896 5:-0.28232546 6:-0.046479787 7:0.029121718 8:0.001512851 9:0.030922971 10:0.71505932 11:0.71616169 12:0.92259724 
-0 -0 -0 -0 0 0 0 0 0 0 0 0 0 0.01737917734697219 1:-0.19372135 2:-0.087031557 3:-0.013873075 4:-0.25697035 5:-0.31188324 6:-0.059564658 7:0.061658619 8:-0.024228891 9:0.018245884 10:0.68137103 11:0.71234565 12:0.92218946 
-0 -0 -3682.963882152511 -0 0 0 0 0 0 0 0 0 0 0 1:-0.13663627 2:-0.13056233 3:0.010756656 4:-0.27806154 5:-0.29812704 6:-0.04952392 7:0.039147262 8:0.085083311 9:0.070023377 10:0.68279119 11:0.61678965 12:0.8804527 
-0 -0 -22.46856498756834 -0 0 2.590104158946961 0 0 0 0.907115955984665 0 0 0 0 1:-0.11641936 2:-0.14685192 3:-0.018361281 4:-0.41676564 5:-0.3241477 6:-0.10309576 7:0.066356681 8:0.007141455 9:0.1023194 10:0.51687768 11:0.66871085 12:0.79458485 
-0 -0 -0 -8.025568905205114 0 8.72494182999394 0 0 0.5117523620674948 0.8793657642543622 7.72172235491368 0.418084327483833 0 0 1:-0.16451184 2:-0.11124723 3:-0.0097791885 4:-0.39709179 5:-0.32709493 6:-0.15505086 7:0.07210138 8:-0.0099486063 9:0.14015077 10:0.53080682 11:0.68285368 12:0.70479838 
-0 -0 -4096 -21.21869370504244 0 0 0 0 0 0 0 0 0 0.4890323626222898 1:-0.088514411 2:-0.16313784 3:-0.039713852 4:-0.24643859 5:-0.32538234 6:-0.13017129 7:0.12478191 8:-0.057762029 9:0.011051888 10:0.6287795 11:0.73237969 12:0.85877682 
-0 -0 -4096 -0 0 0 0 0 0 0 0 0 0 0 1:-0.10132286 2:-0.15685366 3:-0.022584545 4:-0.24648481 5:-0.34553515 6:-0.062545823 7:0.093086477 8:-0.042030179 9:0.04209075 10:0.66042871 11:0.69649503 12:0.89536343 
-0 -0 -4096 -0 0 0 0 0 0 0 0 0 0 0 1:-0.10566281 2:-0.15404106 3:-0.024976675 4:-0.24791736 5:-0.30764152 6:-0.070283813 7:0.090253247 8:-0.036360786 9:0.027827571 10:0.6618294 11:0.72871926 12:0.90188862 
-0 -0 -962.0725199853429 -0 0 0 0 0 0 0 0 0 0 0 1:-0.11484531 2:-0.15140964 3:-0.0055047358 4:-0.26547386 5:-0.35818763 6:-0.053475805 7:0.081932949 8:-0.04343731 9:0.089983787 10:0.65259319 11:0.68524968 12:0.85654041 
-0 -0 -0 -2.678782389232684 0 2.303381315250391 0 0 0 0.4754716500099439 0 0 0 0 1:-0.15578106 2:-0.10398741 3:-0.047805672 4:-0.25472136 5:-0.46051924 6:-0.17578946 7:0.10311187 8:0.0083788042 9:0.0064004528 10:0.64216677 11:0.53110196 12:0.81781008 
-0 -0 -4096 -0 0 0 0 0 0 0 0 0 0 0 1:-0.13715462 2:-0.1205783 3:-0.057566531 4:-0.2551318 5:-0.42443745 6:-0.17550823 7:0.11785393 8:0.0073631668 9:-0.013335364 10:0.62701427 11:0.56819939 12:0.83782714 
-0 -47.72544048664792 -0 -0 -0 0 0 0 0 0 0 0 0 0.5738127437630095 1:-0.24317179 2:-0.021475672 3:-0.021607164 4:-0.2708778 5:-0.11436566 6:-0.047377188 7:-0.21214597 8:0.025334085 9:0.0081719038 10:0.94126817 11:0.86030026 12:0.94445091 
-0 -0 -0 -0 -0 0 0 0 0 0 0 0.1004351099228525 0 0 1:-0.24182815 2:-0.022695805 3:-0.022639899 4:-0.2646184 5:-0.13615513 6:-0.11087318 7:-0.20542675 8:0.026311584 9:0.031932643 10:0.94080835 11:0.83753328 12:0.85719417 
-0 -23.64126500039118 -0 -0 -0 0 0 0 0 0 0 0 0 0 1:-0.23538745 2:-0.062771982 3:-0.026643302 4:-0.25341115 5:-0.15712134 6:-0.078902785 7:-0.18408575 8:-0.02609543 9:-0.013971285 10:0.93067459 11:0.86897409 12:0.9350685 
-4.596282806026223 -0 -23.68100447137047 -2.676648288094036 -46.20079401270809 11.0146634882098 8.774606088390071 5.240348768613467 1.805684919172322 1.920828582307662 3.912769643847554 1.729158102442488 2.658915160338101 0.8190863918357041 1:-0.23054961 2:-0.039599583 3:-0.023299338 4:-0.3105675 5:-0.39605089 6:-0.050943467 7:-0.07378771 8:0.020378391 9:0.064005828 10:0.76322021 11:0.58357071 12:0.88505071 
-0 -0 -24.94125505732676 -6.18338550899653 -48.40660326724852 0 0 0 0 0 0 0 0 0 1:-0.22736635 2:-0.083475051 3:-0.021236834 4:-0.29516476 5:-0.19540814 6:-0.074764879 7:-0.075984307 8:-0.012149664 9:0.028592945 10:0.78081955 11:0.81674152 12:0.89664218 
-0 -0 -0 -2.436045713892362 -9.476142513188327 0 0 0 0 0.1339815562672206 1.407006943394038 0 0 0 1:-0.23755471 2:-0.024492399 3:-0.040083936 4:-0.27438952 5:-0.23976498 6:-0.1244129 7:-0.051736373 8:0.036030168 9:0.0076232455 10:0.77734685 11:0.72420485 12:0.86796386 
-31.20377498447004 -0 -0 -0.9825640733804854 -0.01149990320015996 -0 0 6.12645336783563 0 0.5445863881079902 2.182403153977128 6.788922905569704 0 0 1:-0.24411867 2:-0.049148377 3:0.0061016629 4:-0.73516369 5:-0.74255589 6:-0.19919863 7:0.037227519 8:0.15522176 9:0.72210653 10:0.22760879 11:0.10222234 12:0.07869484 
-13.70087575453374 -0 -0 -0 -0 -0 0 0 3.808945565860499 2.626957236645375 0 0 17.30144266706125 0.7212503236512744 1:-0.24378897 2:-0.045710564 3:0.0097911969 4:-0.92326791 5:-0.52142049 6:-0.13893338 7:0.087108391 8:0.34918458 9:0.58176992 10:-0.010376301 11:0.12939493 12:0.2792967 
-0 -0 -0 -0 -0 -0 584.7578522657472 0 0 0 0 0 0 0 1:-0.22517173 2:-0.10300833 3:-0.025910333 4:-0.55802259 5:-0.62110588 6:-0.2237641 7:-0.0068165989 8:0.22546624 9:0.081148863 10:0.44879401 11:0.15342788 12:0.69508703 
-36.961586785133 -0 -0 -0 -0 -0 553.6922277779572 0 0 0 0.8647667777022093 0 0 0 1:-0.22869795 2:-0.099267541 3:-0.021122276 4:-0.69965457 5:-0.64232544 6:-0.29553816 7:-0.052901348 8:0.16409283 9:0.235851 10:0.35324678 11:0.19358173 12:0.46861084 
-0 -0 -0 -0 -0 -0 0 40.04222454206426 0 0 0 0 0 0 1:-0.23695626 2:-0.10124731 3:-0.055937744 4:-0.44873384 5:-0.58128813 6:-0.22993782 7:-0.021089031 8:0.25021562 9:0.095592532 10:0.57235519 11:0.16849625 12:0.67446965 
-0 -2.616153955081681 -21.54861512432575 -5.121989910876416 -39.62222439572673 -11.0146634882098 0 0 0 0 13.54848526439254 0 0 0 1:-0.23543243 2:-0.093580053 3:-0.05186448 4:-0.49396297 5:-0.41564525 6:-0.24070965 7:-0.0383243 8:0.13845296 9:0.059992454 10:0.54436133 11:0.44590179 12:0.6992979 
-62.6110284360608 -0 -0 -0 -1.542197762038875 -0 1268.390583640394 54.01102427299159 0 0 0.4954730994507012 0 18.65469575759983 0 1:-0.23382484 2:-0.097537098 3:-0.054064633 4:-0.47744487 5:-0.48359417 6:-0.22502914 7:-0.060634926 8:0.34970071 9:0.098066057 10:0.58319005 11:0.16670512 12:0.6769048 
-0 -0 -0 -0 -0 -0 842.744625237831 0 0 0 40.58404847166819 0 0 0 1:-0.22436628 2:-0.11880356 3:-0.0099857713 4:-0.63904397 5:-0.46822967 6:-0.17128788 7:-0.0053099937 8:0.20638026 9:0.21036661 10:0.36626603 11:0.32539007 12:0.61834551 
-0 -0 -0 -11.59924288575519 -0 -0 265.1089934770433 2.885193343319664 17.04961881008584 3.688755398176543 62.3569820977179 3.248490726848027 48.85070583402857 0 1:-0.22729794 2:-0.1163162 3:-0.017447433 4:-0.62049122 5:-0.6594128 6:-0.3015117 7:0.22351073 8:0.36465745 9:0.19096045 10:0.15599805 11:-0.024070248 12:0.50752785 
-0 -0 -0 -0 -0 -0 1159.327252452227 80.24754280630675 134.4836733924578 0.574163476013192 38.74758230575748 0 0 1.781559855608034 1:-0.23479592 2:-0.08539718 3:-0.038410991 4:-0.99143706 5:-0.98656481 6:-0.37262559 7:0.016156715 8:0.40250511 9:0.28474624 10:-0.0075937757 11:-0.38906992 12:0.34262817 
-0 -0 -0 -0 -0 -0 0 0 39.85823156076278 0 3.524761627464722 0 0 0 1:-0.23697481 2:-0.087242127 3:-0.039026627 4:-1 5:-1 6:-0.58630809 7:-0.022766159 8:0.2476918 9:0.30616268 10:0.022766159 11:-0.2476918 12:0.10752923 
-0 -0 -0 -0 -0 -0 0 29.4493129578752 0 0 0 0 0 0 1:-0.23498384 2:-0.092518405 3:-0.03076054 4:-0.51775165 5:-0.86486983 6:-0.19956374 7:-0.035702279 8:0.10543425 9:0.11982563 10:0.51795063 11:0.029695921 12:0.68061063 
-0 -0 -0 -0 -0 -0 0 0 10.78462722262796 0 62.81038797731733 0 0 0 1:-0.23522052 2:-0.10782378 3:-0.040202995 4:-0.88390511 5:-0.55051664 6:-0.41381741 7:0.016560905 8:0.21289633 9:0.11659657 10:0.09953399 11:0.23658704 12:0.46958602 
-0 -0 -0 -0 -0 -0 37.5970039345296 0 0 0 0 0 0 0 1:-0.21054828 2:-0.12641511 3:-0.064378014 4:-0.42128217 5:-0.63695505 6:-0.33841036 7:-0.016071671 8:0.094100202 9:0.11059947 10:0.59478951 11:0.26894475 12:0.55099017 
-4.329215108559725 -0 -0 -0 -0 -0 0 0 0 0 0 0 0 0 1:-0.21058355 2:-0.12670526 3:-0.061741666 4:-0.41654038 5:-0.76076288 6:-0.4055002 7:-0.018865795 8:0.085153697 9:0.12303103 10:0.60232541 11:0.15408343 12:0.47146877 
-0 -0 -0 -5.004343957863862 -0 -0 0 0 0 0 6.702398061401953 0 0 0 1:-0.21339105 2:-0.12323015 3:-0.063097141 4:-0.44517386 5:-1 6:-0.62965664 7:-0.011958951 8:0.093987651 9:0.093637659 10:0.56678509 11:-0.093987651 12:0.2767057 
-0 -0 -0 -0 -0 -0 197.3603255241299 0 0 0 0 0 0 0 1:-0.22239469 2:-0.12650218 3:-0.027318216 4:-0.8533799 5:-0.73079808 6:-0.26193295 7:-0.0016519913 8:0.31548518 9:0.11227986 10:0.14827209 11:-0.046283262 12:0.6257872 
-0 -0.2558753817938134 -0.4380622051059631 -0.4126100577350145 -0 -0 50.56498230482495 23.08434897656174 1.720792461069506 0.4383972889858406 34.5223976899618 6.262478559235786 0 2.728274898743928 1:-0.23992737 2:-0.070372484 3:-0.055975907 4:-0.76453249 5:-1 6:-0.82376558 7:-0.010309611 8:0.57635502 9:0.21150449 10:0.24577713 11:-0.57635502 12:-0.035270072 
-64.27706923247918 -0 -0 -0 -0 -0 39.0507346456295 0 0 0 22.87579970688035 0 33.33172304716795 0 1:-0.24014638 2:-0.070478812 3:-0.056434593 4:-0.76573463 5:-0.83348774 6:-0.6462465 7:-0.039439386 8:0.44477785 9:0.11711499 10:0.27370476 11:-0.27826559 12:0.23663851 
-2.359886392966445 -0 -0 -0 -0 -0 0 48.49463842460518 22.00098741535043 0 0 0 11.97522677346577 0 1:-0.23818477 2:-0.072086102 3:-0.05602714 4:-0.83370088 5:-0.92517465 6:-0.61077422 7:-0.0015568517 8:0.59632989 9:0.12002608 10:0.16785597 11:-0.52150454 12:0.2691997 
-48.40619256714979 -0 -0 -0 -0 -0 -0 38.08032640757463 0 0 0 0 0 0 1:-0.2491737 2:-0.043596512 3:-0.0056631639 4:-0.94416065 5:-1 6:-0.39265129 7:-0.063310483 8:0.44486275 9:0.37846069 10:0.11914984 11:-0.44486275 12:0.22888802 
-0 -0 -0 -2.162121788291946 -0 -0 -2702.502214535909 0 0 0.3376894747907144 41.90919315982389 0 0 0 1:-0.22665538 2:-0.10575662 3:-0.019286684 4:-0.63436372 5:-0.5693964 6:-0.25655889 7:-0.0047331403 8:0.26609418 9:0.15626827 10:0.37036942 11:0.16450941 12:0.58717284 
-95.40810858477677 -0 -0 -0 -0 -0 -0 0 0 0 0 0 0 0 1:-0.22728429 2:-0.10904337 3:-0.022317472 4:-0.54796279 5:-0.42798053 6:-0.22944056 7:-0.095473939 8:0.36402589 9:0.18957654 10:0.54751115 11:0.20799358 12:0.5809829 
-5.087398246306593 -0 -0 -0 -0 -0 -0 0 0 0 0 0 0 0 1:-0.22748889 2:-0.10723925 3:-0.047161255 4:-0.80542553 5:-1 6:-0.39512211 7:-0.044274497 8:0.53857061 9:0.26412228 10:0.23884897 11:-0.53857061 12:0.34075561 
-0 -0 -0 -0 -0 -0 -0 197.9744037461404 30.4978826519414 0 0 0 0 0 1:-0.22491901 2:-0.10923266 3:-0.046876539 4:-0.74182445 5:-1 6:-0.41615722 7:0.028338398 8:0.5128991 9:0.26761799 10:0.22983715 11:-0.5128991 12:0.31622478 
-54.45071705636489 -2.190048888154025 -10.31771650689639 -5.83514692444682 -53.73179605431704 -8.656287061180251 -909.9455566018239 106.7269522419412 0 0.534179338498246 0 1.41977320632407 0 0.2389227215594149 1:-0.22475561 2:-0.11014446 3:-0.015376422 4:-0.42885221 5:-0.44824012 6:-0.18275525 7:-0.05886034 8:0.26337281 9:0.12129422 10:0.63000813 11:0.28838706 12:0.69595053 
-0 -0 -0 -0 -0 -0 -14.8243459203262 150.0060434844071 0 0 0 0 0 0 1:-0.22644662 2:-0.10604344 3:-0.018057989 4:-0.54652947 5:-0.73025205 6:-0.22915506 7:-0.066416207 8:0.3766691 9:0.16862784 10:0.51988674 11:-0.10692115 12:0.60221709 
-0 -0 -0 -0 -0 -0 -37.14478339990735 0 0 0 0 0 0 0 1:-0.2254824 2:-0.11436496 3:-0.019081822 4:-0.49223481 5:-0.72120546 6:-0.24607649 7:-0.0070801701 8:0.51009909 9:0.20495944 10:0.51484536 11:-0.23130455 12:0.54896407 
-0 -0 -0 -0.4124535043603091 -0 -0 -0 173.3150488783413 396.8917042178492 0.4340506197182157 23.52891823318543 0 44.18766817780949 3.297931540871463 1:-0.23626745 2:-0.082170762 3:-0.025412733 4:-1 5:-1 6:-0.32001507 7:0.066410191 8:0.58165895 9:0.2048252 10:-0.066410191 11:-0.58165895 12:0.47515974 
-0 -0 -0 -0 -0 -0 -674.1955461386294 0 0 0 0 0 0 0 1:-0.24047941 2:-0.083342841 3:-0.023033723 4:-1 5:-1 6:-0.26707112 7:-0.0043136035 8:0.40206668 9:0.17903456 10:0.0043136035 11:-0.40206668 12:0.55389432 
-0 -0 -0 -0 -0 -0 -279.4823667301653 0 833.894217854741 0 31.15153806954907 4.235304189667014 0 0 1:-0.23680201 2:-0.085553096 3:-0.026293317 4:-1 5:-0.97290344 6:-0.54520333 7:0.032932627 8:0.46765682 9:0.35645192 10:-0.032932627 11:-0.44056026 12:0.098344746 
-0 -0 -0 -0 -0 -0 -0 0 0 0 0 0 59.85733002591306 0 1:-0.2341509 2:-0.08392917 3:-0.032926507 4:-0.60917288 5:-0.50221564 6:-0.25740281 7:0.012090775 8:0.42453057 9:0.17274199 10:0.37873634 11:0.073253787 12:0.5698552 
-85.06138401934487 -0 -0 -0 -0 -0 -4.932748562189218 0 0 0 0 0 0 0 1:-0.23512361 2:-0.087523316 3:-0.031422036 4:-0.62486609 5:-0.74723208 6:-0.21526105 7:-0.059400177 8:0.63495638 9:0.1838584 10:0.43453409 11:-0.38218846 12:0.60088055 
-151.9164653116792 -0 -0 -0.4349033803657103 -0 -0 -0 0 13.96045154060689 0.7471816503794238 9.153597981773357 0.8825652874707711 0 0 1:-0.23430506 2:-0.088026775 3:-0.032169479 4:-0.77290691 5:-0.43287631 6:-0.4054358 7:-0.043603856 8:0.35119049 9:0.3156231 10:0.27069695 11:0.21593319 12:0.2789411 
-28.73317324213932 -0 -0 -0 -0 -0 -0 0 0 0 0 0 9.619982287357722 0 1:-0.23037008 2:-0.10082354 3:-0.033307698 4:-0.63050777 5:-0.51793482 6:-0.33679827 7:-0.01860174 8:0.33598798 9:0.19415167 10:0.38809397 11:0.1460772 12:0.46905006 
-123.9961332955939 -0 -0 -0 -0 -0 -0 0 0 0 0 0 0 0 1:-0.2286503 2:-0.1018882 3:-0.032268218 4:-0.70419873 5:-0.66601551 6:-0.35672771 7:-0.030882794 8:0.53685762 9:0.41026347 10:0.32668406 11:-0.20287313 12:0.23300883 
-128.7970284953164 -0 -0 -0 -0 -0 -0 0 0 0 0 0 140.9253150153087 0 1:-0.22955533 2:-0.10445724 3:-0.038235023 4:-0.68415894 5:-0.54808069 6:-0.44843071 7:-0.054582885 8:0.49025309 9:0.40412707 10:0.37042395 11:-0.038333784 12:0.14744222 
-0 -0 -0 -2.002463501711739 -0 -0 -375.5670193713613 197.6411583232259 0 2.88097809363823 68.61376602646047 0.1489569323340081 0 0 1:-0.21236364 2:-0.12813993 3:-0.056656321 4:-0.91276624 5:-1 6:-0.44530673 7:0.050813122 8:0.3805105 9:0.40701983 10:0.036420643 11:-0.3805105 12:0.14767344 
-0 -0 -0 -1.160285836473104 -0 -0 -0 0 0 0 0 0 64.81622769815074 0 1:-0.21061379 2:-0.13233812 3:-0.055891936 4:-0.52412575 5:-0.76402408 6:-0.45607144 7:-0.0042481632 8:0.41358007 9:0.36473401 10:0.48012242 11:-0.17760415 12:0.17919455 
-119.4437653326484 -0 -0 -0 -0 -0 -0 0 0 0 2.801260662614046 1.357060243932924 0 0 1:-0.21830904 2:-0.11996537 3:-0.031280385 4:-0.67498346 5:-0.61514077 6:-0.65237678 7:-0.036738336 8:0.47456111 9:0.36050935 10:0.36175488 11:-0.089701886 12:-0.012886128 
-486.9999465321646 -0 -0 -0 -0 -0 -0 0 0 0 0 0 0 0 1:-0.21964157 2:-0.12443588 3:-0.033058401 4:-0.68868398 5:-0.80670186 6:-0.4626868 7:-0.040171567 8:0.34775446 9:0.26526472 10:0.35148759 11:-0.15445631 12:0.27204848 
-0 -0.4199182776938822 -0.513798859818014 -0.6848752024629974 -0 -0.1183190272098203 -0 67.54495935240266 222.9501998457907 0.9369091352426073 30.67785453550545 7.586651743647545 36.10925359334019 24.15271233521072 1:-0.23795379 2:-0.063634869 3:-0.052474353 4:-1 5:-1 6:-0.66461141 7:0.058338092 8:0.81777177 9:0.55526061 10:-0.058338092 11:-0.81777177 12:-0.21987203 
-63.71438533735287 -0 -0 -0 -0 -0 -0 0 0 0 0 0 0 0 1:-0.23836031 2:-0.063790997 3:-0.053350893 4:-1 5:-1 6:-0.6275512 7:-0.032200981 8:0.70629927 9:0.38193557 10:0.032200981 11:-0.70629927 12:-0.0094867768 
-2.072726224872759 -0 -0 -0 -0 -0 -0 -0 56.747447322128 0 271.7068832696126 0 0 0.7212644655032733 1:-0.24061238 2:-0.0026674304 3:0.018769229 4:-1 5:-1 6:-0.41457455 7:0.10361719 8:0.78962875 9:1 10:-0.10361719 11:-0.78962875 12:-0.41457455 
-0 -0 -0 -0 -0 -0 -0 -0 0 0 0 25.79755298170458 0 0 1:-0.22785737 2:-0.027398315 3:0.062539401 4:-1 5:-1 6:-0.32650926 7:0.12932283 8:0.37372454 9:0.91099828 10:-0.12932283 11:-0.37372454 12:-0.23750753 
-78.6836926025434 -0.3173958175264152 -0.351727122897192 -0 -0.3141097256224313 -0.4247481899689924 -0 -0 39.57218211617909 3.29336519021864 15.35141027395451 14.62854013969704 35.7036416110846 49.46144325161874 1:-0.2196855 2:-0.065790688 3:0.051445545 4:-1 5:-1 6:-0.77702743 7:1 8:0.91404182 9:1 10:-1 11:-0.91404182 12:-0.77702743 
-0 -0 -0 -0 -0 -0 -0 -0 31.36800108787763 14.99153302325261 0 10.56867798642005 1.349565843103362 0.4831377922789651 1:-0.14026555 2:0.076149019 3:-0.021265497 4:-0.43959867 5:-0.72096947 6:-0.19637644 7:0.43834459 8:0.7572125 9:0.57266985 10:0.12205674 11:-0.47818197 12:0.23095372 
-122.9018300225936 -0 -0 -0 -0 -0 -0 -0 0 0 0 0 39.58673026001148 0 1:-0.23143063 2:-0.084471818 3:0.0043044481 4:-0.4167492 5:-0.6378576 6:-0.20019334 7:-0.059337822 8:0.34724595 9:0.27577409 10:0.64258863 11:0.014896448 12:0.52403257 
-36.50485488697868 -1.517040923468846 -4.910597602072412 -6.224405387959133 -11.77436018772137 -4.714940260576072 -125.1324605522357 -219.8697782653838 2.313728296923727 1.350581710842243 0 0 0 0 1:-0.23748594 2:-0.076129576 3:-0.015938242 4:-0.44474897 5:-0.59446307 6:-0.16327135 7:-0.077922303 8:0.29433678 9:0.17175358 10:0.63317333 11:0.11120015 12:0.66497507 
-23.93591650319839 -0 -0 -0 -0 -0 -0 -0 0 0 0 0 7.462578623069414 0 1:-0.24127424 2:-0.033855475 3:-0.024776583 4:-0.58225413 5:-1 6:-0.30679666 7:0.06958031 8:0.53578709 9:0.25730073 10:0.34816556 11:-0.53578709 12:0.4359026 
-0 -0 -0 -0 -0 -0 -0 -0 0 0 47.31978775850992 11.03754538937647 20.36763657236032 1.010950359354754 1:-0.062167813 2:-0.095366315 3:-0.037250331 4:-0.54970076 5:-1 6:-0.39946916 7:0.65063952 8:0.5792409 9:0.23582704 10:-0.20034028 11:-0.5792409 12:0.3647038 
-0 -0 -0 -9.110820077280424 -0 -0 -0 -0 0 486.1731265079977 5.944058230904411 38.63588071769652 0 0 1:-0.041526044 2:-0.10686948 3:-0.022346769 4:-0.52104809 5:-1 6:-0.27041831 7:0.86742374 8:0.30667835 9:0.23655655 10:-0.38847183 11:-0.30667835 12:0.49302514 
-0 -0.0951971936408505 -0 -0.03237628132339798 -0 -0 -0 -0 0 0 116.9444850689734 14.07303850503329 41.946787076742 92.84372729490858 1:-0.2202069 2:-0.10104842 3:0.022699629 4:-1 5:-1 6:-0.31368995 7:0.28786181 8:1 9:0.95867473 10:-0.28786181 11:-1 12:-0.27236467 
-0 -0 -0 -0 -0 -0 -0 -0 7.486878364687748 5.376015884072985 140.211174068253 0 0 0 1:-0.065060192 2:-0.12156751 3:0.06552031 4:-0.53888367 5:-1 6:-0.31831081 7:0.32394969 8:0.74080025 9:0.6810604 10:0.13716664 11:-0.74080025 12:0.00062878251 
-0 -0.04520060668579258 -0 -0 -0 -0 -0 -0 0 169.0759420436408 0 2.591525414637682 0 2.827589662284505 1:-0.087669453 2:-0.026141286 3:0.081177777 4:-0.47565433 5:-0.9683745 6:-0.36906602 7:1 8:0.25369588 9:0.33621367 10:-0.47565433 11:-0.22207038 12:0.29472032 
-3.484967356125114 -0 -0 -0 -0 -0 -11.90969984728735 -308.8364390427559 1054.938030866285 0 0 0 0 0 1:-0.24593917 2:-0.028713426 3:-0.033041114 4:-0.95889233 5:-1 6:-0.34656376 7:0.01435378 8:0.5265037 9:0.38795922 10:0.026753886 11:-0.5265037 12:0.26547702 
-0 -0.1369366235176484 -0.05243564050471646 -0 -0 -0.1006603180684035 -0 -0 7.78766108134126 0 0 0 8.84628183016039 3.325766999248338 1:-0.12167557 2:-0.030484835 3:0.1003791 4:-0.95251579 5:-1 6:-0.38255829 7:0.93846426 8:0.38636594 9:1 10:-0.89098005 11:-0.38636594 12:-0.38255829 
-0 -0 -0 -0 -0 -0 -0 -0 401.6912125440011 0 0 0 0 0 1:-0.23054979 2:-0.068279736 3:-0.0071825813 4:-1 5:-1 6:-0.44778668 7:0.10604054 8:0.47906046 9:0.72973232 10:-0.10604054 11:-0.47906046 12:-0.177519 
-0 -0 -0 -2.345618712026599 -0 -0 -0 -0 39.74057156783713 28.84645562984303 26.322123888177 88.50208668858176 1.364878625917038 0.0351585428170098 1:-0.076123434 2:-0.10466903 3:0.076904957 4:-1 5:-1 6:-0.33479246 7:0.85487985 8:0.45566358 9:1 10:-0.85487985 11:-0.45566358 12:-0.33479246 
-2.063379401922484 -0 -1.000481345187189 -4.786820175308697 -0.4691523828333962 -0 -3.590423528212093 -0 10.45498531037886 24.15007548221177 24.45815082603113 22.85800775687099 16.23084353495618 0 1:-0.09333851 2:-0.026241106 3:-0.15094192 4:-0.43387125 5:-0.63435819 6:-1 7:0.51973013 8:0.3551808 9:0.10029837 10:0.046398617 11:0.010461014 12:-0.10029837 
-8.90516432376805 -0.09821902367245596 -0 -0 -0 -0 -0 -19.90083907871719 630.7654331620636 0 0 0 0 0 1:-0.24421112 2:-0.035754834 3:-0.03371159 4:-1 5:-1 6:-1 7:0.13783833 8:0.67740566 9:0.52049206 10:-0.13783833 11:-0.67740566 12:-0.52049206 
-0 -0 -0 -0 -0 -0 -0 -0 510.5934403053253 0 0 57.1716372987241 45.5543643189474 21.32078013447044 1:-0.23808523 2:-0.042584535 3:-0.028334749 4:-1 5:-1 6:-1 7:0.39365617 8:0.55263836 9:0.33673395 10:-0.39365617 11:-0.55263836 12:-0.33673395 
-0 -0 -0 -0 -0 -0 -0 -0 0 0 0 0 284.3888106691587 27.96422714202077 1:-0.24300788 2:-0.032063385 3:-0.018982301 4:-1 5:-1 6:-0.38905837 7:0.24962174 8:0.56968233 9:0.29381912 10:-0.24962174 11:-0.56968233 12:0.31712251 
-6.035258935740814 -0 -0 -0.08172016210846424 -0 -0 -0 -42.64235503192521 0 0.4388149221469415 84.71799898977571 0 0 0 1:-0.20818361 2:-0.118578 3:-0.030229107 4:-0.50344914 5:-1 6:-0.54932054 7:0.067204473 8:0.38877111 9:0.44179773 10:0.42934639 11:-0.38877111 12:0.0088817282 
-0 -0 -0 -0 -0 -0 -0 -43.30159069076191 1241.106341205815 2.12167569363714 1516.233287399171 8.667486454594304 257.3970168719309 86.63267524334066 1:-0.1725813 2:-0.15151154 3:-0.050219509 4:-1 5:-1 6:-0.63793428 7:0.22312227 8:0.7939891 9:0.52611557 10:-0.22312227 11:-0.7939891 12:-0.16404985 
-1.410614122749873 -0 -0 -1.04167834661351 -0 -0 -62.94249085177831 -295.7530766424994 0 0 0 0 0 0 1:-0.21916408 2:-0.084970611 3:-0.053937475 4:-0.79816048 5:-1 6:-0.41362456 7:0.092547837 8:0.44928385 9:0.19519594 10:0.10929168 11:-0.44928385 12:0.39117951 
-0 -0 -0 -0 -0 -0 -0 -0 0 0 130.040474563412 0 0 0 1:-0.13360144 2:-0.036512915 3:0.11248134 4:-0.93547937 5:-1 6:-0.32867643 7:0.24506157 8:0.58042856 9:0.62108268 10:-0.18054093 11:-0.58042856 12:0.050240882 
-0 -0 -0 -9.866030629482205 -0 -0 -2.229401175493407 -0 0 13.29628230431552 0 2.882732243951299 6.952924535606053 0 1:-0.21526677 2:-0.09835702 3:-0.0040247911 4:-0.63637983 5:-0.75823077 6:-0.20517585 7:0.13352264 8:0.31886715 9:0.4447013 10:0.23009754 11:-0.077097913 12:0.35012285 
-0 -0 -0 -0 -0 -0 -0 -0 946.4155818639333 0 553.2371939837415 0 0 0 1:-0.22109888 2:-0.090547227 3:-0.0065665059 4:-1 5:-1 6:-0.48815959 7:0.14064112 8:0.44190924 9:0.30815526 10:-0.14064112 11:-0.44190924 12:0.20368515 
-0 -0 -0 -0 -0 -0 -0 -0 1352.544650976768 0 0 0 0 0 1:-0.23734233 2:-0.050247377 3:-0.043972661 4:-0.95751498 5:-1 6:-0.7298861 7:0.18979124 8:0.70006358 9:0.30589187 10:-0.14730622 11:-0.70006358 12:-0.035777967 
-0 -0 -0 -0 -0 -0 -78.53626273655321 -0.9848136819900285 239.8902852728028 0 0 0 0 0 1:-0.23615319 2:-0.053524551 3:-0.054669296 4:-0.92072147 5:-1 6:-0.59841901 7:0.093476085 8:0.4828086 9:0.23566182 10:-0.01419756 11:-0.4828086 12:0.16591917 
-0 -0 -0 -0 -0 -0 -0 -0 4.615520924559713 0 0 0 99.65403974154513 0 1:-0.24173807 2:-0.042537636 3:-0.046461973 4:-1 5:-1 6:-0.32670402 7:0.093188653 8:0.61265526 9:0.44749053 10:-0.093188653 11:-0.61265526 12:0.22580545 
-0 -0 -0 -1.434322063290682 -0 -0 -0 -0 -174.8902984131233 4.896532575984478 127.1986749197152 30.2472995873296 42.67455004672249 29.920118597739 1:-0.14303288 2:-0.074206696 3:0.014719857 4:-0.81214495 5:-1 6:-0.25822702 7:0.39618774 8:0.68852855 9:0.86831413 10:-0.20833269 11:-0.68852855 12:-0.12654115 
-0 -0.1541103650660417 -0.1746403917232033 -5.704363886237926 -0.06664114429245321 -0.07968683177405933 -0 -0 -0 46.44646037040618 0 26.65123432818326 11.28494401846383 17.64776759873405 1:-0.12993813 2:-0.077413654 3:-0.0075575733 4:-0.62190014 5:-0.64801377 6:-0.25288982 7:0.86491304 8:0.28975458 9:0.85816981 10:-0.48681318 11:0.062231649 12:-0.11105964 
-0 -0 -0 -0 -0 -0 -118.1783696868578 -857.4377811297438 -1245.452896760137 0 0 0 63.53211940842999 0 1:-0.23934896 2:-0.047133286 3:-0.050509849 4:-1 5:-1 6:-0.4440563 7:0.039350262 8:0.54892226 9:0.258178 10:-0.039350262 11:-0.54892226 12:0.2977657 
-0 -0 -0 -0 -0 -0 -0 -0 -0 0 142.5883246888859 0 129.1578944905697 1002.710817900467 1:-0.23343501 2:-0.097754123 3:-0.046467989 4:-1 5:-1 6:-1 7:0.36795705 8:1 9:0.47578182 10:-0.36795705 11:-1 12:-0.47578182 
-5.168577901299039 -0.1779241655812116 -0.09044099216155979 -0 -0.117880098195097 -0.1630884278648028 -0 -0 -0 0 0.03349491433785903 62.96248377044847 83.28702044335591 56.13038460667175 1:-0.094512558 2:-0.12202386 3:-0.05145625 4:-1 5:-1 6:-1 7:1 8:0.5082015 9:0.78166112 10:-1 11:-0.5082015 12:-0.78166112 
-20.51230178968573 -0 -0 -0 -0 -0 -23.00780569059229 -210.040263882076 -0 0 15.506258133686 0 0 0 1:-0.22749974 2:-0.11067752 3:-0.044668445 4:-0.92062124 5:-0.85628693 6:-0.55231937 7:0.081055585 8:0.3196119 9:0.39105747 10:-0.0016768213 11:-0.17589883 12:0.056623159 
-0 -0 -0 -0.0639651830231416 -0 -0 -0 -0 -244.777341243995 5.293123355875497 0 0 270.2217914174809 662.5474033768414 1:-0.23828157 2:-0.06188778 3:-0.039666226 4:-1 5:-1 6:-0.51141103 7:0.44328685 8:0.74701103 9:0.41847086 10:-0.44328685 11:-0.74701103 12:0.070118109 
-0 -0 -0 -0 -0 -0 -0 -0 -0 0 121.3754953039884 0 152.0402373531622 816.6382672529383 1:-0.23517414 2:-0.078050465 3:-0.030659855 4:-1 5:-1 6:-1 7:0.55796034 8:1 9:0.56702862 10:-0.55796034 11:-1 12:-0.56702862 
-9.30066429655955 -0.06813163490764893 -0 -0 -0 -0 -0 -23.80392155823699 -66.02207267231469 0 54.83694940839206 0 104.5651966629003 30.08054676452704 1:-0.24059964 2:-0.062749022 3:-0.050330573 4:-0.70032641 5:-1 6:-0.66311824 7:0.054692581 8:0.86567834 9:0.43780047 10:0.24498101 11:-0.86567834 12:-0.10091871 
-0 -0 -0 -0 -0 -0 -0 -0 -0 0 0 0 54.99275591346352 0 1:-0.167569 2:-0.083038301 3:-0.046741232 4:-1 5:-1 6:-1 7:0.7066459 8:0.82182244 9:0.39569172 10:-0.7066459 11:-0.82182244 12:-0.39569172 
-2.616148894471614 -0 -0 -0 -0 -0 -0 -0 -0 0 0 0 0 0 1:-0.24662879 2:-0.03553198 3:-0.025594751 4:-1 5:-1 6:-0.49531303 7:0.33044317 8:0.81417079 9:1 10:-0.33044317 11:-0.81417079 12:-0.49531303 
-0 -0 -0 -0 -0 -0 -0 -0 -147.0655921385995 8.507598322226221 17.02619107664495 67.51227453990796 101.3280657990448 150.3481986647244 1:-0.17043027 2:-0.074276626 3:-0.014775941 4:-1 5:-1 6:-0.67943653 7:0.45568943 8:0.43115728 9:0.83150403 10:-0.45568943 11:-0.43115728 12:-0.51094056 
-0 -0 -0 -0 -0 -0 -0 -0 -0 0 0 0 0 164.9724300957219 1:-0.22146979 2:-0.087806905 3:-0.0724256 4:-1 5:-0.92991725 6:-0.6065699 7:0.18637996 8:0.50647135 9:0.62980488 10:-0.18637996 11:-0.4363886 12:-0.23637478 
-0 -0 -0 -0 -0 -0 -0 -0 -0 2.92895386516423 0 24.20651190182599 12.8381365002761 0 1:-0.15740474 2:-0.059384133 3:-0.11201989 4:-0.97560388 5:-0.55712741 6:-1 7:0.63201562 8:0.59302636 9:0.17559434 10:-0.6076195 11:-0.15015377 12:-0.17559434 
-0 -0 -0 -0 -0 -0 -0 -0 -828.4056063150124 0 0 0 0 0 1:-0.21896053 2:-0.094045543 3:-0.07340426 4:-1 5:-1 6:-1 7:0.36560179 8:0.68298904 9:0.32974658 10:-0.36560179 11:-0.68298904 12:-0.32974658 
-0 -0.009999011604465088 -0.1044553492195889 -0 -0.1017574868387241 -0.15276789824662 -0 -0 -0 0 253.5802796254313 0 1070.743986158891 602.5253669996755 1:-0.24744487 2:-0.042802995 3:-0.036685525 4:-1 5:-1 6:-0.80614741 7:0.23754475 8:1 9:0.83182983 10:-0.23754475 11:-1 12:-0.63797724 
-0 -0.1655911581000796 -0 -0 -0 -0 -0 -67.14714009853107 -189.9678683369468 0 0 0 0 0 1:-0.2452078 2:-0.054766798 3:-0.052777246 4:-1 5:-1 6:-0.8831549 7:0.12646054 8:0.96155326 9:0.72697891 10:-0.12646054 11:-0.96155326 12:-0.61013381 
-0 -0 -0 -0 -0 -0 -0 -0 -48.96847152779115 0 0 0 0 0 1:-0.24055999 2:-0.038122946 3:-0.075929621 4:-1 5:-1 6:-0.63408855 7:0.27166091 8:0.85688041 9:0.8746636 10:-0.27166091 11:-0.85688041 12:-0.50875215 
-0 -0 -0 -0 -0 -0 -0 -0 -147.4767141556 0 0 0 0 150.8364896197985 1:-0.23508409 2:-0.06411432 3:-0.047755884 4:-1 5:-1 6:-1 7:0.20506868 8:0.95780073 9:0.3737665 10:-0.20506868 11:-0.95780073 12:-0.3737665 
-3.094756172961864 -0.2412949557428208 -0.226668634543189 -0.8333228595949234 -0.2314294188796113 -0.2338735347475281 -0 -0 -0 0 0 115.2519721100182 30.96424043799778 0 1:-0.22581014 2:-0.092446259 3:-0.06296896 4:-1 5:-1 6:-1 7:0.98576963 8:1 9:0.48206396 10:-0.98576963 11:-1 12:-0.48206396 
-0 -0 -0 -0 -0 -0 -0 -0 -0 2.731553362597059 0 0 0 0 1:-0.14134967 2:-0.057426445 3:-0.11141038 4:-1 5:-0.72628775 6:-1 7:1 8:0.74451003 9:0.45382763 10:-1 11:-0.47079777 12:-0.45382763 
-5.348047174538322 -0.5412080454001988 -1.494444234656576 -9.939683977444137 -1.513600474802549 -1.056027702269548 -88.5207010507647 -0 -194.8713032865182 8.67438830898533 67.86850005381588 16.51785540962193 4.220037444253957 0 1:-0.20179892 2:-0.11866474 3:-0.07599393 4:-0.88021656 5:-0.85840325 6:-0.42298932 7:0.12797928 8:0.20536878 9:0.22303559 10:-0.0081958416 11:-0.063772032 12:0.35397508 
-0 -0 -0 -0 -0 -0 -0 -0 -157.0391037027597 0 7.889825999096105 0 0 2.799725011650351 1:-0.20404397 2:-0.10525782 3:-0.091335544 4:-0.69941269 5:-1 6:-0.64276267 7:0.4676896 8:0.85564928 9:0.39546723 10:-0.1671023 11:-0.85564928 12:-0.0382299 
-0 -0 -0 -0 -0 -0 -0 -339.7653494423415 -2746.242462367426 0 232.341774903178 0 75.25019160724453 0 1:-0.23573476 2:-0.081397982 3:-0.00055209718 4:-0.99095277 5:-1 6:-0.57499852 7:0.10759005 8:0.59669176 9:0.45655999 10:-0.098542826 11:-0.59669176 12:-0.031558509 
-0 -0 -0 -0 -0 -0 -0 -0 -0 0 0 0 172.2232448392861 0 1:-0.21698383 2:-0.10999071 3:-0.050652343 4:-0.84631765 5:-1 6:-0.71041337 7:0.61291109 8:0.86350609 9:0.44681306 10:-0.45922874 11:-0.86350609 12:-0.15722642 
-0 -0 -0 -0 -0 -0 -0 -0 -386.852221348685 0 51.91838804535178 10.78587248422453 52.03313581734257 62.13194508092207 1:-0.16154535 2:-0.044438387 3:-0.097429923 4:-1 5:-0.94011158 6:-1 7:0.18721926 8:0.65033809 9:0.41329386 10:-0.18721926 11:-0.59044967 12:-0.41329386 
-0 -0 -0 -0.0587260651266684 -0 -0 -0 -0 -0 0 0 0 0 0 1:-0.18213839 2:-0.029463486 3:-0.08647854 4:-1 5:-0.68374348 6:-1 7:0.75070299 8:0.92084167 9:0.19591675 10:-0.75070299 11:-0.60458515 12:-0.19591675 
-0.6999995558824599 -0.1381122121385128 -0.4576146409998878 -1.041832949724899 -0.2588398503882626 -0.1202405242697639 -0 -0 -0 0.7174075530422371 2.652679745960783 12.44601305447047 12.05838539475721 0 1:-0.19136199 2:-0.03242749 3:-0.077927285 4:-0.42656116 5:-0.46919685 6:-1 7:0.7393107 8:0.57432528 9:0.15161719 10:-0.16587186 11:-0.043522125 12:-0.15161719 
-0 -0 -0 -0 -0 -0 -0 -0 -0 -0 0 17.69298182040057 0 0 1:-0.027821464 2:-0.10986797 3:0.025450546 4:-0.31793688 5:-0.40578641 6:-0.10497007 7:1 8:0.34774184 9:0.39115929 10:-0.31793688 11:0.24647176 12:0.50387064 
-0.3580676177322287 -0.8410938879097599 -2.628782390012011 -8.377057589887734 -1.905697830838437 -1.39812832389298 -0 -0.3489898890530658 -0 -0 0.7498788886709795 0 0 0 1:-0.069368252 2:-0.15349209 3:-0.038226584 4:-0.32815658 5:-0.54493795 6:-0.11673466 7:0.76542831 8:0.05227491 9:0.19970268 10:-0.093584889 11:0.40278714 12:0.68356266 
-0.06947266202446234 -0 -0.1400062844042604 -3.488126986520342 -0 -0 -0.01039809418320421 -0.2987124569226165 -0 -2.074381324394893 0 434.5975463352753 0 0 1:-0.052945241 2:-0.16773275 3:-0.039311307 4:-0.24615886 5:-1 6:-0.58978614 7:0.70339382 8:0.089278831 9:0.26681624 10:0.050447324 11:-0.089278831 12:0.14339762 
-0 -0 -0 -0 -0 -0 -0 -0 -32.34566088694449 -0 0 314.112251451191 0 0 1:-0.024855073 2:-0.11635545 3:-0.05518829 4:-0.52525794 5:-1 6:-0.57762503 7:0.70143828 8:0.36880344 9:0.35642314 10:-0.22669622 11:-0.36880344 12:0.065951829 
-0 -0 -0 -0 -0 -0 -0 -0 -258.9849923880576 -0 0 0 0 0 1:-0.039506206 2:-0.12992381 3:-0.027101802 4:-0.40285852 5:-1 6:-0.30231455 7:0.8801757 8:0.30588364 9:0.15415126 10:-0.28303422 11:-0.30588364 12:0.54353418 
-0 -0 -0 -0 -0 -0 -0 -0 -129.6274033072908 -0 0 0 0.6339614152271277 0 1:-0.017835116 2:-0.14868393 3:-0.051975003 4:-0.59032509 5:-1 6:-0.27737158 7:1 8:0.17830189 9:0.16112944 10:-0.59032509 11:-0.17830189 12:0.56149898 
-0 -0 -0 -0 -0 -0 -0 -0 -0 -0 0 0 5.248530981115576 0 1:-0.089864378 2:-0.076419416 3:-0.10079123 4:-0.36668314 5:-0.72891627 6:-0.81776093 7:1 8:0.26713095 9:0.15890149 10:-0.36668314 11:0.0039527769 12:0.023337582 
-0.06738909901516378 -0.2089950442366845 -0.03379820437782543 -4.117321601176974 -0.09021502457976349 -0.1548684143233547 -0 -0 -14.21677062157739 -0 0 0 17.69871707551309 1.208364500196282 1:-0.12973727 2:-0.014267102 3:0.074006093 4:-0.98528759 5:-1 6:-0.1981201 7:1 8:0.69432543 9:0.57570842 10:-0.98528759 11:-0.69432543 12:0.22617148 
-0 -0 -0 -0 -0 -0 -0 -0 -159.6967649376338 -0 0 0 5.813207219149733 0 1:-0.12451342 2:-0.015178575 3:0.063169774 4:-0.49299988 5:-0.89144744 6:-0.32561808 7:1 8:0.46730864 9:0.41795544 10:-0.49299988 11:-0.35875607 12:0.25642648 
-0 -0 -0 -0 -0 -0 -0 -0 -0 -0.01952380098179071 0 301.5889842266977 0 0 1:-0.086222036 2:-0.14057107 3:-0.044392314 4:-0.48653115 5:-1 6:-0.48055483 7:0.93117453 8:0.20373438 9:0.65849452 10:-0.41770569 11:-0.20373438 12:-0.13904934 
-0 -0.02272779577096833 -0 -0 -0 -0 -0 -0 -8.712976737606727 -7.675425281234166 0 0 0 0 1:-0.049516222 2:-0.13466505 3:0.019789953 4:-0.70256459 5:-1 6:-0.34286163 7:1 8:0.29436372 9:0.92861617 10:-0.70256459 11:-0.29436372 12:-0.2714778 
-1.194849835277631 -0 -0.2505319530030639 -21.34582326649119 -0.2892012806780701 -0 -3.132629293497568 -0.1695566313362398 -0 -7.108120227642045 0 0 0 0 1:-0.054441199 2:-0.11608902 3:-0.02910585 4:-0.61482303 5:-0.64217324 6:-0.1279414 7:0.55352921 8:0.053369142 9:0.41674468 10:-0.16835224 11:0.30445761 12:0.45531392 
-0 -0 -0 -0 -0 -0 -0 -0 -15.77204492646007 -0 0 27.79585024119036 4.553112573511678 0 1:-0.058392981 2:-0.1583505 3:-0.010636727 4:-0.90572747 5:-1 6:-0.30860567 7:1 8:0.17927615 9:0.39480727 10:-0.90572747 11:-0.17927615 12:0.29658706 
-0 -0 -0 -0 -0 -0 -0 -0 -0 -0 0 22.65162691823273 0 0 1:-0.050157758 2:-0.17631102 3:-0.007247723 4:-0.52729862 5:-1 6:-0.35172834 7:0.936479 8:0.085859136 9:0.41749825 10:-0.46377762 11:-0.085859136 12:0.2307734 
-0 -0 -0 -0 -0 -0 -0 -0 -69.02714211060433 -0 0 0 0 0 1:-0.069438666 2:-0.16676091 3:-0.01407562 4:-0.51751918 5:-1 6:-0.30230938 7:0.69921704 8:0.12272823 9:0.38481987 10:-0.21673622 11:-0.12272823 12:0.31287076 
-0.420797918477085 -0 -0 -7.208632398509564 -0 -0 -3.733074717073212 -2.724609279108684 -50.15468441126331 -0 2.492547677472441 258.1612730486155 15.0815462782537 0 1:-0.078469278 2:-0.1544731 3:-0.027192734 4:-0.64114132 5:-0.8196741 6:-0.2733862 7:0.55428867 8:0.41539647 9:0.42248987 10:-0.19542999 11:-0.23507056 12:0.30412394 
-0.194323133627726 -0 -0 -0 -0 -0 -0 -0.4110911929419377 -3.436878633370214 -5.945817844349599 43.79053623164734 0 39.7402148793113 8.235539097117057 1:-0.044984391 2:-0.15936165 3:-0.049775889 4:-0.70278586 5:-1 6:-0.67687903 7:0.6122175 8:0.34581858 9:0.4393161 10:-0.31500337 11:-0.34581858 12:-0.11619513 
-0 -0 -0 -0 -0 -0 -0 -0 -0 -0 10.06623079505704 0 3.891274923229988 1.439596570965458 1:-0.049195064 2:-0.1484788 3:-0.00042330325 4:-0.59850912 5:-1 6:-0.23508856 7:0.85816074 8:0.81007949 9:0.59622417 10:-0.45666986 11:-0.81007949 12:0.16868727 
-0 -0 -0 -0 -0 -0 -0 -0 -0 -0 0 192.5470441988579 0 0 1:-0.00035223425 2:-0.11089197 3:-0.023371271 4:-0.25222956 5:-0.89538007 6:-0.11393389 7:1 8:0.37719759 9:0.38985823 10:-0.25222956 11:-0.27257766 12:0.49620788 
-0 -0 -0 -0 -0 -0 -0 -0 -0 -0 0 119.8078003871088 0 0 1:0.014205874 2:-0.10369271 3:-0.028178441 4:-0.243424 5:-1 6:-0.29873084 7:1 8:0.44792692 9:0.24592338 10:-0.243424 11:-0.44792692 12:0.45534579 
-4.211598550311072 -0.1705438679216077 -0.1839122250016717 -5.033909890730571 -0.1481165745343193 -0.1778235598908886 -0.8246403118657546 -1.35674178121014 -7.138549431370648 -28.37165183542403 12.04017954238535 89.43854136356775 4.318248584676379 7.303229131521501 1:-0.13430397 2:-0.057823461 3:0.11656067 4:-1 5:-0.79174262 6:-0.3197183 7:0.44382858 8:0.37218642 9:0.85454039 10:-0.44382858 11:-0.16392904 12:-0.17425869 
-0 -0 -0 -0 -0 -0 -0 -0 -0 -0 0 11.7119837006846 0 0 1:-0.11677786 2:-0.032188108 3:0.10602286 4:-0.3897983 5:-0.61026579 6:-0.25365423 7:1 8:0.27989673 9:0.39828708 10:-0.3897983 11:0.10983748 12:0.34805869 
-1.651637643598497 -0.3440472106338344 -0.3215529675964808 -0 -0.3435804177800971 -0.3239898404676596 -0.1721173713092024 -0.5612870816947532 -0 -3.443896548296571 1.741410900721228 0 16.93655070443267 0.7734448270540693 1:-0.0803952 2:-0.11273694 3:-0.099135513 4:-0.50932176 5:-0.96327064 6:-1 7:1 8:0.84671728 9:0.082717008 10:-0.50932176 11:-0.80998792 12:-0.082717008 
-0 -0 -0 -0 -0 -0 -0 -0 -0 -24.73038315001424 0 0 0 0 1:-0.033765925 2:-0.10154616 3:-0.046739377 4:-0.58523833 5:-0.60925069 6:-0.2971918 7:1 8:0.40853533 9:0.67304597 10:-0.58523833 11:-0.017786018 12:0.029762228 
-0 -0 -0 -0 -0 -0 -0 -0 -0 -0 0 224.8682851978889 0 0 1:0.067358866 2:-0.066479726 3:-0.031550192 4:-0.2464057 5:-0.85583652 6:-0.62393231 7:1 8:0.22738861 9:0.35164141 10:-0.2464057 11:-0.083225133 12:0.024426282 
-0 -0 -0 -0 -0 -0 -0 -0 -0 -0.8268177019439019 0 148.9398808532434 0 0 1:-0.044912872 2:-0.088723587 3:-0.13626048 4:-0.43683439 5:-0.91840782 6:-1 7:1 8:0.28718291 9:0.26573833 10:-0.43683439 11:-0.20559072 12:-0.26573833 
-0.7539893862500425 -2.019828046869212 -11.82267706289882 -10.67520414705483 -15.41936097635552 -4.778813920811837 -52.51551580860959 -15.93355160777689 -9.53927049960938 -7.647545972827955 -0 1.99995411484742 9.950993068864184 1.494736657096162 1:-0.1658076 2:-0.11314629 3:0.0057510768 4:-0.62947594 5:-0.27127312 6:-0.24484618 7:-0.010791096 8:0.20646559 9:0.15403823 10:0.38131515 11:0.5222613 12:0.6011156 
-22.08896431929961 -0 -0 -1.429628335279356 -0 -0 -171.2266418298098 -53.85817607046776 -0 -18.38651881982291 -0 0 16.80305699422603 0 1:-0.16036176 2:-0.1203336 3:0.020169998 4:-0.76833511 5:-0.71225161 6:-0.39399614 7:0.048065598 8:0.30993665 9:0.14508497 10:0.18359929 11:-0.02218826 12:0.46091889 
-0 -0 -0.002099645098703781 -1.504996030414307 -0.09636813324029477 -0 -0 -0 -4.817053662103363 -0 -0 31.54328384910758 0 0 1:-0.020187431 2:-0.19873275 3:0.026053263 4:-0.36172143 5:-0.99689343 6:-0.41174402 7:0.43635615 8:0.30520899 9:0.76618269 10:0.20192242 11:-0.30210243 12:-0.17792671 
-0 -0 -0 -0 -0 -0 -0 -0 -75.15694628280517 -475.0657347423028 -0 10.70931279070856 469.4430687545939 1241.1082787448 1:-0.22320391 2:-0.09791723 3:-0.046937796 4:-1 5:-1 6:-0.92683516 7:0.36864266 8:0.9871633 9:0.67223909 10:-0.36864266 11:-0.9871633 12:-0.59907425 
-15.72230437797483 -0 -0 -0 -0 -0 -20.98055342940231 -8.102794210486861 -25.21478845327495 -77.19822332515497 -0 0 73.33915637537666 0 1:-0.24433318 2:-0.0093599248 3:-0.030883599 4:-0.56929431 5:-1 6:-0.80520458 7:0.052233331 8:0.72169349 9:0.41503742 10:0.37847236 11:-0.72169349 12:-0.220242 
-0 -0 -1.356832652353833 -3.532034141053923 -0.4982058312294821 -0 -8.669657479236985 -0 -23.23697589867038 -0 -0 6.4080825671845 0 0.8900553241379334 1:-0.11912603 2:-0.052446196 3:-0.12055021 4:-0.37415708 5:-1 6:-1 7:0.18048187 8:0.28881603 9:0.11215051 10:0.44536106 11:-0.28881603 12:-0.11215051 
-36.41226672757894 -0 -0 -0 -0 -0 -0 -18.99461231208304 -106.1786263440204 -0 -0 0 0 0 1:-0.14845277 2:-0.1284314 3:-0.017765157 4:-0.60343512 5:-1 6:-0.58479231 7:0.062427103 8:0.59087851 9:0.35988877 10:0.33413778 11:-0.59087851 12:0.055318916 
-0 -0.2433079896551119 -0 -0 -0 -0.202707741939217 -0 -0 -0 -0 -0 0 47.60127255693551 0 1:-0.13816689 2:-0.13549882 3:-0.022431646 4:-0.70359549 5:-1 6:-1 7:0.096351685 8:1 9:0.59057076 10:0.20005282 11:-1 12:-0.59057076 
-0 -0 -0 -0 -0 -0 -0 -0 -35.63043672345562 -0 -0 5.977926661271512 0 90.01509095876294 1:-0.13989192 2:-0.13471842 3:-0.033568857 4:-1 5:-1 6:-0.69409722 7:0.57832828 8:0.70566215 9:0.52209452 10:-0.57832828 11:-0.70566215 12:-0.21619174 
-2.200535545674895 -0 -0 -0.2460890516777086 -0 -0 -0 -0 -0 -8.099043072197325 -0 19.38708569336216 1.181246073016604 39.03949248660581 1:-0.14505399 2:-0.085691726 3:0.049195339 4:-1 5:-0.64186764 6:-0.15085697 7:0.22672199 8:1 9:0.83115506 10:-0.22672199 11:-0.64186764 12:0.017987972 
-0 -0 -0 -0 -0 -0 -0 -2.282354082965441 -1343.218992027081 -184.7750783563578 -0 0 223.5697790165687 0 1:-0.18521444 2:-0.11942282 3:0.014762395 4:-1 5:-1 6:-0.53939108 7:0.17003584 8:0.83025332 9:0.71342515 10:-0.17003584 11:-0.83025332 12:-0.25281623 
-0 -0 -0 -0 -0 -0 -2.228696799475301 -0 -47.95018015835749 -32.12917391302995 -0 14.61647288368067 0 11.24385304873817 1:-0.14729305 2:-0.089122334 3:-0.050038734 4:-1 5:-0.70351114 6:-0.93759362 7:0.23558983 8:0.79272244 9:0.099226851 10:-0.23558983 11:-0.49623358 12:-0.036820474 
-0 -0 -0 -0 -0 -0 -0 -11.54930453381094 -0 -0 -0 0 0 0 1:-0.13073846 2:-0.17160254 3:-0.041190455 4:-1 5:-1 6:-0.54508683 7:0.11434254 8:1 9:0.75910576 10:-0.11434254 11:-1 12:-0.30419259 
-0 -0.03443486300863835 -0 -0.5473455816728078 -0 -0 -0 -0 -79.19533806854648 -53.76682695657093 -0 0 0 30.40855443690275 1:-0.10259364 2:-0.12661985 3:0.051100954 4:-0.55728987 5:-1 6:-0.18201371 7:0.62829011 8:0.65199954 9:1 10:-0.18557999 11:-0.65199954 12:-0.18201371 
-0 -0 -0 -0 -0 -0 -0 -0 -6.518902234644873 -60.65843886340317 -0 33.8376138231506 0 11.31668285767049 1:-0.17443648 2:-0.14502515 3:-0.021839835 4:-1 5:-1 6:-0.66109469 7:0.17885063 8:0.37175078 9:0.44245377 10:-0.17885063 11:-0.37175078 12:-0.10354846 
-1.320265646319757 -0 -0 -0 -0 -0 -0 -0 -0 -0 -0 0 0 0 1:-0.040322103 2:-0.12845404 3:-0.094496207 4:-0.69936377 5:-0.64983305 6:-1 7:0.15998702 8:0.31096791 9:0.14334097 10:0.1406492 11:0.039199038 12:-0.14334097 
-0 -0 -0.5484822068287216 -2.565992778743749 -0 -0 -0 -0 -0 -0.17286659651551 -0 0 0 0 1:-0.030000016 2:-0.12252005 3:-0.10093349 4:-0.65541056 5:-0.50200384 6:-0.68345556 7:0.23765437 8:0.24375365 9:0.16960784 10:0.10693506 11:0.2542425 12:0.14693659 
-0 -0 -0 -0 -0 -0 -33.59442088715838 -97.11533585132084 -665.4820254325107 -176.9173862003006 -0 0 0 2.364838319199104 1:-0.17812847 2:-0.12471808 3:-0.029556653 4:-1 5:-1 6:-0.46729064 7:0.13161788 8:0.4623752 9:0.39070541 10:-0.13161788 11:-0.4623752 12:0.14200395 
-0 -0 -0 -0 -0 -0 -0 -0 -0 -0 -35.0166073864685 10.11684504317193 48.40240036267512 0 1:-0.010685518 2:-0.18616779 3:-0.036542944 4:-0.66924523 5:-1 6:-0.61583946 7:0.7309622 8:0.49387984 9:0.68255396 10:-0.40020744 11:-0.49387984 12:-0.29839341 
-0 -0 -0 -0 -0 -0 -0 -0 -0 -0 -0 7.508302091678801 0 0 1:0.00036063614 2:-0.16971244 3:-0.05729229 4:-0.87041543 5:-1 6:-0.53579138 7:0.70719377 8:0.65254361 9:0.78178366 10:-0.5776092 11:-0.65254361 12:-0.31757504 
-0 -0 -0 -0 -0 -0 -0 -0 -147.2878666447277 -0 -0 0 0 0 1:-0.12406003 2:-0.16635159 3:-0.086965786 4:-0.72269187 5:-1 6:-0.57427075 7:0.37907229 8:0.67105115 9:0.4312156 10:-0.10176416 11:-0.67105115 12:-0.0054863536 
-0 -0 -0 -6.870283688262811 -0 -0 -0 -0 -0 -0 -16.75837393313652 7.736420758687146 4.686382165558549 0 1:-0.126479 2:-0.15926693 3:-0.086258714 4:-0.64347999 5:-0.66983975 6:-0.43667417 7:0.4699058 8:0.49948448 9:0.39998116 10:-0.11338579 11:-0.16932423 12:0.16334467 
-0 -0 -0.02143129811669714 -0 -0.1718429515499133 -0.01843856659122682 -0 -0 -0 -0 -0 3.718117185327586 12.62689378564782 0 1:-0.11258658 2:-0.14166065 3:-0.10195913 4:-1 5:-1 6:-0.74986433 7:0.45923718 8:0.99363422 9:0.9209466 10:-0.45923718 11:-0.99363422 12:-0.67081093 
-0 -0 -0 -0 -0 -0 -0 -0 -0 -0 -5.361737297972372 11.91019149578772 12.95021122564423 2.930550150269965 1:-0.048636581 2:-0.13152987 3:-0.12253957 4:-0.66794193 5:-0.82634529 6:-1 7:0.23980052 8:0.20314557 9:0.16283904 10:0.09225755 11:-0.029490856 12:-0.16283904 
-0 -0 -0 -0.8152668087725324 -0 -0 -0 -0 -19.95976813069891 -0 -0 0 0 69.81055859782185 1:-0.14194908 2:-0.14541645 3:-0.038975328 4:-1 5:-1 6:-0.53969462 7:0.64525506 8:0.96804694 9:0.79311166 10:-0.64525506 11:-0.96804694 12:-0.33280628 
-0 -0 -0 -0 -0 -0 -0 -0 -0 -0 -13.52995730290005 0 0 0 1:-0.13717135 2:-0.16724842 3:0.0032820168 4:-1 5:-1 6:-0.51149098 7:0.35302756 8:0.56377611 9:0.50486002 10:-0.35302756 11:-0.56377611 12:-0.016350997 
-0 -0 -0 -0 -0 -0 -0 -0 -0 -0 -0 0 12.24646490551976 0 1:-0.028592967 2:-0.069061138 3:-0.17181457 4:-0.60599741 5:-0.28937308 6:-1 7:0.5279455 8:1 9:0.22893886 10:-0.13394291 11:-0.28937308 12:-0.22893886 
-0.5233388637667843 -0.3289624261999842 -0.1000207832557853 -0 -0.1787135625378654 -0.3198163578993112 -0 -0 -0 -0 -0 0 0 0 1:-0.13862087 2:-0.16137401 3:-0.078508136 4:-1 5:-1 6:-0.74395742 7:0.65749135 8:1 9:0.74728024 10:-0.65749135 11:-1 12:-0.49123766 
-0 -0 -0 -0 -0 -0 -0 -0 -343.0998577600092 -0 -0.2141081154769713 0 79.6125418425388 0 1:-0.14484144 2:-0.16104027 3:-0.082475597 4:-1 5:-1 6:-0.61492984 7:0.37568747 8:0.71049138 9:0.26175297 10:-0.37568747 11:-0.71049138 12:0.12331719 
-0 -0 -0 -0 -0 -0 -0 -0 -0 -0 -64.83485185483021 -0 0 0 1:-0.014090839 2:-0.066058772 3:0.10731111 4:-0.25221385 5:-0.71303172 6:-0.23647754 7:0.81779053 8:0.32611203 9:0.6094761 10:-0.070004385 11:-0.039143744 12:0.15404636 
-0 -0.1637899283065042 -0.6761916810483497 -0 -0.07179836500792314 -0.0840347765937159 -0 -0 -12.463609566605 -0 -41.61166783504307 -0 0 0 1:-0.062849741 2:-0.14729005 3:-0.024823388 4:-0.25024231 5:-1 6:-1 7:0.59770783 8:0.10062916 9:0.1126856 10:0.15204986 11:-0.10062916 12:-0.1126856 
-0 -0.2473006355604362 -0.2434647174816305 -0 -0 -0.1869476636026809 -0 -0 -9.420518755776389 -0 -121.5697688932581 -0 0 0 1:-0.054426039 2:-0.13546355 3:0.091458405 4:-0.25150171 5:-1 6:-0.079401631 7:1 8:0.069436811 9:0.37069565 10:-0.25150171 11:-0.069436811 12:0.54990272 
-0 -0 -0 -24.35717884567202 -0 -0 -0 -0 -3.694320096953064 -0 -30.59157539911509 -0 0 0 1:-0.14517623 2:0.00099174426 3:0.11079175 4:-0.949197 5:-0.57141203 6:-0.063034548 7:0.69601541 8:0.53685043 9:0.53005654 10:-0.64521241 11:-0.10826245 12:0.40690891 
-0 -0 -0 -13.28722989510735 -0 -0 -0.04876885658918118 -0.6491721032031051 -0 -4.221723152803455 -0 -14.22229260703934 0 0 1:-0.16062085 2:0.048851181 3:-0.040839784 4:-1 5:-0.43328127 6:-0.24475981 7:0.39321896 8:1 9:0.70418181 10:-0.39321896 11:-0.43328127 12:0.051058389 
-0 -0 -0 -0 -0 -0 -0 -0 -43.46029640039706 -5.16391356689194 -500.0854926731979 -0.6959581222416463 12.54451214503575 1.756462040355092 1:-0.046444886 2:-0.13901495 3:-0.061038685 4:-0.39903423 5:-0.84460698 6:-0.31111633 7:0.72896723 8:0.47917041 9:0.34119172 10:-0.12800146 11:-0.32377739 12:0.34769195 
-2.011347372313397 -0 -0.09413599388401422 -42.56886741452231 -0.7455421687679567 -0.3590375425576696 -4.746403866848586 -2.008166376378425 -0 -0 -84.69682685699402 -0 0 0 1:-0.039958838 2:-0.11508737 3:-0.02509838 4:-0.44023102 5:-1 6:-0.48833332 7:0.47936372 8:0.23471114 9:0.18354214 10:0.080405261 11:-0.23471114 12:0.32812454 
-0 -0 -0 -0 -0 -0 -0 -0 -0 -0 -874.5377005719992 -0 0 0 1:-0.02157117 2:-0.13437243 3:-0.051057832 4:-0.31725839 5:-1 6:-0.60865324 7:0.96963716 8:0.19736243 9:0.40336392 10:-0.28689555 11:-0.19736243 12:-0.012017152 
-0 -0 -0 -0 -0 -0 -0 -0 -0 -0 -133.3726497557591 -0 0 0 1:-0.047022328 2:-0.11644494 3:-0.080328626 4:-0.55695961 5:-1 6:-0.7591558 7:0.51012122 8:0.084433522 9:0.29305629 10:-0.067080833 11:-0.084433522 12:-0.052212096 
-5.631019340538211 -0.3125551439980724 -0.2827495515983588 -0 -0.3165953793757491 -0.3305438733851541 -0 -0 -16.27107146800239 -123.6358822656861 -2.491917901393175 -5.74260652298326 40.88499621350479 17.78691123962958 1:-0.12688582 2:-0.045360546 3:-0.10225394 4:-1 5:-1 6:-1 7:1 8:0.99056153 9:0.49637677 10:-1 11:-0.99056153 12:-0.49637677 
-2.003521167629577 -0 -0 -0 -0 -0 -4.67906926440132 -6.062998379477256 -45.42541898964995 -19.93288861743003 -0 -44.29087979719377 0 9.170883011645996 1:-0.090970668 2:-0.041776078 3:-0.11638366 4:-1 5:-1 6:-1 7:0.17825404 8:0.54893146 9:0.16634758 10:-0.17825404 11:-0.54893146 12:-0.16634758 
-5.584409889414676 -0.006188469959183476 -0 -0 -0 -0 -0 -2.401978309360262 -0 -13.72684897899139 -0 -21.22778440595983 28.92741007258126 55.69094637394489 1:-0.16997543 2:0.0088955741 3:0.063795796 4:-1 5:-0.74084129 6:-0.41709016 7:0.36505315 8:1 9:1 10:-0.36505315 11:-0.74084129 12:-0.41709016 
-0 -0 -0 -0 -0 -0 -0 -0 -3.132114192209429 -3.772625703250464 -0 -0 0 0 1:-0.13308613 2:-0.032475342 3:0.12013359 4:-0.50811365 5:-0.70180156 6:-0.29087334 7:0.31516015 8:0.2465192 9:0.99878771 10:0.1767262 11:0.051679243 12:-0.28966105 
-9.041867521001873 -0 -0 -0 -0 -0 -0 -0 -7.893896041536424 -65.82274604835256 -0 -0 122.204093786293 8.201392859814392 1:-0.073686251 2:-0.086567546 3:0.065904159 4:-1 5:-1 6:-0.83514235 7:0.82978991 8:0.51361324 9:0.94549719 10:-0.82978991 11:-0.51361324 12:-0.78063954 
-3.33799327009656 -0.2894670007758001 -1.528372425355342 -4.109555935850858 -0.7160917995907472 -0.4387553146078195 -6.82565020381443 -2.087261676249185 -0 -0.7583429687636957 -0 -2.710791818376849 8.145105270697512 0 1:-0.087080733 2:-0.070841017 3:0.076907017 4:-0.53643033 5:-0.60141343 6:-0.21355799 7:0.2792941 8:0.32105033 9:0.89215655 10:0.18427557 11:0.077536238 12:-0.10571454 
-0 -0.01349096182989958 -0 -0 -0 -0 -0 -0 -0 -16.13872429075411 -18.86607638959393 -0.6722737741442444 0 0 1:-0.10018256 2:-0.017457532 3:-0.14666335 4:-0.80837184 5:-0.44410617 6:-0.85220748 7:0.78646413 8:0.35668513 9:0.26079423 10:-0.59483598 11:0.1992087 12:-0.11300171 
-0 -0 -0 -0 -0 -0 -0 -0 -6.370168688954873 -13.80006536126593 -20.39638338894061 -0 12.2211625113227 0 1:-0.12330078 2:-0.016923455 3:-0.13597836 4:-0.87197211 5:-0.66638156 6:-1 7:0.84692576 8:0.44394783 9:0.14222094 10:-0.71889787 11:-0.11032939 12:-0.14222094 
-0 -0 -0 -0 -0 -0 -0 -0 -0 -36.73326904672891 -15.75151794240843 -0 101.2089155198753 8.800941590065085 1:-0.1144831 2:-0.011583035 3:-0.14750286 4:-0.86640287 5:-1 6:-1 7:0.61466574 8:0.32679717 9:0.55926111 10:-0.48106861 11:-0.32679717 12:-0.55926111 
-0 -0 -0 -0 -0 -0 -0 -0 -0 -9.422315366038509 -54.11823913432985 -52.94747001154675 0 0 1:-0.071708478 2:-0.12851566 3:0.0005658838 4:-0.4674541 5:-1 6:-0.4957523 7:0.46535746 8:0.20106293 9:0.51822758 10:0.067188438 11:-0.20106293 12:-0.013979876 
-0 -0 -0 -0 -0 -0 -0 -0 -0 -0 -7.407998721108397 -0 0 0 1:0.0020401017 2:-0.11748394 3:-0.0005515538 4:-1 5:-1 6:-0.37121369 7:0.72585149 8:0.58581363 9:1 10:-0.72585149 11:-0.58581363 12:-0.37121369 
-0 -0.1753346939288777 -0 -0 -0 -0.104377792792953 -0 -0 -0 -0 -0 -5.378298186815423 6.505663455319612 4.136199461128669 1:-0.092328372 2:-0.12552744 3:-0.013646963 4:-0.64578069 5:-1 6:-1 7:0.51804039 8:0.29416947 9:1 10:-0.16382108 11:-0.29416947 12:-1 
-0 -0 -0 -0 -0 -0 -0 -0 -0 -0 -0.06797883665359319 -0 95.32234639379418 0 1:-0.076316072 2:-0.019656286 3:-0.15408848 4:-1 5:-1 6:-1 7:0.55379232 8:0.68107815 9:0.16562761 10:-0.55379232 11:-0.68107815 12:-0.16562761 
-0 -0.1411683981075526 -0 -0 -0 -0.04485741168350958 -0 -1.406028304624068 -3.323616646073464 -0.3335064956920546 -0 -2.329683944518628 0 40.80621540268764 1:-0.095328688 2:-0.016116564 3:-0.13716115 4:-1 5:-1 6:-1 7:0.29126807 8:0.95918991 9:0.176832 10:-0.29126807 11:-0.95918991 12:-0.176832 
-0 -0.1993555422184882 -0.1994669003798846 -1.492876963298112 -0.5329254168296835 -0.2810388371418378 -0 -0 -0 -7.769827107497178 -0 -0 0 0 1:-0.18111819 2:0.02667945 3:0.067888971 4:-0.49866876 5:-0.38181614 6:-0.12128219 7:0.72590161 8:0.58689988 9:0.48573585 10:-0.22457037 11:0.031283976 12:0.39298196 
-0 -0 -0 -11.71520578620931 -0 -0 -0 -0 -11.93786965002122 -6.01145293345335 -64.01629827102404 -0 0 0 1:-0.12674229 2:-0.070768411 3:0.11166459 4:-1 5:-0.76934514 6:-0.19557484 7:0.77185089 8:0.29002108 9:0.91522735 10:-0.77185089 11:-0.059366221 12:-0.11080219 
-0 -0 -0 -0 -0 -0 -0 -0 -17.09700193042673 -0 -52.01154106264536 -0 2.600867322072496 6.318642664272712 1:-0.12134865 2:-0.078325158 3:-0.11797255 4:-1 5:-1 6:-0.52245104 7:0.57848228 8:0.23757529 9:0.28337085 10:-0.57848228 11:-0.23757529 12:0.19417811 
-0 -0 -0 -0 -0 -0 -0 -1.014706454084032 -0 -38.46642739993006 -60.79560319672679 -15.25156976714642 0 4.166701628482096 1:-0.077934879 2:-0.13356098 3:0.048369313 4:-1 5:-1 6:-0.24025931 7:0.33101133 8:0.39682922 9:0.93651094 10:-0.33101133 11:-0.39682922 12:-0.17677025 
-0 -0 -0 -0 -0 -0 -0 -0 -55.19521249624389 -0.870957882500625 -16.68996105793421 -0 55.06300117683555 0 1:-0.078306081 2:-0.10867524 3:-0.029621038 4:-1 5:-1 6:-0.46533702 7:0.7769629 8:0.4357254 9:1 10:-0.7769629 11:-0.4357254 12:-0.46533702 
-0 -0 -0 -0 -0 -0 -0 -0 -61.72959665443822 -0 -0 -0 0 0 1:-0.13742703 2:-0.012546685 3:0.12241021 4:-1 5:-1 6:-0.32969439 7:0.4883645 8:0.66744864 9:1 10:-0.4883645 11:-0.66744864 12:-0.32969439 
-0 -0.04167262486525513 -0.03208660557488315 -0.1322013813271875 -0 -0 -2.078161991056421 -0 -0 -0 -9.349795780644158 -0 -5.762508971100886 0 1:-0.10859825 2:-0.084605259 3:-0.0096029824 4:-0.86245191 5:-1 6:-0.47058052 7:1 8:0.46553362 9:0.28681619 10:-0.86245191 11:-0.46553362 12:0.24260328 
-10.69356986416952 -0 -0 -0 -0 -0 -0 -0 -0 -15.28020906068799 -0 -0 -0 0 1:-0.24575527 2:-0.011659947 3:-0.045181888 4:-0.51819158 5:-0.70739692 6:-0.42811075 7:0.033386605 8:0.73240337 9:0.28330776 10:0.44842181 11:-0.43980029 12:0.2885815 
-134.4916728855444 -0 -0 -0 -0 -0 -0 -102.7760211909624 -0 -12.97794433957871 -0 -0 -0 0 1:-0.24793339 2:-0.0012243704 3:-0.030471255 4:-0.65000316 5:-0.59336172 6:-0.41372163 7:-0.067906344 8:0.57568777 9:0.49822697 10:0.41790318 11:-0.1690495 12:0.088051399 
-1.82304257595453 -0.1935026264197652 -0 -0 -0 -0.1056738593684143 -2.099091722150185 -0 -0 -289.3122412037203 -0 -168.4163966276638 -2.756906602140829 2.029393052891067 1:-0.19534764 2:-0.14339051 3:-0.037840119 4:-1 5:-1 6:-1 7:0.30974352 8:1 9:0.82927554 10:-0.30974352 11:-1 12:-0.82927554 
-0 -0 -0 -0 -0 -0 -9.819564534781307 -39.63100526567578 -476.422465063278 -182.1013896008981 -0 -65.0214636057744 -2.135757316363554 264.2797859212666 1:-0.21937742 2:-0.10932791 3:-0.035793749 4:-1 5:-1 6:-0.35732271 7:0.18506567 8:0.64612309 9:0.36233974 10:-0.18506567 11:-0.64612309 12:0.28033755 
-4.886781393165441 -0.113308210096655 -0.2909204408477469 -0 -0.2915054779907926 -0.1907535095007726 -0 -0 -0 -4.94308976866899 -5.006806115922065 -33.28426536860715 -19.35359763296117 5.581267379609429 1:-0.10823576 2:-0.125146 3:-0.047115419 4:-0.76289013 5:-1 6:-1 7:1 8:0.99371253 9:0.64154992 10:-0.76289013 11:-0.99371253 12:-0.64154992 
-25.08915466316794 -0 -0 -0 -0 -0 -17.33706643191376 -33.70929492328139 -0 -0 -0 -0 -7.648254846886346 0 1:-0.24130266 2:-0.062103895 3:-0.037529964 4:-0.86022355 5:-0.70568476 6:-0.31965908 7:0.11876326 8:0.57453009 9:0.23676788 10:0.02101319 11:-0.28021485 12:0.44357303 
-0 -0 -0 -0 -0 -0 -0 -0 -0 -0 -0 -28.75799403542873 -0 269.3373516515725 1:-0.099112811 2:-0.099361389 3:-0.04144524 4:-0.9625483 5:-1 6:-0.46777202 7:0.60825019 8:1 9:0.43904516 10:-0.57079849 11:-1 12:0.093182815 
-1.443994657237903 -0 -0 -4.05616721230571 -0 -0 -95.79318981192422 -74.99942201805214 -33.09239997893761 -0 -0 -9.635993511351426 -0 0 1:-0.24263625 2:-0.046663402 3:-0.031144842 4:-0.62869145 5:-0.59850443 6:-0.40108309 7:0.054172908 8:0.42528131 9:0.20541734 10:0.31713564 11:-0.023785747 12:0.39349956 
-6.285907617175538 -0 -0 -0.4477047653679809 -0.01434082498557869 -0 -0 -0 -43.76408167501403 -0 -0 -17.60717443348356 -25.74804876398344 177.2300592509745 1:-0.23506991 2:-0.043751871 3:-0.017037829 4:-1 5:-1 6:-0.43879888 7:0.70303047 8:1 9:1 10:-0.70303047 11:-1 12:-0.43879888 
-0 -0 -0 -0 -0 -0 -0 -0 -0 -455.8906609162186 -0 -0 -0 616.7694733073989 1:-0.24340135 2:-0.027737483 3:-0.022487932 4:-1 5:-1 6:-0.75664001 7:0.39693596 8:1 9:0.87692316 10:-0.39693596 11:-1 12:-0.63356317 
-0 -0 -0 -0 -0 -0 -0 -0 -0 -0 -2.676125702501548 -0 -0 25.46701165730135 1:-0.23959567 2:-0.032263415 3:-0.0084950729 4:-1 5:-1 6:-0.45379113 7:0.76846594 8:1 9:0.74794333 10:-0.76846594 11:-1 12:-0.20173446 
-15.673086519841 -0.1500971266883708 -0.1566329178388758 -0 -0 -0.09262822244596443 -0.7095130039806462 -0 -0 -72.13261951977034 -1.196720593047947 -0 -184.4898857510553 0 1:-0.12356581 2:-0.084756013 3:-0.040221866 4:-1 5:-1 6:-0.80098102 7:0.72505195 8:0.42563319 9:0.95231366 10:-0.72505195 11:-0.42563319 12:-0.75329468 
-0 -0 -0 -0 -0 -0 -0 -0 -110.0055352745792 -120.3436786841204 -0 -71.55290713822996 -0 70.09864006868759 1:-0.14878531 2:-0.10147193 3:-0.071001274 4:-1 5:-1 6:-0.85660327 7:0.55175603 8:0.51077723 9:0.41275619 10:-0.55175603 11:-0.51077723 12:-0.26935947 
-0 -0.2625289013215001 -0.1694840778138623 -0 -0.1951730636165772 -0.2361841559629019 -0 -0 -0 -0 -0 -0 -0 0 1:-0.22911852 2:-0.079117525 3:-0.038733966 4:-1 5:-1 6:-0.46496831 7:0.86716323 8:1 9:0.24433153 10:-0.86716323 11:-1 12:0.29070016 
-0.8351439065655875 -0 -0 -0 -0 -0 -0 -0 -0 -125.5873727825533 -0 -0 -11.77056512428896 0 1:-0.23192689 2:-0.046207257 3:0.0013978635 4:-1 5:-1 6:-0.84702505 7:0.9492266 8:1 9:0.42255931 10:-0.9492266 11:-1 12:-0.26958436 
-0 -0 -0 -4.986225067414497 -0 -0 -0 -0 -9.575555901661005 -60.28421899641478 -47.11680508365125 -0 -0 0 1:-0.13736155 2:-0.1234969 3:-0.028230174 4:-0.77410278 5:-1 6:-0.41764094 7:0.76772794 8:0.51924725 9:0.32954561 10:-0.54183072 11:-0.51924725 12:0.25281345 
-0 -0 -0 -0 -0 -0 -0 -20.54935222428377 -137.6818313804241 -908.7965514400203 -0 -468.6757249591712 -0 0 1:-0.23832757 2:-0.062868039 3:-0.024563249 4:-0.98043402 5:-1 6:-0.76306514 7:0.20948652 8:0.94702712 9:0.63665908 10:-0.18992054 11:-0.94702712 12:-0.39972422 
-0 -0 -0 -0.9219392575151826 -0 -0 -2.06255789685217 -0 -0 -0 -28.02830503122578 -0 -11.79872656305401 0 1:-0.14237242 2:-0.10737344 3:-0.056790164 4:-0.6381111 5:-0.79283675 6:-0.79215497 7:0.77338398 8:0.45039058 9:0.3175368 10:-0.41149508 11:-0.24322733 12:-0.10969177 
-0 -0 -0 -0 -0 -0 -0 -0 -20.59502920753701 -43.42398010301319 -7.039739002564882 -92.774580828502 -11.47011428057422 0 1:-0.10887792 2:-0.08490892 3:-0.053443575 4:-0.5096082 5:-0.91286158 6:-0.81451614 7:0.37445588 8:0.70069797 9:0.50881448 10:0.11593592 11:-0.61355955 12:-0.32333062 
-185.7506242004332 -1.0223523936932 -4.510372565104258 -6.174427509302165 -4.496277915680689 -2.033675413060047 -0 -83.85068117562447 -29.72400736761739 -0 -5.102071784888286 -23.49864763974972 -7.245686928808818 0 1:-0.23570453 2:-0.059178565 3:-0.050851221 4:-0.51926557 5:-0.59578717 6:-0.46603817 7:-0.040682267 8:0.32000724 9:0.26576331 10:0.52141669 11:0.08420559 12:0.26819852 
-0 -0 -0 -2.28837231141213 -0 -0 -0.2146486866646847 -0 -5.945194265545001 -27.66221218804419 -8.398995539975317 -2.288317856686518 -24.24751901810182 18.04515285087275 1:-0.14637166 2:-0.092852908 3:0.026243124 4:-0.66588483 5:-0.62797788 6:-0.45685864 7:0.51299679 8:0.46320104 9:1 10:-0.17888163 11:-0.091178919 12:-0.45685864 
-0 -0 -0 -0 -0 -0 -0 -0 -0 -95.61988860406849 -0 -0 -162.1325978679725 0 1:-0.10227053 2:-0.057160502 3:-0.13130733 4:-0.96518222 5:-1 6:-1 7:0.69769274 8:0.55783229 9:0.30835693 10:-0.66287496 11:-0.55783229 12:-0.30835693 
-6.475627480578569 -0 -0 -0 -0 -0 -0 -0 -0 -0 -0 -30.90000112251768 -0 748.2392376474312 1:-0.22508375 2:-0.10886819 3:-0.016900658 4:-1 5:-1 6:-0.87621856 7:0.51937578 8:0.78608034 9:0.7839076 10:-0.51937578 11:-0.78608034 12:-0.66012616 
-0 -0 -0 -0 -0 -0 -0 -0 -0 -0 -0 -0 -0 1731.413120738641 1:-0.2376401 2:-0.052427423 3:-0.04825741 4:-1 5:-1 6:-0.48064892 7:0.23259546 8:1 9:0.51585631 10:-0.23259546 11:-1 12:0.0034947714 
-0 -0 -0 -0 -0 -0 -0 -0 -0 -0 -0 -0 -9.067904200040347 832.3343701524162 1:-0.23665578 2:-0.050871149 3:-0.050262253 4:-1 5:-1 6:-0.48806448 7:0.28815235 8:1 9:0.30770085 10:-0.28815235 11:-1 12:0.20423468 
-0 -0 -0 -0 -0 -0 -0 -0 -0 -29.05987654586433 -0 -0 -0 219.7836322126939 1:-0.22843077 2:-0.073499498 3:-0.049404104 4:-1 5:-1 6:-0.43854711 7:0.47721493 8:0.94880889 9:0.29957493 10:-0.47721493 11:-0.94880889 12:0.26187796 
-0 -0.2167358155460529 -0.2761738804461997 -0.6317034315999697 -0.2323484079532672 -0.2198177549029795 -0.2461016482433028 -0 -3.940573478056509 -29.71821028763023 -2.120944846249794 -15.78190942111119 -7.800366786472782 -17.54347388719943 1:-0.15225717 2:0.015797571 3:0.082167762 4:-0.51699869 5:-0.86811039 6:-0.42180564 7:0.50553094 8:1 9:1 10:-0.022529636 11:-0.86811039 12:-0.42180564 
-0 -0 -0 -0 -0 -0 -0 -20.33469518117893 -12.09677813694168 -478.5085590597914 -0 -0 -0 -0 1:-0.2451603 2:-0.039549078 3:-0.049549376 4:-1 5:-1 6:-0.6466758 7:0.26695306 8:0.82200239 9:0.39533467 10:-0.26695306 11:-0.82200239 12:-0.042010472 
-0 -0 -0 -0 -0 -0 -0 -0 -76.45180534258311 -0 -0 -0 -0 -1221.064318852542 1:-0.23416746 2:-0.084796257 3:-0.039566569 4:-1 5:-1 6:-0.51396091 7:0.26358384 8:0.88618499 9:0.42182588 10:-0.26358384 11:-0.88618499 12:0.064213212 
-0 -0 -0 -0 -0 -0 -0 -7.354871416462662 -24.95322498897213 -145.6143139979879 -0 -7.57005684816534 -28.98065351495417 -44.28203776539812 1:-0.17079467 2:0.028410268 3:0.048416358 4:-1 5:-0.82705401 6:-0.4929595 7:0.1380929 8:1 9:1 10:-0.1380929 11:-0.82705401 12:-0.4929595 
-0 -0 -0 -0 -0 -0 -0 -0 -0 -292.7810982918652 -0 -0 -10.9140278299988 -219.1870140931837 1:-0.23045796 2:-0.063780992 3:-0.038261061 4:-1 5:-1 6:-0.56245744 7:0.51519627 8:1 9:0.42077562 10:-0.51519627 11:-1 12:0.016766939 
-0 -0 -0 -0 -0 -0 -0 -0 -0 -0 -0 -0 -0 -629.3510498534208 1:-0.2370248 2:-0.057081592 3:-0.040930962 4:-1 5:-1 6:-0.47223529 7:0.40817035 8:1 9:0.45989043 10:-0.40817035 11:-1 12:0.067874274 
-0 -0.1305863853190944 -0.157492455285154 -0 -0.1404592176493383 -0.1249731680849283 -1.149846057910011 -0 -3.783908393415632 -17.76663515643425 -0 -0 -32.4254164507962 -0 1:-0.15733154 2:-0.031164868 3:-0.11409016 4:-1 5:-0.77303914 6:-1 7:0.26366787 8:1 9:0.14717824 10:-0.26366787 11:-0.77303914 12:-0.14717824 
-0 -0 -0 -0 -0 -0 -0 -0 -0 -0 -0 -329.4116453628437 -0 -1065.085185175666 1:-0.22980035 2:-0.070444328 3:-0.010143425 4:-1 5:-1 6:-0.5467842 7:0.40117265 8:0.97494024 9:0.8168334 10:-0.40117265 11:-0.97494024 12:-0.3636176 
-93.91726276011471 -0.4055921821207227 -0.4439177525493342 -0.5385146075253485 -0.4190514060374485 -0.4207510609166912 -0 -0 -35.35347001523194 -0 -0.5381487615856576 -0 -0 -0 1:-0.23207384 2:-0.076386606 3:-0.0041523587 4:-1 5:-1 6:-1 7:1 8:1 9:1 10:-1 11:-1 12:-1 
-0 -0 -0 -0 -0 -0 -0 -0 -75.15205794187821 -0 -0 -0 -6.360782962339795 -0 1:-0.23808347 2:-0.053460103 3:-0.027043269 4:-1 5:-1 6:-0.42510047 7:0.38110099 8:0.98921191 9:0.94050621 10:-0.38110099 11:-0.98921191 12:-0.36560668 
-0 -0 -0 -0 -0 -0 -0 -0 -0 -0 -0 -0 -16.87618828601205 -0 1:-0.23835504 2:-0.037156264 3:-0.010350266 4:-1 5:-1 6:-1 7:0.95931478 8:1 9:0.80759885 10:-0.95931478 11:-1 12:-0.80759885 
-0 -0 -0 -0 -0 -0 -0 -0 -0 -0 -0 -0 -0 -148.8058630294999 1:-0.24087345 2:-0.048760391 3:-0.030473355 4:-1 5:-1 6:-0.89653582 7:0.88363307 8:1 9:0.87574419 10:-0.88363307 11:-1 12:-0.77228001 
-0 -0 -0 -0 -0 -0 -0 -0 -2.394198856157877 -0 -0 -0 -0 -0 1:-0.23217371 2:-0.065643682 3:-0.037216571 4:-1 5:-1 6:-1 7:1 8:1 9:0.88297041 10:-1 11:-1 12:-0.88297041 
-0 -0 -0 -0 -0 -0 -0 -0 -0 -63.10148743139082 -0 -448.3250713103404 -0 -286.4678385673842 1:-0.24047472 2:-0.075597776 3:-0.029740406 4:-1 5:-1 6:-1 7:0.41822026 8:0.95981729 9:0.71202258 10:-0.41822026 11:-0.95981729 12:-0.71202258 
-0 -0 -0 -0 -0 -0 -0 -0 -0 -532.3711163729649 -0 -0 -0 -0 1:-0.20916361 2:-0.11759713 3:-0.055717649 4:-1 5:-1 6:-1 7:0.64745571 8:1 9:0.63439977 10:-0.64745571 11:-1 12:-0.63439977 
-0 -0 -0 -0 -0 -0 -0 -0 -0 -1623.302609429154 -0 -331.467923913852 -0 -86.81740403182511 1:-0.23448372 2:-0.06570248 3:-0.058047911 4:-1 5:-1 6:-1 7:0.32460137 8:1 9:0.56251638 10:-0.32460137 11:-1 12:-0.56251638 
-27.51944140453919 -0.03853924457851 -0.3031305269673462 -2.768614061071622 -0.2340104970676578 -0.1117663631044791 -2.161092712362247 -0 -51.19165397503104 -494.9497773016455 -16.30108051901892 -78.93314001600341 -28.62610703248182 -43.6123505410951 1:-0.21361533 2:-0.10746587 3:-0.052339221 4:-1 5:-1 6:-0.57279191 7:0.45585646 8:0.45957664 9:0.59042905 10:-0.45585646 11:-0.45957664 12:-0.16322095 
-0 -0 -0 -0 -0 -0 -0 -0 -0 -0 -0 -23.61452426750443 -0 -0 1:-0.16653567 2:-0.037054596 3:-0.11155257 4:-1 5:-0.81048505 6:-1 7:0.29306394 8:1 9:0.50054129 10:-0.29306394 11:-0.81048505 12:-0.50054129 
-7.504288247991571 -0.1646764811215307 -0.08119293540030172 -0 -0.0566933641556819 -0.1260572390477569 -0 -0 -1.309049759577916 -59.29595775673106 -0 -0 -12.17102507505247 -218.1339918056636 1:-0.21206333 2:-0.11262254 3:-0.057280737 4:-1 5:-1 6:-1 7:0.58050973 8:0.47978757 9:0.87565614 10:-0.58050973 11:-0.47978757 12:-0.87565614 
-0 -0 -0 -0 -0 -0 -0 -0 -0 -11.87969648481462 -0 -0 -11.99530275622866 -0 1:-0.11745448 2:-0.11238731 3:-0.085993069 4:-1 5:-0.74476564 6:-1 7:0.6777449 8:1 9:0.44711357 10:-0.6777449 11:-0.74476564 12:-0.44711357 
-4096 -0 -0 -0 -0 -0 -0 -0 -0 -0 -0 -0 -0 -0 1:-0.22004409 2:-0.09420084 3:-0.053731131 4:-1 5:-1 6:-0.9921762 7:0.9888595 8:1 9:1 10:-0.9888595 11:-1 12:-0.9921762 
-0 -0 -0 -0 -0 -0 -0 -0 -0 -0 -0 -265.319129667525 -0 -0 1:-0.12301771 2:-0.11154612 3:-0.060028291 4:-1 5:-1 6:-1 7:0.42500089 8:1 9:0.5539823 10:-0.42500089 11:-1 12:-0.5539823 
-0 -0 -0 -0 -0 -0 -0 -0 -0 -0 -0 -0.1992907746593305 -0 -118.2480424853504 1:-0.24306753 2:-0.03466098 3:-0.042351952 4:-1 5:-1 6:-1 7:0.42606841 8:1 9:1 10:-0.42606841 11:-1 12:-1 
-0 -0.3698404424741573 -0.344799031728338 -0.8957010047875275 -0.3905613167834526 -0.3895335495418784 -1.674044659487675 -0 -0 -0 -0 -0 -0.6854255776893844 -882.0099258035323 1:-0.18021816 2:0.012493861 3:-0.087779038 4:-1 5:-1 6:-0.42027986 7:0.2147235 8:1 9:0.31644173 10:-0.2147235 11:-1 12:0.26327841 
