svm_type c_svc
kernel_type rbf
gamma 0.5
nr_class 2
total_sv 57
rho -2.83382
label 1 -1
nr_sv 32 25
SV
682.2926642127303 1:-0.25070387 2:-0.02056153 3:-0.036812124 4:-0.43418973 5:-0.60278281 6:-0.29523764 7:-0.08324206 8:0.32850971 9:0.18661492 10:0.64905233 11:0.068707484 12:0.51814743 
680.5996577986164 1:-0.25114398 2:-0.020522603 3:-0.035465162 4:-0.45887653 5:-0.72266426 6:-0.33731491 7:-0.075613869 8:0.45064563 9:0.3014117 10:0.61673734 11:-0.1733099 12:0.3612734 
1791.549706178701 1:-0.25080415 2:-0.011862631 3:-0.031608257 4:-0.46014725 5:-0.53921563 6:-0.22541148 7:-0.096855578 8:0.30802731 9:0.26040386 10:0.63670833 11:0.15275706 12:0.51418466 
112.684925500083 1:-0.22517173 2:-0.10300833 3:-0.025910333 4:-0.55802259 5:-0.62110588 6:-0.2237641 7:-0.0068165989 8:0.22546624 9:0.081148863 10:0.44879401 11:0.15342788 12:0.69508703 
323.9621988314815 1:-0.22728429 2:-0.10904337 3:-0.022317472 4:-0.54796279 5:-0.42798053 6:-0.22944056 7:-0.095473939 8:0.36402589 9:0.18957654 10:0.54751115 11:0.20799358 12:0.5809829 
189.9746136493717 1:-0.24990953 2:-0.018989013 3:-0.041078227 4:-0.91097714 5:-0.63475631 6:-0.49635895 7:0.039267691 8:0.48434516 9:0.48246998 10:0.049755166 11:-0.11910148 12:0.021171068 
1038.133734618642 1:-0.24777096 2:-0.024522068 3:-0.03766086 4:-0.7922031 5:-0.74997749 6:-0.49554445 7:-0.032562343 8:0.33039562 9:0.42062351 10:0.24035925 11:-0.080373114 12:0.083832043 
180.7328178444225 1:-0.13052221 2:-0.12970209 3:0.010672551 4:-0.37809086 5:-0.32786729 6:-0.48656277 7:0.083840098 8:0.084647306 9:0.13439151 10:0.53806904 11:0.58748541 12:0.37904572 
38.44874154843098 1:-0.029281893 2:-0.071652051 3:-0.13332973 4:-0.37130062 5:-0.35264367 6:-0.39069063 7:0.53767905 8:0.085946195 9:0.18653855 10:0.091020328 11:0.56141014 12:0.42277082 
192.9421042762261 1:-0.10709656 2:-0.10023528 3:0.0061086394 4:-0.4861985 5:-0.47052742 6:-0.17340075 7:0.33984612 8:0.12858262 9:0.18944076 10:0.17395538 11:0.40088996 12:0.63715848 
41.67567147462715 1:-0.11864337 2:-0.028550437 3:0.089045675 4:-0.99027354 5:-0.46857688 6:-0.11257351 7:0.64824497 8:0.6720945 9:0.75942972 10:-0.63851851 11:-0.14067138 12:0.12799677 
115.8581569188987 1:-0.22436628 2:-0.11880356 3:-0.0099857713 4:-0.63904397 5:-0.46822967 6:-0.17128788 7:-0.0053099937 8:0.20638026 9:0.21036661 10:0.36626603 11:0.32539007 12:0.61834551 
681.2120864276463 1:-0.22729794 2:-0.1163162 3:-0.017447433 4:-0.62049122 5:-0.6594128 6:-0.3015117 7:0.22351073 8:0.36465745 9:0.19096045 10:0.15599805 11:-0.024070248 12:0.50752785 
1397.306872303784 1:-0.22475561 2:-0.11014446 3:-0.015376422 4:-0.42885221 5:-0.44824012 6:-0.18275525 7:-0.05886034 8:0.26337281 9:0.12129422 10:0.63000813 11:0.28838706 12:0.69595053 
902.9212849505175 1:-0.22644662 2:-0.10604344 3:-0.018057989 4:-0.54652947 5:-0.73025205 6:-0.22915506 7:-0.066416207 8:0.3766691 9:0.16862784 10:0.51988674 11:-0.10692115 12:0.60221709 
704.2147034944678 1:-0.23626745 2:-0.082170762 3:-0.025412733 4:-1 5:-1 6:-0.32001507 7:0.066410191 8:0.58165895 9:0.2048252 10:-0.066410191 11:-0.58165895 12:0.47515974 
959.8027787738457 1:-0.23680201 2:-0.085553096 3:-0.026293317 4:-1 5:-0.97290344 6:-0.54520333 7:0.032932627 8:0.46765682 9:0.35645192 10:-0.032932627 11:-0.44056026 12:0.098344746 
20.19070730434908 1:-0.08132231 2:-0.14833694 3:0.006021426 4:-0.66348794 5:-0.93889458 6:-0.16527563 7:0.44234369 8:0.0054210918 9:0.24133817 10:-0.10583163 11:0.055684332 12:0.5933862 
165.8484459585211 1:-0.23498384 2:-0.092518405 3:-0.03076054 4:-0.51775165 5:-0.86486983 6:-0.19956374 7:-0.035702279 8:0.10543425 9:0.11982563 10:0.51795063 11:0.029695921 12:0.68061063 
183.8783146705579 1:-0.23430506 2:-0.088026775 3:-0.032169479 4:-0.77290691 5:-0.43287631 6:-0.4054358 7:-0.043603856 8:0.35119049 9:0.3156231 10:0.27069695 11:0.21593319 12:0.2789411 
174.2629645681447 1:-0.24168993 2:-0.069813483 3:-0.031889357 4:-0.48408478 5:-0.68395454 6:-0.29820015 7:-0.12429053 8:0.18223037 9:0.23586082 10:0.64020575 11:0.13381509 12:0.46593903 
39.70028150319735 1:-0.09760233 2:-0.15679265 3:-0.016863015 4:-0.2810536 5:-0.40262286 6:-0.44003192 7:0.10350244 8:-0.032883783 9:0.43234642 10:0.61544396 11:0.63026092 12:0.12762166 
259.8698889077865 1:-0.040362887 2:-0.15381888 3:-0.078943202 4:-0.40825521 5:-1 6:-0.50687939 7:0.33848256 8:0.19941609 9:0.15788468 10:0.25326223 11:-0.19941609 12:0.33523594 
284.9025514361836 1:-0.23522052 2:-0.10782378 3:-0.040202995 4:-0.88390511 5:-0.55051664 6:-0.41381741 7:0.016560905 8:0.21289633 9:0.11659657 10:0.09953399 11:0.23658704 12:0.46958602 
222.0728469947871 1:-0.23037008 2:-0.10082354 3:-0.033307698 4:-0.63050777 5:-0.51793482 6:-0.33679827 7:-0.01860174 8:0.33598798 9:0.19415167 10:0.38809397 11:0.1460772 12:0.46905006 
394.4824711539037 1:-0.21236364 2:-0.12813993 3:-0.056656321 4:-0.91276624 5:-1 6:-0.44530673 7:0.050813122 8:0.3805105 9:0.40701983 10:0.036420643 11:-0.3805105 12:0.14767344 
551.6414255193945 1:-0.21061379 2:-0.13233812 3:-0.055891936 4:-0.52412575 5:-0.76402408 6:-0.45607144 7:-0.0042481632 8:0.41358007 9:0.36473401 10:0.48012242 11:-0.17760415 12:0.17919455 
532.9363719403377 1:-0.23135775 2:-0.080956947 3:-0.042838471 4:-1 5:-1 6:-0.76053884 7:0.87361632 8:0.83987549 9:1 10:-0.87361632 11:-0.83987549 12:-0.76053884 
3972.022939733184 1:-0.21194361 2:-0.10904187 3:-0.050032138 4:-1 5:-1 6:-1 7:1 8:1 9:1 10:-1 11:-1 12:-1 
699.359539778422 1:-0.21830904 2:-0.11996537 3:-0.031280385 4:-0.67498346 5:-0.61514077 6:-0.65237678 7:-0.036738336 8:0.47456111 9:0.36050935 10:0.36175488 11:-0.089701886 12:-0.012886128 
226.5460685515359 1:-0.24972541 2:-0.024077649 3:-0.044994302 4:-0.5200244 5:-0.64733722 6:-0.51014977 7:-0.1186723 8:0.45407012 9:0.29511895 10:0.59864791 11:-0.10140734 12:0.19473128 
225.6078512650279 1:-0.23795379 2:-0.063634869 3:-0.052474353 4:-1 5:-1 6:-0.66461141 7:0.058338092 8:0.81777177 9:0.55526061 10:-0.058338092 11:-0.81777177 12:-0.21987203 
-285.7687514511521 1:-0.2196855 2:-0.065790688 3:0.051445545 4:-1 5:-1 6:-0.77702743 7:1 8:0.91404182 9:1 10:-1 11:-0.91404182 12:-0.77702743 
-667.9087593013934 1:-0.23934896 2:-0.047133286 3:-0.050509849 4:-1 5:-1 6:-0.4440563 7:0.039350262 8:0.54892226 9:0.258178 10:-0.039350262 11:-0.54892226 12:0.2977657 
-798.6199590894961 1:-0.1658076 2:-0.11314629 3:0.0057510768 4:-0.62947594 5:-0.27127312 6:-0.24484618 7:-0.010791096 8:0.20646559 9:0.15403823 10:0.38131515 11:0.5222613 12:0.6011156 
-559.6637664847724 1:-0.16036176 2:-0.1203336 3:0.020169998 4:-0.76833511 5:-0.71225161 6:-0.39399614 7:0.048065598 8:0.30993665 9:0.14508497 10:0.18359929 11:-0.02218826 12:0.46091889 
-803.2404315981157 1:-0.24793339 2:-0.0012243704 3:-0.030471255 4:-0.65000316 5:-0.59336172 6:-0.41372163 7:-0.067906344 8:0.57568777 9:0.49822697 10:0.41790318 11:-0.1690495 12:0.088051399 
-397.6950250893385 1:-0.23143063 2:-0.084471818 3:0.0043044481 4:-0.4167492 5:-0.6378576 6:-0.20019334 7:-0.059337822 8:0.34724595 9:0.27577409 10:0.64258863 11:0.014896448 12:0.52403257 
-3753.187934246343 1:-0.23748594 2:-0.076129576 3:-0.015938242 4:-0.44474897 5:-0.59446307 6:-0.16327135 7:-0.077922303 8:0.29433678 9:0.17175358 10:0.63317333 11:0.11120015 12:0.66497507 
-49.25753421766884 1:-0.094512558 2:-0.12202386 3:-0.05145625 4:-1 5:-1 6:-1 7:1 8:0.5082015 9:0.78166112 10:-1 11:-0.5082015 12:-0.78166112 
-1225.018735672066 1:-0.22749974 2:-0.11067752 3:-0.044668445 4:-0.92062124 5:-0.85628693 6:-0.55231937 7:0.081055585 8:0.3196119 9:0.39105747 10:-0.0016768213 11:-0.17589883 12:0.056623159 
-193.0049483990261 1:-0.069368252 2:-0.15349209 3:-0.038226584 4:-0.32815658 5:-0.54493795 6:-0.11673466 7:0.76542831 8:0.05227491 9:0.19970268 10:-0.093584889 11:0.40278714 12:0.68356266 
-2.803792475848766 1:-0.24127424 2:-0.033855475 3:-0.024776583 4:-0.58225413 5:-1 6:-0.30679666 7:0.06958031 8:0.53578709 9:0.25730073 10:0.34816556 11:-0.53578709 12:0.4359026 
-8.830066460434809 1:-0.039506206 2:-0.12992381 3:-0.027101802 4:-0.40285852 5:-1 6:-0.30231455 7:0.8801757 8:0.30588364 9:0.15415126 10:-0.28303422 11:-0.30588364 12:0.54353418 
-99.21271196813721 1:-0.14845277 2:-0.1284314 3:-0.017765157 4:-0.60343512 5:-1 6:-0.58479231 7:0.062427103 8:0.59087851 9:0.35988877 10:0.33413778 11:-0.59087851 12:0.055318916 
-380.2302397334947 1:-0.24130266 2:-0.062103895 3:-0.037529964 4:-0.86022355 5:-0.70568476 6:-0.31965908 7:0.11876326 8:0.57453009 9:0.23676788 10:0.02101319 11:-0.28021485 12:0.44357303 
-134.7141363652697 1:-0.24263625 2:-0.046663402 3:-0.031144842 4:-0.62869145 5:-0.59850443 6:-0.40108309 7:0.054172908 8:0.42528131 9:0.20541734 10:0.31713564 11:-0.023785747 12:0.39349956 
-436.3873142264317 1:-0.24593917 2:-0.028713426 3:-0.033041114 4:-0.95889233 5:-1 6:-0.34656376 7:0.01435378 8:0.5265037 9:0.38795922 10:0.026753886 11:-0.5265037 12:0.26547702 
-89.70300119178542 1:-0.23054979 2:-0.068279736 3:-0.0071825813 4:-1 5:-1 6:-0.44778668 7:0.10604054 8:0.47906046 9:0.72973232 10:-0.10604054 11:-0.47906046 12:-0.177519 
-84.27392728450698 1:-0.13073846 2:-0.17160254 3:-0.041190455 4:-1 5:-1 6:-0.54508683 7:0.11434254 8:1 9:0.75910576 10:-0.11434254 11:-1 12:-0.30419259 
-22.28473285485047 1:-0.073686251 2:-0.086567546 3:0.065904159 4:-1 5:-1 6:-0.83514235 7:0.82978991 8:0.51361324 9:0.94549719 10:-0.82978991 11:-0.51361324 12:-0.78063954 
-113.1000718062151 1:-0.24421112 2:-0.035754834 3:-0.03371159 4:-1 5:-1 6:-1 7:0.13783833 8:0.67740566 9:0.52049206 10:-0.13783833 11:-0.67740566 12:-0.52049206 
-41.29486346236602 1:0.0020401017 2:-0.11748394 3:-0.0005515538 4:-1 5:-1 6:-0.37121369 7:0.72585149 8:0.58581363 9:1 10:-0.72585149 11:-0.58581363 12:-0.37121369 
-237.677752582674 1:-0.20818361 2:-0.118578 3:-0.030229107 4:-0.50344914 5:-1 6:-0.54932054 7:0.067204473 8:0.38877111 9:0.44179773 10:0.42934639 11:-0.38877111 12:0.0088817282 
-557.4859231265874 1:-0.21916408 2:-0.084970611 3:-0.053937475 4:-0.79816048 5:-1 6:-0.41362456 7:0.092547837 8:0.44928385 9:0.19519594 10:0.10929168 11:-0.44928385 12:0.39117951 
-2950.271008999856 1:-0.23570453 2:-0.059178565 3:-0.050851221 4:-0.51926557 5:-0.59578717 6:-0.46603817 7:-0.040682267 8:0.32000724 9:0.26576331 10:0.52141669 11:0.08420559 12:0.26819852 
-4096 1:-0.22004409 2:-0.09420084 3:-0.053731131 4:-1 5:-1 6:-0.9921762 7:0.9888595 8:1 9:1 10:-0.9888595 11:-1 12:-0.9921762 
