svm_type c_svc
kernel_type rbf
gamma 0.5
nr_class 2
total_sv 363
rho 0.412387
label 1 -1
nr_sv 154 209
SV
0.5586472594106445 1:22.556008 2:22.250379 3:22.678595 4:20.204346 5:16.553914 6:20.190197 7:24.500366 8:27.626286 9:25.636686 10:1.2160131 11:1.5567427 12:1.2738612 
0.3954977715514896 1:22.482844 2:22.285075 3:22.737234 4:20.1925 5:16.884457 6:20.874991 7:24.16306 8:25.951057 9:25.161871 10:1.1996483 11:1.4558882 12:1.2155536 
0.2183748692408956 1:24.528926 2:20.215299 3:23.357637 4:22.411693 5:19.423457 6:22.360662 7:25.5716 8:22.84734 9:23.950923 10:1.1588869 11:1.1721602 12:1.0799618 
1.000440821087356 1:25.61485 2:20.137589 3:23.979373 4:23.087471 5:17.398771 6:22.896069 7:29.806086 8:21.292003 9:25.2208 10:1.3378264 11:1.1957601 12:1.1168925 
0.7231168763019528 1:25.85673 2:20.34596 3:23.852035 4:23.227031 5:18.228714 6:22.727963 7:29.5006 8:22.248803 9:25.769229 10:1.3154485 11:1.2021387 12:1.1529214 
0.2006539363189776 1:25.951836 2:20.579665 3:23.576239 4:22.983629 5:17.784971 6:22.533924 7:29.559143 8:21.714491 9:25.00352 10:1.330631 11:1.1975847 12:1.1241766 
0.2385233262207023 1:22.847355 2:21.730621 3:22.756363 4:22.439128 5:21.041189 6:22.484188 7:23.257243 8:22.999091 9:23.018669 10:1.0411366 11:1.0984476 12:1.0268748 
0.2607403010431417 1:22.763954 2:21.7567 3:22.712802 4:22.410093 5:21.121666 6:21.626349 7:23.07498 8:22.553007 9:23.226943 10:1.0334319 11:1.0719709 12:1.0804813 
1.366530010085324 1:22.57016 2:21.810296 3:22.923736 4:15.005971 5:16.999514 6:21.310474 7:25.8348 8:24.556211 9:26.921543 10:1.5444968 11:1.379967 12:1.2821366 
1.365468281705364 1:22.618478 2:21.700571 3:22.974551 4:17.104429 5:17.225257 6:21.80648 7:25.203326 8:23.930106 9:28.084971 10:1.40723 11:1.3371342 12:1.3156961 
1.412406484905471 1:22.624622 2:21.938329 3:22.898944 4:17.296343 5:12.819486 6:21.417666 7:25.270043 8:24.232637 9:27.444057 10:1.4009348 11:1.5738778 12:1.3030199 
0.07996558044342936 1:22.587512 2:22.373173 3:22.494076 4:19.3774 5:17.3632 6:19.666771 7:24.134963 8:26.274971 9:24.22668 10:1.2392205 11:1.4481031 12:1.229282 
1.172515813257583 1:22.561276 2:22.034809 3:22.832759 4:16.450971 5:15.992343 6:17.711457 7:24.078214 8:27.039543 9:26.200371 10:1.3835142 11:1.555477 12:1.4268409 
1.12606284682076 1:22.510214 2:21.969526 3:22.903575 4:16.720171 5:15.469429 6:20.167091 7:24.133546 8:27.209857 9:24.807663 10:1.3727604 11:1.590334 12:1.2333379 
1.012589159296451 1:22.531721 2:22.266389 3:22.513938 4:18.701629 5:18.317714 6:20.241694 7:23.960446 8:25.268531 9:26.6764 10:1.2644247 11:1.3495021 12:1.3235509 
0.6027829195354046 1:22.516887 2:22.342511 3:22.546642 4:18.513543 5:17.952229 6:19.82422 7:24.20532 8:26.423343 9:26.101914 10:1.2861948 11:1.4259459 12:1.315656 
0.3774958008571192 1:24.428431 2:21.046736 3:22.920544 4:22.61304 5:20.060954 6:22.287109 7:25.905 8:22.537239 9:23.615989 10:1.1655269 11:1.1245129 12:1.0668189 
0.6148193604503076 1:26.565623 2:21.443608 3:23.263513 4:23.532309 5:19.198 6:21.691243 7:29.674143 8:23.719474 9:24.488994 10:1.3088247 11:1.2273495 12:1.140677 
0.1590054582532408 1:26.263675 2:21.523573 3:23.055149 4:22.97764 5:19.868597 6:21.674314 7:29.861943 8:23.720151 9:24.52394 10:1.3461576 11:1.1936644 12:1.1432853 
1.047442514577346 1:26.396588 2:21.648068 3:22.929899 4:23.052143 5:20.125909 6:20.747614 7:30.433086 8:23.767309 9:23.978591 10:1.3711297 11:1.1830974 12:1.1624605 
0.3201446831719125 1:20.38418 2:23.671196 3:22.158197 4:19.524343 5:21.454431 6:21.552049 7:22.409726 8:24.812043 9:23.557657 10:1.1450833 11:1.1688279 12:1.1008463 
0.8867663213202103 1:22.744983 2:21.992146 3:22.553451 4:19.075229 5:16.187743 6:20.344226 7:25.176729 8:25.644486 9:23.661823 10:1.3067966 11:1.4755054 12:1.1668159 
0.483373716284432 1:22.772017 2:22.003642 3:22.634321 4:20.691326 5:18.692657 6:20.897343 7:24.618291 8:23.407474 9:24.39274 10:1.1974563 11:1.2370712 12:1.1757561 
1.020245066171947 1:22.715484 2:22.116555 3:22.568269 4:18.689257 5:19.431657 6:20.844237 7:24.100997 8:26.019057 9:24.511297 10:1.2721139 11:1.3312287 12:1.1843877 
0.7384750707642205 1:22.670086 2:21.917812 3:22.552562 4:18.021543 5:16.729086 6:20.18174 7:24.672617 8:27.181771 9:25.024029 10:1.3344303 11:1.5255836 12:1.2434807 
1.851122456624154 1:22.573113 2:22.216569 3:22.448518 4:19.843771 5:16.209114 6:17.594286 7:23.954117 8:27.996714 9:25.154149 10:1.206677 11:1.5927059 12:1.3801262 
0.2980930155909999 1:22.633405 2:22.195613 3:22.396794 4:19.6438 5:16.690629 6:18.992114 7:24.114191 8:27.259714 9:24.495066 10:1.2247809 11:1.5314364 12:1.2767003 
0.6976127574196728 1:22.583587 2:22.206638 3:22.453345 4:20.343891 5:16.915971 6:19.420629 7:23.881343 8:27.300943 9:24.4743 10:1.1778707 11:1.5221787 12:1.2541095 
1.398138242343655 1:27.134396 2:21.687908 3:22.677971 4:23.281714 5:15.069971 6:20.455874 7:28.888857 8:24.236709 9:24.410523 10:1.2819392 11:1.4609233 12:1.1988483 
1.311912834767089 1:26.588892 2:21.146457 3:22.35728 4:23.246217 5:6.0414571 6:18.727286 7:32.146829 8:24.434146 9:23.63644 10:1.4475419 11:1.924824 12:1.2468429 
1.411904067376042 1:26.677965 2:21.097833 3:22.398608 4:23.418671 5:7.6726286 6:21.228923 7:29.825457 8:23.697943 9:24.073643 10:1.322147 11:1.8057873 12:1.1430387 
1.406180565506793 1:19.920303 2:24.487303 3:24.09794 4:19.495057 5:22.302023 6:23.565574 7:20.211666 8:24.943763 9:24.82238 10:1.0360326 11:1.1328324 12:1.0631949 
0.1386979889065225 1:20.978447 2:23.638484 3:22.959763 4:19.064514 5:21.229577 6:22.260911 7:23.016214 8:25.495229 9:24.083963 10:1.1987 11:1.2144861 12:1.091667 
1.088995485932045 1:20.722251 2:23.793308 3:23.262995 4:19.137371 5:21.577257 6:22.534155 7:23.002286 8:26.757514 9:24.427529 10:1.1943362 11:1.2604745 12:1.0952029 
0.1836897973096348 1:22.880717 2:21.885917 3:22.362841 4:22.590402 5:21.294171 6:21.943274 7:23.276866 8:22.605026 9:22.609929 10:1.0345169 11:1.0659126 12:1.0335208 
0.1262832521601806 1:22.75405 2:21.989961 3:22.412861 4:20.987449 5:17.683257 6:20.492523 7:24.490829 8:23.708529 9:23.695523 10:1.1761575 11:1.3029636 12:1.1610537 
0.4318753432024322 1:22.683038 2:22.071741 3:22.359684 4:20.467551 5:18.579314 6:20.873983 7:24.884783 8:24.181723 9:23.450051 10:1.2221079 11:1.2817012 12:1.1295303 
1.334850635417151 1:22.755389 2:21.891637 3:22.568214 4:16.958486 5:8.9505143 6:18.414571 7:25.5904 8:28.2184 9:25.7746 10:1.4340312 11:1.9688308 12:1.3700781 
1.335290618729859 1:22.725808 2:21.821185 3:22.517752 4:16.304229 5:8.6402 6:19.463029 7:24.379646 8:29.055743 9:24.395394 10:1.4060494 11:2.0265375 12:1.24801 
1.357095248012764 1:22.789869 2:21.876708 3:22.520609 4:18.698229 5:11.791143 6:20.426843 7:24.466186 8:28.160714 9:25.889743 10:1.2900253 11:1.8230973 12:1.2746864 
1.330597660300273 1:22.603596 2:22.02078 3:22.534762 4:16.481571 5:14.268171 6:17.435429 7:24.997446 8:26.346743 9:27.717114 10:1.4281965 11:1.6073366 12:1.5169853 
1.11748840492513 1:22.524563 2:22.06325 3:22.510451 4:14.504914 5:16.252943 6:18.516343 7:25.477229 8:27.488971 9:28.158286 10:1.5517116 11:1.5649717 12:1.4848177 
1.05100262223436 1:22.539306 2:22.205918 3:22.521443 4:15.150829 5:15.5218 6:17.421914 7:25.802714 8:28.070114 9:28.412371 10:1.5355998 11:1.6309563 12:1.5526239 
1.406707159460035 1:24.261889 2:20.665409 3:23.223205 4:21.123654 5:19.117771 6:17.537629 7:26.2892 8:23.621634 9:24.500129 10:1.2597348 11:1.2264639 12:1.3500895 
0.6925790647776318 1:24.848054 2:20.253054 3:23.51308 4:21.856237 5:19.019486 6:22.354948 7:26.601943 8:23.370734 9:24.057454 10:1.2386243 11:1.2187902 12:1.0856057 
1.416533750995749 1:24.978444 2:22.960412 3:24.962326 4:14.261086 5:17.616857 6:21.629871 7:32.639571 8:30.477829 9:31.319314 10:1.9241099 11:1.6466774 12:1.4872061 
0.667846750299492 1:25.974653 2:20.839131 3:23.485059 4:22.652351 5:18.017829 6:21.786514 7:29.173743 8:23.101563 9:24.973286 10:1.3279096 11:1.2556211 12:1.1602377 
1.378966021596286 1:25.175239 2:20.895627 3:22.725414 4:21.2148 5:18.723029 6:18.968943 7:31.398629 8:23.643531 9:24.964429 10:1.5120648 11:1.2474135 12:1.3014659 
0.4967230677053033 1:20.751978 2:24.35141 3:21.991977 4:19.079543 5:22.03088 6:20.727031 7:22.84219 8:26.160857 9:23.670211 10:1.189194 11:1.2076641 12:1.1479894 
1.043936535714118 1:21.965171 2:23.415496 3:22.23207 4:19.5726 5:21.187626 6:20.87544 7:24.24366 8:25.558743 9:23.037383 10:1.234871 11:1.2197892 12:1.1087071 
1.365779271917705 1:20.979065 2:24.213326 3:21.841283 4:19.3274 5:21.365089 6:19.555343 7:23.15784 8:28.108 9:23.253051 10:1.1926028 11:1.3390481 12:1.1859288 
0.9777102320310805 1:23.090463 2:21.204306 3:23.14663 4:21.862997 5:18.149714 6:22.53506 7:24.516843 8:22.787327 9:23.82484 10:1.1334411 11:1.2331892 12:1.0648529 
0.05718691783413915 1:23.064051 2:21.39683 3:22.949517 4:22.347115 5:20.08396 6:22.313228 7:23.949831 8:22.827536 9:23.695146 10:1.080588 11:1.1379529 12:1.0694858 
0.4204028781929573 1:23.183262 2:21.274202 3:23.051053 4:22.489914 5:19.213486 6:22.104371 7:24.198774 8:22.713966 9:23.824157 10:1.0859252 11:1.1760117 12:1.0864745 
0.9451769756223234 1:22.668904 2:21.706885 3:22.663538 4:16.849229 5:18.4228 6:21.177386 7:25.141317 8:24.767283 9:24.38298 10:1.4169441 11:1.3190143 12:1.1611842 
0.5953697930962305 1:22.832841 2:21.428459 3:22.819342 4:18.2092 5:18.224 6:21.519789 7:25.31198 8:25.088 9:24.70146 10:1.3571431 11:1.3451367 12:1.1599813 
1.037887342067845 1:22.754088 2:21.46405 3:22.781219 4:20.95388 5:17.718743 6:20.800511 7:24.449843 8:26.408829 9:25.307394 10:1.1757845 11:1.4369562 12:1.2266158 
0.6593313698322371 1:22.685238 2:21.756452 3:22.72323 4:19.220143 5:14.897629 6:20.43332 7:24.527723 8:27.117829 9:24.601377 10:1.2668766 11:1.614458 12:1.2095789 
0.9316512269318586 1:22.881144 2:21.513037 3:22.867195 4:21.674283 5:18.577057 6:21.42524 7:24.084671 8:24.460437 9:23.732054 10:1.1211995 11:1.295829 12:1.1159916 
1.405327935737497 1:22.480436 2:22.359879 3:22.431544 4:19.234629 5:11.348943 6:13.733486 7:24.255397 8:29.112829 9:28.208257 10:1.2524551 11:1.8932064 12:1.7278227 
1.181136640591307 1:22.543051 2:22.287078 3:22.464426 4:18.815743 5:11.537657 6:16.196914 7:24.357771 8:30.789971 9:27.125029 10:1.2786651 11:1.9680478 12:1.5494891 
1.16836946061216 1:22.553966 2:22.259304 3:22.572587 4:19.340229 5:11.934543 6:17.370286 7:24.530443 8:29.688114 9:26.635629 10:1.2609752 11:1.8926878 12:1.4658814 
1.031163299859197 1:25.88794 2:20.708486 3:22.905785 4:23.401197 5:13.1558 6:20.695909 7:29.429771 8:22.518971 9:25.392609 10:1.3031297 11:1.4708004 12:1.2361602 
1.050996000717493 1:26.811867 2:20.886543 3:22.64952 4:23.859571 5:12.762514 6:20.16204 7:29.798857 8:22.254189 9:24.829437 10:1.2986401 11:1.4772618 12:1.2346868 
1.125901725081836 1:26.426247 2:20.882162 3:22.551958 4:23.7393 5:19.671829 6:21.746243 7:29.179286 8:22.565931 9:25.290811 10:1.2735342 11:1.1455217 12:1.1782285 
0.8243699274453862 1:20.351624 2:24.187076 3:22.71938 4:19.6526 5:22.21336 6:22.433833 7:22.163629 8:25.400589 9:23.153474 10:1.1262599 11:1.1602607 12:1.0361851 
0.7871161201098349 1:22.604263 2:21.917002 3:22.778237 4:17.625743 5:16.273 6:18.693714 7:24.377594 8:24.171363 9:24.110383 10:1.3394976 11:1.3971467 12:1.2723618 
1.294326643297634 1:21.999678 2:23.647738 3:22.186054 4:13.384029 5:13.535629 6:19.780083 7:24.731677 8:26.607629 9:24.265403 10:1.5705842 11:1.6572883 12:1.2255316 
1.362266654433117 1:22.457759 2:22.365895 3:22.752944 4:14.018829 5:14.140971 6:20.101354 7:24.487989 8:28.773143 9:25.239823 10:1.5264119 11:1.7357371 12:1.2583733 
1.328620424769882 1:22.661976 2:21.902171 3:22.58854 4:16.619343 5:12.754971 6:20.264346 7:24.465617 8:27.304429 9:24.588446 10:1.3945276 11:1.7315781 12:1.2174251 
1.277262857258798 1:22.659608 2:22.168331 3:22.800866 4:13.744 5:12.505686 6:19.4676 7:25.651114 8:26.654914 9:24.262254 10:1.5987154 11:1.7114537 12:1.2410855 
0.009060710917504773 1:22.511907 2:22.159464 3:22.679525 4:19.916983 5:15.151086 6:20.217454 7:23.93346 8:27.401343 9:25.466457 10:1.2019571 11:1.6159693 12:1.2639312 
0.5320395651151084 1:22.637883 2:22.150875 3:22.551612 4:19.758689 5:15.911829 6:20.837923 7:23.906223 8:27.545057 9:25.025469 10:1.208547 11:1.5849438 12:1.2105588 
0.8535472572331809 1:22.511375 2:22.245032 3:22.519505 4:19.602257 5:13.9176 6:20.027683 7:23.957054 8:27.057 9:25.372211 10:1.2189686 11:1.6606773 12:1.2687344 
0.5055863521756091 1:24.246534 2:20.650565 3:23.248161 4:22.557635 5:19.478686 6:22.471203 7:25.827629 8:22.556883 9:24.427454 10:1.1644223 11:1.1547784 12:1.0983645 
0.1558508402647496 1:24.466123 2:20.584784 3:23.268374 4:22.529504 5:19.311629 6:22.466726 7:26.9156 8:22.613115 9:24.213946 10:1.2205423 11:1.1660059 12:1.087854 
1.318725067123698 1:25.40883 2:20.740095 3:23.473809 4:22.292214 5:16.108771 6:22.172743 7:28.684457 8:23.03526 9:26.1636 10:1.3214157 11:1.3482788 12:1.2006689 
1.389736656550793 1:25.444525 2:20.602662 3:23.48566 4:20.629037 5:13.391171 6:20.758003 7:30.039857 8:23.004606 9:26.417514 10:1.4731963 11:1.4833842 12:1.2845724 
1.398734123399894 1:25.447238 2:20.827839 3:23.523071 4:17.918857 5:12.457457 6:20.994206 7:30.312629 8:22.781227 9:25.5696 10:1.6231855 11:1.5191014 12:1.2300607 
0.4856834577399894 1:21.072336 2:23.865921 3:21.872177 4:19.753989 5:21.958451 6:21.366246 7:23.22012 8:26.250743 9:22.704863 10:1.1742846 11:1.2158257 12:1.0673086 
0.55355845384281 1:20.491646 2:24.307639 3:22.033537 4:19.778114 5:20.452831 6:21.111003 7:22.960351 8:25.443231 9:22.95114 10:1.1600097 11:1.2509281 12:1.0925261 
0.3875454981489618 1:20.697889 2:24.21124 3:21.824454 4:19.954697 5:21.817023 6:21.272866 7:23.305969 8:25.345231 9:22.511334 10:1.1685091 11:1.1774059 12:1.0622729 
0.2854853131508494 1:22.76069 2:21.965944 3:22.606104 4:22.320543 5:20.733349 6:21.597889 7:23.315623 8:22.90102 9:23.617626 10:1.0500348 11:1.1089952 12:1.1015567 
0.4377518630499513 1:22.669165 2:21.89104 3:22.615467 4:19.524771 5:17.967457 6:21.363471 7:24.892914 8:24.229209 9:23.823109 10:1.2699218 11:1.3148544 12:1.1236759 
0.08927744951183132 1:22.645771 2:22.156219 3:22.665259 4:19.908989 5:18.533229 6:20.400943 7:24.624591 8:24.373697 9:23.9731 10:1.2371107 11:1.2936713 12:1.1796158 
0.8408031328639362 1:22.728955 2:21.911261 3:22.601714 4:18.348143 5:19.376057 6:21.234617 7:24.62158 8:24.163931 9:24.980629 10:1.3154419 11:1.2407446 12:1.1883575 
0.06810144088758831 1:22.668964 2:21.933949 3:22.703576 4:18.505314 5:18.169686 6:21.213174 7:24.239451 8:24.691291 9:24.936583 10:1.2883248 11:1.3279204 12:1.187221 
0.4827236373708867 1:22.57726 2:22.280032 3:22.359499 4:19.171857 5:16.156514 6:19.898323 7:23.694817 8:25.044543 9:25.270754 10:1.2274242 11:1.4469092 12:1.2701374 
0.7182623327212236 1:22.602898 2:22.18556 3:22.37108 4:19.904131 5:15.4824 6:19.406914 7:23.728586 8:25.097506 9:25.396786 10:1.1923018 11:1.4834682 12:1.3011836 
1.410044716214692 1:25.015077 2:20.745948 3:22.490306 4:22.177989 5:18.808514 6:17.784743 7:26.450486 8:22.504707 9:27.562343 10:1.2148304 11:1.1858526 12:1.4916388 
0.2552981600588177 1:24.903075 2:20.838129 3:22.632828 4:22.414826 5:17.982971 6:21.510197 7:26.975429 8:22.660909 9:23.34364 10:1.2293169 11:1.2352168 12:1.0921895 
1.412759151343287 1:25.914336 2:21.249804 3:21.377129 4:20.755923 5:10.789486 6:16.9204 7:29.1064 8:25.584257 9:24.364089 10:1.41988 11:1.743913 12:1.3742847 
1.312473312612683 1:25.949726 2:21.416304 3:21.569515 4:22.170543 5:5.2041143 6:18.230829 7:30.816629 8:24.52046 9:23.219494 10:1.4347438 11:1.9712675 12:1.2508409 
1.274450460617579 1:26.50138 2:21.56602 3:21.714225 4:23.013989 5:19.552 6:17.919686 7:29.002257 8:23.812891 9:23.410737 10:1.301103 11:1.2142468 12:1.2761019 
0.4987427295122941 1:20.22866 2:24.047212 3:22.875536 4:17.904686 5:21.677966 6:21.196289 7:22.837838 8:25.246406 9:24.502983 10:1.2480495 11:1.1794289 12:1.1662677 
0.6328383806201718 1:20.120943 2:24.134493 3:22.800118 4:18.387857 5:22.14456 6:21.099737 7:22.199286 8:26.307286 9:24.044511 10:1.1916468 11:1.2093108 12:1.1480696 
0.6447999929599287 1:20.142471 2:24.096737 3:22.875409 4:17.575543 5:21.701509 6:21.834806 7:22.756522 8:25.43194 9:24.132043 10:1.2605108 11:1.1875741 12:1.11551 
0.3446479379674624 1:22.65012 2:22.576204 3:22.566542 4:22.411487 5:21.403851 6:22.011009 7:23.42178 8:23.036031 9:22.876614 10:1.0507997 11:1.0820695 12:1.0435245 
0.8869236015102846 1:22.637681 2:21.988519 3:22.369526 4:16.628743 5:17.271971 6:18.9838 7:25.3324 8:24.253849 9:23.542274 10:1.4376386 11:1.3510638 12:1.2292099 
0.1728916761573949 1:22.688939 2:21.844467 3:22.291834 4:17.013257 5:17.398714 6:19.269486 7:25.293929 8:24.258466 9:23.517403 10:1.41637 11:1.3449231 12:1.2135944 
1.382061418982254 1:22.664259 2:21.894829 3:22.28856 4:18.702486 5:12.977514 6:18.320686 7:25.043414 8:24.600343 9:24.40612 10:1.3188356 11:1.5844209 12:1.3059887 
0.7102148733701902 1:22.718736 2:21.93627 3:22.247699 4:17.665829 5:17.153686 6:18.980429 7:24.730663 8:28.639743 9:27.239629 10:1.3552351 11:1.5775437 12:1.4152904 
1.012194585123569 1:22.711174 2:21.995766 3:22.508945 4:17.407143 5:15.780086 6:18.907314 7:24.958037 8:29.292771 9:27.505657 10:1.3796752 11:1.679447 12:1.4323432 
0.4861827158484912 1:22.699021 2:22.061048 3:22.317141 4:18.232771 5:18.4288 6:19.815663 7:25.098137 8:25.079434 9:24.799746 10:1.3452054 11:1.3344082 12:1.2506104 
0.9876484461634341 1:22.657054 2:22.090401 3:22.432515 4:18.107257 5:14.240057 6:17.534714 7:24.888754 8:29.109029 9:25.657429 10:1.3409883 11:1.7476439 12:1.4084276 
0.4593866290374434 1:22.661171 2:22.025286 3:22.420961 4:17.542029 5:14.303286 6:18.091 7:25.0842 8:28.487029 9:25.912257 10:1.3792366 11:1.7131892 12:1.3932697 
0.884036142302027 1:22.673438 2:22.092726 3:22.397365 4:16.789629 5:15.1898 6:18.902457 7:24.47494 8:28.774629 9:25.701857 10:1.386434 11:1.6830745 12:1.3418885 
0.04559437941228459 1:22.612641 2:22.57638 3:22.693145 4:22.59709 5:22.546447 6:22.678645 7:22.629727 8:22.602445 9:22.70765 10:1.0016411 11:1.0028157 12:1.0014585 
1.175693101961484 1:22.59975 2:22.667841 3:22.603061 4:22.583057 5:22.647266 6:22.590894 7:22.614934 8:22.695131 9:22.619225 10:1.0016029 11:1.0024068 12:1.0014245 
0.3915709606628965 1:24.714908 2:20.820248 3:22.40287 4:22.64074 5:19.717514 6:21.832497 7:26.071886 8:22.575917 9:22.772988 10:1.1725254 11:1.1437266 12:1.0472899 
0.6020786145756767 1:25.270441 2:20.709234 3:22.440939 4:22.651492 5:19.767349 6:21.675431 7:27.0178 8:23.043054 9:22.912774 10:1.2195474 11:1.1647095 12:1.0622163 
1.135769566975777 1:26.320917 2:21.497344 3:22.713608 4:21.636834 5:17.592171 6:21.793477 7:29.8202 8:24.106026 9:23.924529 10:1.4114773 11:1.3275306 12:1.1071539 
1.381265294018917 1:26.042323 2:21.441177 3:22.413765 4:20.166023 5:18.575029 6:20.884583 7:30.367686 8:25.699371 9:24.872749 10:1.5129616 11:1.3582273 12:1.2005336 
0.3673299638938648 1:26.208957 2:21.510058 3:22.837254 4:22.03822 5:19.009429 6:21.290697 7:29.549857 8:23.695671 9:23.880846 10:1.3777013 11:1.2356344 12:1.1302383 
0.2952350484816845 1:20.609395 2:23.586595 3:23.026826 4:19.468114 5:21.751351 6:21.94476 7:23.19826 8:24.699417 9:23.353926 10:1.1875598 11:1.1482351 12:1.0708559 
0.2830576536638759 1:20.216377 2:23.906925 3:22.843935 4:19.448971 5:21.628117 6:21.733291 7:23.455966 8:24.656231 9:23.314603 10:1.2014803 11:1.1522601 12:1.0795117 
0.284511448459161 1:22.886478 2:21.970765 3:22.274465 4:20.382817 5:16.224314 6:20.179974 7:24.515174 8:24.446414 9:23.757966 10:1.2077838 11:1.4134249 12:1.1799091 
1.119103920263032 1:22.929204 2:21.713934 3:22.303929 4:21.004306 5:16.400571 6:18.875714 7:24.653646 8:23.074683 9:24.16638 10:1.1834967 11:1.3355887 12:1.2660261 
0.6903565195942993 1:22.907377 2:21.666996 3:22.262755 4:20.854031 5:16.036829 6:19.758314 7:24.898126 8:24.271666 9:23.75908 10:1.2033458 11:1.4140654 12:1.2011671 
0.6127490448897094 1:23.052874 2:21.650041 3:22.365267 4:19.687 5:15.811457 6:19.263114 7:24.629963 8:26.184371 9:25.9384 10:1.2485428 11:1.5215725 12:1.3356477 
0.7927523375788489 1:22.926497 2:21.810365 3:22.338167 4:20.293226 5:13.495686 6:18.937343 7:24.339737 8:26.394743 9:26.071743 10:1.2034673 11:1.6485924 12:1.358733 
0.838823933876665 1:22.923285 2:21.798454 3:22.376967 4:20.271423 5:14.390029 6:18.203 7:24.182706 8:26.481143 9:26.621686 10:1.1966677 11:1.6079673 12:1.4233097 
0.9954908671621393 1:22.567373 2:22.178472 3:22.567209 4:17.906229 5:17.890029 6:17.222 7:24.229714 8:27.455543 9:27.798314 10:1.3179585 11:1.4809747 12:1.5317999 
1.059049497325236 1:22.546538 2:22.114553 3:22.58283 4:16.8986 5:16.725686 6:16.746314 7:24.317297 8:28.436429 9:28.161857 10:1.3730281 11:1.5888414 12:1.5739981 
0.3101169572008313 1:22.563588 2:22.291987 3:22.576539 4:17.1256 5:17.148086 6:17.747171 7:24.247851 8:27.454114 9:27.6308 10:1.3581221 11:1.5182093 12:1.4969701 
0.3114665509090775 1:25.127102 2:20.682905 3:22.68811 4:22.499971 5:19.1956 6:21.871277 7:27.531086 8:22.511162 9:23.757989 10:1.2529753 11:1.1667136 12:1.0948679 
0.3887070632936041 1:24.992614 2:20.766519 3:22.545069 4:22.328396 5:18.956143 6:21.317103 7:26.969286 8:23.634674 9:23.706277 10:1.2333539 11:1.2352466 12:1.1201328 
1.406398393955396 1:25.44998 2:21.937802 3:21.089624 4:22.562983 5:18.490743 6:15.661029 7:30.8276 8:23.844823 9:23.252557 10:1.4155627 11:1.2692147 12:1.3817184 
0.8856983966398024 1:25.862669 2:21.300919 3:21.858108 4:22.71983 5:18.087229 6:18.646457 7:29.005943 8:22.834805 9:23.481291 10:1.3160793 11:1.2387184 12:1.2431059 
0.9540342226899448 1:26.199976 2:21.211976 3:22.025909 4:22.9298 5:17.919514 6:19.98792 7:28.291257 8:22.850853 9:23.570903 10:1.2695856 11:1.2479583 12:1.1801601 
0.4081985471514626 1:23.316947 2:21.372439 3:22.714901 4:22.12286 5:20.677426 6:21.947357 7:23.890394 8:22.266089 9:23.20104 10:1.0888754 11:1.0798814 12:1.0630379 
0.334736524543924 1:23.041716 2:21.706738 3:22.604915 4:22.001474 5:21.036671 6:21.981069 7:24.457971 8:23.087311 9:23.140003 10:1.123518 11:1.1031106 12:1.0582737 
0.6609500345409161 1:22.863051 2:21.766994 3:22.647243 4:20.269354 5:17.459057 6:20.902669 7:24.915783 8:23.140946 9:24.120469 10:1.2336324 11:1.2856976 12:1.1617979 
0.6402372944516626 1:22.842848 2:21.853903 3:22.562682 4:17.900286 5:15.581171 6:20.583677 7:24.964891 8:24.056243 9:23.876091 10:1.3552236 11:1.4261449 12:1.1655497 
0.6557330425429055 1:22.761846 2:21.801082 3:22.557414 4:17.380514 5:16.333171 6:20.739926 7:24.857597 8:23.86182 9:23.846514 10:1.3759638 11:1.3785567 12:1.156206 
1.347581144693523 1:22.873346 2:21.791049 3:22.598498 4:18.763629 5:17.716257 6:19.052057 7:24.659486 8:28.816486 9:25.8888 10:1.2964564 11:1.5581434 12:1.3437662 
0.8829936423244085 1:22.858693 2:22.175277 3:22.519002 4:19.287971 5:17.905086 6:18.719314 7:24.268897 8:25.079163 9:24.583037 10:1.2504517 11:1.3607281 12:1.2948406 
0.26735678390948 1:22.895349 2:21.822583 3:22.630046 4:19.953814 5:18.021114 6:19.498686 7:24.391403 8:25.547771 9:24.551917 10:1.2231315 11:1.3784565 12:1.2540874 
0.6915053422926986 1:22.532842 2:22.241657 3:22.493928 4:19.618343 5:15.491171 6:18.150143 7:24.186817 8:28.053257 9:25.909286 10:1.2297127 11:1.6316487 12:1.3901464 
0.7480943625493358 1:22.531757 2:22.338056 3:22.515017 4:19.520829 5:16.723371 6:17.349971 7:24.01962 8:27.634914 9:26.379629 10:1.2262089 11:1.5486559 12:1.4540306 
0.8298651955374201 1:24.417419 2:20.459483 3:22.376366 4:21.956954 5:18.165057 6:21.677163 7:26.176714 8:22.322762 9:22.80123 10:1.2121786 11:1.2090583 12:1.0565205 
0.353273320983254 1:24.617425 2:20.361596 3:22.314844 4:22.512646 5:18.1962 6:21.2717 7:26.735257 8:22.646759 9:23.754483 10:1.212322 11:1.2237837 12:1.1248397 
1.402919348729088 1:25.209531 2:22.094092 3:21.179653 4:21.888777 5:19.005657 6:15.955743 7:27.232029 8:24.265649 9:23.370934 10:1.2686702 11:1.2644837 12:1.3728518 
0.9225836837549271 1:25.87045 2:20.83105 3:22.249052 4:21.972891 5:18.563314 6:20.239323 7:29.868029 8:22.897846 9:23.742649 10:1.3969845 11:1.2179496 12:1.1761548 
1.33950779811319 1:25.065993 2:20.834731 3:23.456021 4:21.530909 5:18.530829 6:21.375506 7:27.613829 8:23.265366 9:26.365086 10:1.3058623 11:1.2380627 12:1.2508868 
0.003071917850924172 1:20.85546 2:24.149397 3:22.913689 4:20.153189 5:21.670443 6:22.051611 7:23.215906 8:25.405751 9:23.399043 10:1.154 11:1.1878194 12:1.0677518 
0.9400528433216968 1:20.833492 2:24.243183 3:22.856766 4:20.050049 5:20.105126 6:21.417177 7:23.964691 8:25.349403 9:23.457929 10:1.1968367 11:1.2636936 12:1.1026134 
0.666267524565895 1:22.86564 2:21.851827 3:22.352654 4:22.281391 5:20.015637 6:21.6201 7:24.77692 8:23.053766 9:23.10358 10:1.1254806 11:1.1527637 12:1.0745926 
0.5782698286187706 1:22.646595 2:21.973684 3:22.407744 4:16.755686 5:15.886571 6:18.880057 7:24.89622 8:25.091591 9:24.202426 10:1.4093236 11:1.4628482 12:1.2676202 
0.4527507706815309 1:22.695418 2:22.061653 3:22.438917 4:16.769 5:14.389514 6:19.531914 7:25.057711 8:24.795177 9:23.77168 10:1.4167743 11:1.5232191 12:1.2131846 
1.003843815836389 1:22.661699 2:21.906096 3:22.436098 4:15.9962 5:14.151257 6:19.190743 7:25.322 8:24.996271 9:23.697274 10:1.4689213 11:1.5453107 12:1.2265981 
1.330359508125209 1:22.657587 2:22.205081 3:22.484346 4:10.193114 5:4.9936286 6:16.844257 7:25.014403 8:31.748943 9:27.696371 10:1.7452463 11:2.3453149 12:1.5456677 
1.330788019312274 1:22.657631 2:22.026591 3:22.42157 4:8.5107429 5:3.6909429 6:16.361171 7:25.178394 8:30.891143 9:27.804457 10:1.8380854 11:2.3676847 12:1.5753931 
1.375344764286503 1:22.572151 2:22.147043 3:22.493261 4:14.139229 5:11.491771 6:18.958171 7:24.128483 8:28.276829 9:25.716314 10:1.5022812 11:1.8439888 12:1.339814 
-0.5875422743720817 1:23.006576 2:21.564814 3:22.107779 4:10.097429 5:7.8973429 6:8.5055429 7:37.6922 8:28.695543 9:34.840486 10:2.3875246 11:2.0457783 12:2.3241777 
-0.5874468078740762 1:23.728585 2:21.498783 3:22.696744 4:15.691286 5:8.1428857 6:17.731886 7:37.673257 8:27.973943 9:26.235486 10:2.1053009 11:1.9971483 12:1.4275793 
-0.5873699946129948 1:25.356253 2:20.88201 3:22.636104 4:16.047914 5:5.3714857 6:17.436171 7:43.338171 8:28.488914 9:26.037114 10:2.3722129 11:2.1623941 12:1.4324739 
-0.587553444630313 1:22.645484 2:22.442535 3:22.764532 4:3.7427714 5:12.743086 6:13.956029 7:29.678971 8:39.547457 9:30.827257 10:2.304128 11:2.3477816 12:1.8483217 
-0.587935543491947 1:23.414726 2:22.299216 3:23.557939 4:19.538171 5:12.595114 6:18.382057 7:31.009543 8:37.360143 9:43.919657 10:1.5768053 11:2.245239 12:2.2840856 
-0.5873715058107257 1:23.556768 2:23.006319 3:21.970445 4:17.763 5:14.083314 6:3.7634 7:37.6128 8:37.6978 9:31.1268 10:1.9980907 11:2.1873872 12:2.3758907 
-0.587128301188817 1:24.115177 2:21.963763 3:22.621156 4:18.148 5:13.932 6:19.3544 7:34.057629 8:30.195657 9:28.779257 10:1.7999704 11:1.8177717 12:1.4739021 
-0.5875147139722343 1:24.967586 2:21.520488 3:23.771492 4:16.262229 5:10.5892 6:20.278314 7:29.811143 8:30.346771 9:32.610829 10:1.6812686 11:1.9934533 12:1.6201054 
-0.587469888536733 1:24.952899 2:21.473021 3:23.318247 4:18.380571 5:15.357143 6:20.166514 7:35.055171 8:25.912686 9:32.569429 10:1.8384348 11:1.5307554 12:1.6236453 
-0.5872965365859952 1:21.275771 2:24.098314 3:22.312661 4:18.313343 5:14.207657 6:17.876343 7:27.291486 8:28.798543 9:31.0496 10:1.4514404 11:1.7336612 12:1.6623798 
-0.5317530131909216 1:21.915259 2:23.881919 3:22.846978 4:17.789143 5:19.923069 6:18.8406 7:30.692571 8:27.242286 9:30.737229 10:1.6488122 11:1.368026 12:1.5981881 
-0.5308676015305519 1:21.932434 2:24.058253 3:22.602175 4:18.891657 5:18.750686 6:19.294143 7:31.901343 8:27.596771 9:30.850057 10:1.654155 11:1.4448003 12:1.5810563 
-0.5053009148769523 1:25.111522 2:20.879072 3:22.95399 4:22.237911 5:15.3078 6:19.983403 7:42.767657 8:23.444883 9:25.526771 10:2.0322799 11:1.4091501 12:1.2787325 
-0.5875722592684726 1:24.985224 2:21.378663 3:23.507022 4:22.099854 5:18.349657 6:21.774211 7:39.531229 8:26.779314 9:27.341286 10:1.8764871 11:1.4238613 12:1.2799245 
-0.5051219234732677 1:24.897831 2:21.338601 3:23.121754 4:22.42129 5:15.019143 6:18.483743 7:42.266429 8:24.146963 9:25.05616 10:1.9978563 11:1.4589665 12:1.3304753 
-0.5876030385548713 1:25.169173 2:21.78639 3:24.345068 4:11.728829 5:11.474686 6:18.174857 7:34.538314 8:28.945857 9:33.501486 10:2.1469101 11:1.8784881 12:1.7706559 
-0.5873029746651848 1:25.261458 2:21.899224 3:24.26097 4:12.826914 5:1.5280286 6:19.405486 7:32.1658 8:27.789143 9:35.261571 10:1.9724008 11:2.3204654 12:1.7972782 
-0.5834605346198477 1:24.882349 2:21.916672 3:24.247563 4:6.554 5:2.1803714 6:16.845286 7:32.784914 8:29.188743 9:33.342343 10:2.3189469 11:2.3580391 12:1.8295076 
-0.5823989434114336 1:24.71967 2:21.594739 3:23.718134 4:22.529822 5:14.432914 6:20.246966 7:34.537943 8:26.081571 9:29.725857 10:1.6037942 11:1.5857196 12:1.4766191 
-0.5879459582228928 1:24.697577 2:21.307097 3:23.705537 4:22.566565 5:9.6162857 6:21.977351 7:39.725429 8:23.568183 9:27.021971 10:1.8627846 11:1.7015315 12:1.2536544 
-0.587528413104179 1:24.787014 2:21.140048 3:22.587728 4:22.568909 5:4.5085429 6:6.9185714 7:32.073229 8:24.01792 9:24.291957 10:1.4778977 11:1.9809735 12:1.8735713 
-0.5879232475392777 1:25.256979 2:22.062599 3:22.467104 4:16.694771 5:3.0642857 6:9.6788 7:41.210886 8:34.525114 9:30.1578 10:2.2327231 11:2.5819182 12:2.0297282 
-0.5877708449081454 1:24.676147 2:21.730094 3:22.496174 4:19.470314 5:2.8899143 6:17.028971 7:36.791143 8:27.555343 9:28.900257 10:1.8709286 11:2.2402309 12:1.5969138 
-0.5871632178450408 1:24.758526 2:21.956227 3:22.386712 4:15.552143 5:10.840771 6:18.069914 7:35.010286 8:33.422657 9:34.1552 10:1.9783973 11:2.1354659 12:1.8088028 
-0.5877534804681723 1:23.665214 2:23.541214 3:23.443902 4:18.7318 5:13.919714 6:17.419429 7:26.840657 8:37.901229 9:42.151571 10:1.4077308 11:2.2058422 12:2.2435854 
-0.5877829979008524 1:23.447858 2:23.915503 3:23.119389 4:7.7847143 5:8.0822 6:14.895114 7:30.289629 8:39.387886 9:29.876114 10:2.1315956 11:2.5741173 12:1.753277 
-0.5876083906173943 1:22.990525 2:22.840861 3:23.136155 4:3.995 5:10.121514 6:18.131029 7:30.670657 8:32.916714 9:30.078371 10:2.3413095 11:2.1461918 12:1.6007381 
-0.5771922202557367 1:25.333837 2:21.935565 3:22.658262 4:11.7748 5:3.0713143 6:8.5293143 7:46.1062 8:27.8004 9:32.426657 10:2.7262568 11:2.2434317 12:2.2016099 
-0.5772122443989648 1:25.929178 2:22.539745 3:22.545738 4:13.164114 5:3.0663714 6:7.0588857 7:45.414629 8:29.3146 9:31.732629 10:2.6216253 11:2.3198175 12:2.240649 
-0.5849815802615102 1:26.318624 2:22.223456 3:22.568009 4:22.570826 5:11.737371 6:19.207657 7:37.308457 8:27.168943 9:26.874629 10:1.7410399 11:1.7759327 12:1.3855118 
-0.5876208699939848 1:22.844973 2:24.144165 3:21.574443 4:14.179057 5:4.5141714 6:1.8537429 7:35.327829 8:28.749229 9:26.495086 10:2.0634058 11:2.2185909 12:2.2390198 
-0.5879268977140137 1:21.590361 2:26.852385 3:23.858853 4:8.1147143 5:19.79778 6:20.242857 7:24.054046 8:31.479686 9:27.389629 10:1.8014639 11:1.5873914 12:1.3593551 
-0.5872169693572094 1:21.946703 2:24.816356 3:22.372916 4:18.583171 5:13.519686 6:12.9964 7:24.790434 8:27.617343 9:25.463371 10:1.3121146 11:1.7088606 12:1.6268662 
-0.5868888300141346 1:26.140744 2:20.957918 3:22.910577 4:22.532352 5:8.4530286 6:16.408057 7:33.190457 8:24.25834 9:26.046343 10:1.5359125 11:1.7947251 12:1.4846338 
-0.5875489586931495 1:25.862607 2:20.661261 3:22.949873 4:23.248177 5:13.5938 6:17.686057 7:35.623457 8:24.329623 9:25.506714 10:1.6222557 11:1.5398203 12:1.3932395 
-0.5884824127652342 1:25.634144 2:20.644656 3:22.724185 4:21.695374 5:17.009257 6:21.427626 7:33.935229 8:23.582229 9:24.994723 10:1.6154462 11:1.3305032 12:1.1793613 
-0.5777444388291351 1:25.087685 2:21.701856 3:23.349242 4:20.632374 5:13.018057 6:20.134091 7:35.2682 8:26.580343 9:28.095057 10:1.7359209 11:1.6819409 12:1.4002945 
-0.5874836940226869 1:25.528734 2:22.399438 3:21.573813 4:19.402771 5:14.536657 6:1.7027714 7:32.659257 8:27.354057 9:30.147171 10:1.6665647 11:1.6444865 12:2.4302457 
-0.5872468441325391 1:24.175782 2:24.095676 3:22.714455 4:20.395686 5:15.129657 6:20.48786 7:30.209229 8:31.7294 9:29.122286 10:1.4934461 11:1.8346708 12:1.4341575 
-0.5968423567415475 1:24.342887 2:23.147216 3:24.440535 4:14.659571 5:16.9174 6:21.98728 7:33.096571 8:29.336629 9:28.659686 10:1.9270521 11:1.6244656 12:1.3355029 
-0.5852281876857857 1:25.651961 2:21.583792 3:22.452557 4:20.834403 5:13.801057 6:19.268257 7:33.469629 8:28.6546 9:26.571257 10:1.6353264 11:1.7468681 12:1.3672106 
-0.5879079048008274 1:23.746338 2:23.86968 3:22.78162 4:4.4506571 5:18.351629 6:20.020094 7:29.735286 8:34.555286 9:30.685971 10:2.2713656 11:1.8147548 12:1.5363033 
-0.5826452269901544 1:23.66089 2:21.840326 3:22.30764 4:19.453857 5:13.324571 6:17.580029 7:37.2372 8:28.730657 9:24.959891 10:1.8941848 11:1.7746512 12:1.3710754 
-0.5837606072704415 1:24.998342 2:21.533733 3:22.945251 4:14.131943 5:8.9162857 6:18.730371 7:32.9812 8:27.036943 9:25.734771 10:1.9477813 11:1.9111457 12:1.3521963 
-2.270336210551613 1:22.604611 2:22.112109 3:22.425451 4:19.945729 5:16.556829 6:18.167 7:24.392611 8:28.738229 9:25.180131 10:1.2235989 11:1.612507 12:1.3526354 
-0.5872354151315751 1:23.323914 2:22.615225 3:21.775753 4:8.1053714 5:14.383 6:10.249629 7:28.263257 8:40.566571 9:24.659217 10:2.0135819 11:2.3165664 12:1.7245452 
-0.5872426009896965 1:23.591765 2:22.497277 3:21.600483 4:7.9872286 5:14.947886 6:12.388057 7:28.791629 8:35.777229 9:25.610514 10:2.0460901 11:2.0473442 12:1.6648536 
-0.5877747932710092 1:23.498615 2:23.019815 3:23.046332 4:3.7596 5:4.716 6:18.388371 7:29.235629 8:33.0944 9:29.401857 10:2.2809896 11:2.4269271 12:1.5537818 
-0.5823286934116946 1:25.54969 2:21.616067 3:23.028141 4:18.677857 5:7.5846857 6:19.556514 7:32.973086 8:31.007086 9:27.891543 10:1.7187949 11:2.1777287 12:1.4191032 
-0.5878119825632397 1:25.642877 2:21.941287 3:21.615152 4:16.641886 5:7.4640857 6:6.1818571 7:33.068314 8:30.651857 9:24.99934 10:1.8259562 11:2.1659311 12:1.9461836 
-0.5873715057500875 1:24.044633 2:22.095061 3:23.974501 4:10.679486 5:10.709686 6:17.272057 7:28.399714 8:35.7026 9:35.455657 10:1.8910113 11:2.2566976 12:1.9143106 
-0.5872646102337231 1:22.110626 2:23.638931 3:21.986427 4:8.0034571 5:12.518343 6:9.8836286 7:28.043543 8:33.594171 9:27.0402 10:2.0076587 11:2.0597381 12:1.8626694 
-0.587226277678961 1:22.794241 2:23.285226 3:23.50611 4:15.04 5:5.1268571 6:17.575914 7:28.277514 8:28.082914 9:27.104286 10:1.6656107 11:2.15428 12:1.479107 
-0.5875481047888695 1:22.837646 2:23.297433 3:23.350542 4:17.235371 5:4.8666571 6:7.9245429 7:32.607257 8:26.6754 9:30.936971 10:1.7729315 11:2.0965906 12:2.1571145 
-0.5871731896222578 1:26.757643 2:21.650736 3:22.599166 4:18.683314 5:3.6363714 6:19.865306 7:37.659143 8:24.516449 9:24.822209 10:1.9541455 11:2.0498953 12:1.2492438 
-0.5875456523434759 1:26.906425 2:21.759718 3:22.647906 4:20.82618 5:2.9605429 6:19.391714 7:35.1902 8:26.557371 9:24.507769 10:1.7222539 11:2.1864994 12:1.2572462 
-0.5856069793668252 1:26.653772 2:22.186541 3:22.599373 4:19.434543 5:1.9830286 6:16.348314 7:33.180543 8:27.423057 9:26.8144 10:1.6911785 11:2.2791795 12:1.5262573 
-0.5842108534403459 1:26.541275 2:22.201885 3:22.851273 4:19.521429 5:10.994657 6:19.820957 7:35.061543 8:26.428543 9:25.471457 10:1.7813904 11:1.776049 12:1.2841193 
-0.5873054759343543 1:26.078341 2:22.047356 3:22.885503 4:19.197629 5:4.9882286 6:18.363943 7:32.609914 8:29.475629 9:25.4682 10:1.6743986 11:2.2312792 12:1.3572174 
-0.5877046562824018 1:26.808266 2:22.344394 3:22.764103 4:13.432143 5:3.1659429 6:13.821486 7:35.482629 8:26.652171 9:27.974457 10:2.1087459 11:2.1809382 12:1.7116419 
-0.5880449502345849 1:26.328867 2:21.59041 3:21.634173 4:19.069886 5:11.132057 6:14.343714 7:31.027429 8:24.140371 9:26.1358 10:1.601251 11:1.6540861 12:1.5929315 
-0.5864280373533437 1:26.515304 2:21.576693 3:22.750227 4:21.789054 5:8.0834 6:15.944886 7:36.198371 8:25.400091 9:27.296229 10:1.7245315 11:1.8707206 12:1.57077 
-0.5874562750921417 1:26.714755 2:22.210723 3:22.557654 4:20.416694 5:2.3687143 6:17.398029 7:30.697971 8:25.778229 9:24.924457 10:1.5169648 11:2.1770808 12:1.378445 
-0.5874322148336263 1:23.599726 2:21.995199 3:23.586107 4:6.1084286 5:10.303143 6:15.031486 7:30.850257 8:28.785457 9:38.623829 10:2.2440725 11:1.9293306 12:2.1862738 
-0.587568700405757 1:24.273805 2:21.263615 3:22.023722 4:17.747257 5:11.425286 6:10.813629 7:29.414943 8:30.390257 9:29.150743 10:1.5866764 11:1.9535996 12:1.9220296 
-0.5871488945758727 1:23.539285 2:21.754188 3:21.766636 4:10.282629 5:13.874971 6:4.5368857 7:31.106457 8:33.4596 9:33.667257 10:2.047067 11:1.9847573 12:2.4647378 
-0.5790296761472824 1:23.946542 2:22.105476 3:21.501814 4:13.525686 5:15.742429 6:10.671057 7:30.636914 8:33.344 9:25.656857 10:1.8603894 11:1.8850449 12:1.7535183 
-0.5876297698484517 1:22.837638 2:22.479555 3:22.76555 4:3.8492571 5:8.7837714 6:15.469086 7:30.363429 8:28.524686 9:34.953 10:2.3331897 11:1.9926157 12:1.9796932 
-0.5856289110476469 1:23.603486 2:22.232372 3:21.584935 4:13.771686 5:16.481686 6:12.821257 7:27.910629 8:32.908714 9:25.940914 10:1.7109365 11:1.8259864 12:1.6596846 
-0.5876769418475036 1:24.435093 2:21.425764 3:23.241751 4:11.019629 5:2.1313429 6:15.154629 7:30.490057 8:27.478914 9:32.2062 10:1.9790151 11:2.2745305 12:1.8573898 
-0.5876228412998494 1:24.055733 2:21.409632 3:22.238442 4:12.857886 5:2.0234571 6:7.3994 7:33.242086 8:31.849257 9:27.859943 10:2.0249615 11:2.4997055 12:2.0288002 
-0.5872482094419584 1:23.822563 2:21.619505 3:22.155081 4:14.585514 5:15.6964 6:8.9588286 7:34.557286 8:28.889629 9:33.053057 10:2.0042237 11:1.663384 12:2.2115097 
-0.5874494890864034 1:22.343436 2:24.900848 3:22.892652 4:13.041343 5:5.6637143 6:13.4772 7:31.657 8:42.618086 9:27.938171 10:1.9360354 11:2.8581454 12:1.7271288 
-0.5875028368172652 1:22.032844 2:24.863549 3:21.051144 4:10.612229 5:17.236629 6:11.798543 7:26.443257 8:34.004029 9:23.342491 10:1.7960182 11:1.843101 12:1.5804546 
-0.5872739611541986 1:21.380041 2:25.089423 3:22.394746 4:4.4700571 5:17.915714 6:20.311254 7:26.226543 8:36.553857 9:31.3796 10:2.093963 11:1.937166 12:1.5565403 
-0.5845503103942944 1:25.371087 2:21.812568 3:23.625691 4:19.839909 5:12.601686 6:19.285 7:38.248943 8:27.892286 9:27.645857 10:1.9256459 11:1.7688443 12:1.4204019 
-0.5870599516197497 1:25.269967 2:22.284397 3:23.962677 4:14.312429 5:10.647486 6:20.773263 7:45.016457 8:30.574743 9:29.441686 10:2.5438647 11:2.0019854 12:1.435867 
-0.5872479475219251 1:25.110966 2:21.265697 3:22.060823 4:21.237586 5:14.523257 6:13.726286 7:37.898171 8:25.6984 9:24.678934 10:1.8377301 11:1.5619103 12:1.5507228 
-0.5815871797428989 1:26.114569 2:22.24731 3:23.47211 4:20.042863 5:12.0744 6:18.704771 7:36.957571 8:24.926623 9:26.575486 10:1.850508 11:1.6462375 12:1.3957565 
-0.5867643292987823 1:25.412884 2:22.785747 3:24.070356 4:20.462689 5:15.608771 6:20.78912 7:34.435086 8:29.776257 9:28.768229 10:1.7025622 11:1.7123717 12:1.4012068 
-0.5872162659196043 1:25.140441 2:22.41271 3:24.414447 4:19.344743 5:10.288343 6:18.962029 7:29.0146 8:31.054171 9:30.266114 10:1.4862213 11:2.0441506 12:1.5683938 
-0.5878183511932902 1:23.778581 2:22.120974 3:21.685095 4:12.3814 5:8.9965714 6:9.1815143 7:40.734829 8:33.812543 9:28.609229 10:2.4256715 11:2.2478005 12:1.9768673 
-0.5876276432281667 1:24.357845 2:21.757799 3:21.659615 4:10.425457 5:4.9371143 6:6.8680571 7:27.343857 8:28.672629 9:24.839897 10:1.8506936 11:2.1934728 12:1.9036628 
-0.5875042599300167 1:23.752059 2:22.592278 3:23.88091 4:3.6592571 5:14.196514 6:18.109714 7:29.4748 8:34.466743 9:35.444857 10:2.2980611 11:2.0192308 12:1.8716483 
-0.5879141330642952 1:24.8447 2:21.790078 3:22.337743 4:7.6781714 5:9.1532857 6:13.822714 7:33.463143 8:27.670943 9:33.495086 10:2.2965239 11:1.9311077 12:1.9891692 
-0.5874518405200253 1:24.253416 2:21.559912 3:22.298018 4:10.017943 5:8.9671143 6:18.339057 7:31.0514 8:29.552771 9:26.647314 10:2.0576075 11:2.0350912 12:1.4177571 
-0.587922113173839 1:22.840314 2:22.180968 3:22.148571 4:3.3290571 5:1.6141143 6:17.536286 7:35.020657 8:39.358486 9:25.478743 10:2.5935219 11:2.8978683 12:1.3993639 
-0.5872356828709648 1:23.751863 2:23.796813 3:22.624322 4:5.3525429 5:15.548429 6:19.848357 7:29.519143 8:41.357971 9:33.554771 10:2.2151487 11:2.2977594 12:1.689188 
-0.5873788949770987 1:23.431589 2:22.786814 3:21.386755 4:14.149429 5:12.191457 6:12.304657 7:30.746257 8:37.444029 9:28.828829 10:1.8345243 11:2.2697537 12:1.8308709 
-0.5872705703323763 1:23.432611 2:22.539318 3:21.580898 4:14.762314 5:2.2146571 6:9.3720286 7:30.801371 8:35.627629 9:28.894743 10:1.8064784 11:2.6800762 12:1.9816441 
-0.5874458613281878 1:24.495013 2:22.660923 3:22.879148 4:17.268057 5:16.944257 6:19.538314 7:33.347114 8:26.221829 9:28.365657 10:1.8084896 11:1.4664963 12:1.4438578 
-0.5874613958851004 1:24.601329 2:22.304897 3:21.12753 4:9.5883143 5:13.58 6:2.1952571 7:31.411086 8:33.532771 9:26.537457 10:2.097296 11:2.0032683 12:2.2239783 
-0.5872554010667335 1:24.142746 2:22.537222 3:21.479755 4:14.311629 5:16.946571 6:4.2700857 7:32.330543 8:29.866543 9:25.012694 10:1.9060298 11:1.649644 12:2.0429831 
-0.5873118721969006 1:21.654469 2:24.377664 3:24.611258 4:18.029314 5:18.209029 6:21.352926 7:25.40292 8:27.857743 9:32.612914 10:1.3707608 11:1.4851581 12:1.5661765 
-0.5873087123158488 1:21.244523 2:24.968564 3:24.437825 4:13.991771 5:13.250543 6:20.515757 7:27.942314 8:30.624143 9:35.406886 10:1.7014634 11:1.873582 12:1.748758 
-0.5865298619924634 1:21.694546 2:24.585563 3:24.448446 4:16.331657 5:13.065914 6:21.068669 7:29.598829 8:32.6168 9:34.4978 10:1.667102 11:1.9830607 12:1.6752457 
-0.5880011294312502 1:25.935797 2:21.492396 3:22.535048 4:18.457571 5:15.814257 6:21.218909 7:31.560343 8:23.73492 9:27.351514 10:1.6588356 11:1.398268 12:1.3083606 
-0.5873460238456103 1:24.931448 2:21.41692 3:23.25053 4:17.471657 5:4.1800857 6:18.641486 7:37.597171 8:26.405686 9:33.010057 10:2.0119542 11:2.1175511 12:1.7224827 
-0.5874233171997689 1:24.659792 2:21.31388 3:22.524575 4:19.916709 5:8.9715714 6:17.185714 7:35.803714 8:25.224043 9:30.0168 10:1.7988329 11:1.8172093 12:1.6451746 
-0.5876185856428751 1:25.026281 2:21.857467 3:23.697682 4:5.1461714 5:12.255829 6:18.653971 7:34.051829 8:31.043429 9:29.369771 10:2.4534387 11:1.944681 12:1.5388135 
-0.5877331698388446 1:25.486828 2:22.493638 3:23.107922 4:15.2042 5:12.0052 6:18.756086 7:31.158286 8:27.471171 9:29.935829 10:1.8022058 11:1.7776624 12:1.5621416 
-0.5880465425779361 1:24.308415 2:22.367806 3:23.799783 4:14.699229 5:7.3497714 6:18.597886 7:35.883343 8:26.793371 9:34.5848 10:2.0651829 11:1.9776661 12:1.8038565 
-0.5529027269147931 1:25.720758 2:21.851953 3:24.194832 4:19.368486 5:16.097829 6:20.363989 7:28.508343 8:26.450343 9:32.686971 10:1.4595717 11:1.5205467 12:1.6196261 
-0.5871631209101222 1:26.353405 2:21.631593 3:24.291339 4:12.479314 5:1.9100571 6:13.301029 7:34.658914 8:28.887714 9:33.381943 10:2.1152381 11:2.3564947 12:2.0097116 
-0.5522778577448264 1:25.013919 2:22.415133 3:24.752815 4:19.672029 5:15.086829 6:19.310886 7:28.9016 8:25.704 9:33.892114 10:1.4640827 11:1.5338543 12:1.7331756 
-0.5826447907451986 1:23.102575 2:21.746394 3:22.706866 4:17.661771 5:7.84 6:18.255686 7:33.0136 8:31.733086 9:27.371771 10:1.771923 11:2.2013958 12:1.4583764 
-0.5874443607028131 1:23.386662 2:21.552358 3:22.838365 4:15.017886 5:11.373743 6:18.284314 7:45.815457 8:29.724886 9:28.543629 10:2.5485683 11:1.922735 12:1.5158604 
-0.5857519127478745 1:24.4514 2:21.157928 3:22.799692 4:16.654914 5:7.6633714 6:18.413314 7:33.927629 8:28.620171 9:26.792686 10:1.8685093 11:2.0537531 12:1.4213329 
-0.5830192476539635 1:23.698843 2:22.450561 3:21.534948 4:12.498429 5:12.7036 6:11.036514 7:30.201829 8:33.949829 9:27.260657 10:1.8901651 11:2.0683062 12:1.8157849 
-0.5756710639280025 1:23.77724 2:22.613556 3:21.189127 4:12.915371 5:14.336629 6:10.341771 7:28.354286 8:32.575 9:26.001171 10:1.7763019 11:1.9170646 12:1.7873884 
-0.5867498105022115 1:23.583919 2:22.30976 3:21.493907 4:15.878286 5:12.711 6:10.858971 7:31.070171 8:32.836657 9:26.659886 10:1.7638807 11:2.0119614 12:1.794504 
-0.5879166520339909 1:23.781182 2:22.570046 3:23.657781 4:13.736857 5:15.850514 6:17.771657 7:29.728657 8:32.937029 9:35.622457 10:1.8041022 11:1.8591468 12:1.8975767 
-0.5872627914910726 1:23.697949 2:22.303625 3:21.220236 4:5.1336571 5:1.1867429 6:8.6383143 7:33.7112 8:33.437429 9:37.053571 10:2.4369404 11:2.621634 12:2.4287804 
-0.5871255171908634 1:23.507698 2:22.227542 3:21.190884 4:6.0987714 5:1.4492 6:8.2049714 7:31.633086 8:31.129171 9:30.095029 10:2.2839203 11:2.4923729 12:2.1006792 
-0.5879132846567935 1:21.142786 2:24.868082 3:20.685141 4:11.226257 5:15.204629 6:12.646 7:25.356071 8:29.718143 9:22.784241 10:1.7104775 11:1.7297708 12:1.5097726 
-0.5878586203951972 1:21.181163 2:24.773463 3:20.792051 4:14.811486 5:18.099286 6:7.2949429 7:24.4468 8:28.875486 9:23.97434 10:1.4844844 11:1.5418506 12:1.838676 
-0.5871371181311467 1:20.926251 2:24.483403 3:21.013462 4:15.1718 5:19.7345 6:14.532914 7:25.197251 8:28.089314 9:24.044189 10:1.5041013 11:1.4200981 12:1.4782474 
-0.5796430075098209 1:25.547022 2:21.05563 3:22.995944 4:19.3456 5:4.4424571 6:19.097486 7:35.779571 8:24.362723 9:27.738971 10:1.8263355 11:2.0016339 12:1.4345125 
-0.5800897738694384 1:25.242713 2:20.709293 3:22.936521 4:19.532457 5:5.5343143 6:19.542486 7:33.177114 8:24.45676 9:27.253257 10:1.6860828 11:1.9514613 12:1.3877142 
-0.5872324509713524 1:26.146765 2:21.225789 3:23.03449 4:15.125257 5:4.7772571 6:19.519143 7:37.188629 8:25.38656 9:27.406343 10:2.1093939 11:2.0362802 12:1.3965854 
-0.5879289549984529 1:25.749286 2:21.824363 3:23.778118 4:11.224514 5:8.919 6:20.592177 7:31.167829 8:29.927886 9:30.057571 10:2.0027928 11:2.056372 12:1.4759404 
-0.5875614618133739 1:25.159313 2:22.436121 3:20.797592 4:20.454077 5:15.685114 6:3.6724857 7:31.1498 8:26.815143 9:24.157909 10:1.537804 11:1.5596418 12:2.0300512 
-0.5873746534508745 1:25.513115 2:21.717677 3:23.968518 4:13.639457 5:1.8119429 6:19.089686 7:34.889629 8:28.148629 9:39.884457 10:2.0685044 11:2.3242653 12:2.0456059 
-0.5873028290152256 1:24.996901 2:22.58297 3:20.792848 4:15.615543 5:11.314143 6:9.0764571 7:32.196143 8:26.419914 9:29.46 10:1.8337083 11:1.7595507 12:2.0249285 
-0.5872931165997499 1:24.866094 2:22.466547 3:20.896778 4:15.5678 5:15.322829 6:8.9173429 7:34.805886 8:27.787543 9:24.707834 10:1.9673324 11:1.6267527 12:1.7939799 
-0.5874131048084332 1:24.961087 2:22.639122 3:20.727022 4:16.291943 5:17.9264 6:13.442857 7:34.148114 8:26.919257 9:25.911029 10:1.8978468 11:1.4521802 12:1.6269265 
-0.5871912749665944 1:26.125859 2:22.037836 3:22.037521 4:19.641629 5:12.721286 6:13.751943 7:29.557629 8:30.803943 9:28.506943 10:1.4985978 11:1.909235 12:1.7419132 
-0.5877112964342139 1:24.220125 2:21.472458 3:22.029365 4:18.220486 5:14.073429 6:13.868514 7:34.0172 8:27.965257 9:26.3212 10:1.7942928 11:1.6985111 12:1.6261479 
-0.5875282423593952 1:25.952101 2:21.663562 3:22.847251 4:13.497886 5:4.8121429 6:17.486343 7:35.691171 8:31.005314 9:26.718371 10:2.1159262 11:2.3170491 12:1.4642063 
-0.5879362235686595 1:23.702612 2:22.551507 3:21.204346 4:5.5501143 5:15.133086 6:2.2281143 7:42.339629 8:34.829543 9:27.095486 10:2.849856 11:1.9903803 12:2.250385 
-0.5872061032716394 1:24.241409 2:22.657377 3:20.896367 4:6.3427143 5:13.567943 6:3.1244286 7:31.5866 8:35.832314 9:31.3554 10:2.269317 11:2.1195006 12:2.4195141 
-0.5874305858465311 1:24.649967 2:23.757726 3:20.803428 4:6.2812286 5:11.436314 6:1.3378286 7:30.092514 8:36.558514 9:29.115029 10:2.1972828 11:2.2631983 12:2.3966975 
-0.5877207154232332 1:24.0611 2:22.053955 3:23.424363 4:15.527057 5:14.4192 6:16.398686 7:28.6404 8:29.870771 9:28.405629 10:1.6593671 11:1.7769383 12:1.603735 
-0.5874242407569182 1:23.746787 2:22.688916 3:21.323723 4:5.3341714 5:10.407686 6:6.9716571 7:35.309486 8:40.728771 9:28.6168 10:2.5072234 11:2.5246095 12:2.0883644 
-0.5874322681738765 1:23.764794 2:21.511592 3:21.44845 4:14.341571 5:16.209314 6:7.9229714 7:36.814714 8:30.5884 9:28.137771 10:2.129998 11:1.7230114 12:2.0164437 
-0.5888355173065402 1:22.781211 2:23.863165 3:23.650473 4:15.7088 5:14.501229 6:19.109171 7:27.316 8:29.1392 9:29.512029 10:1.583635 11:1.7360287 12:1.5230781 
-0.5879016654245949 1:21.586947 2:24.933989 3:24.530973 4:17.501286 5:21.53988 6:21.948763 7:27.382314 8:28.370743 9:29.354743 10:1.4968394 11:1.3434705 12:1.3723886 
-0.5876193667248126 1:22.270699 2:24.2537 3:23.004085 4:14.912629 5:4.4535714 6:15.912171 7:30.733571 8:30.9098 9:30.495 10:1.7955111 11:2.3302762 12:1.733256 
-0.5877709463985741 1:26.276549 2:21.318315 3:22.969477 4:18.672857 5:3.0195143 6:20.0135 7:34.987371 8:31.853457 9:29.317057 10:1.8203289 11:2.4498328 12:1.4678029 
-0.5862253911637524 1:25.497314 2:20.896822 3:22.580704 4:17.453743 5:3.418 6:15.089086 7:32.222343 8:26.6916 9:27.624914 10:1.742597 11:2.1702468 12:1.6303285 
-0.5720499832776884 1:24.767643 2:20.883981 3:22.801452 4:18.172286 5:13.723171 6:19.6504 7:31.567886 8:27.534 9:27.4804 10:1.6735596 11:1.6944382 12:1.3937093 
-0.5880317288795125 1:25.816926 2:22.327379 3:21.437223 4:18.903114 5:17.310543 6:10.368143 7:36.612229 8:26.437543 9:27.992286 10:1.8904524 11:1.4589252 12:1.8861799 
-0.5879343488206997 1:25.896685 2:22.176793 3:21.667825 4:21.822594 5:17.5556 6:16.124171 7:33.0038 8:25.634457 9:28.832714 10:1.5622151 11:1.4062223 12:1.6390129 
-0.5879243963048715 1:25.871601 2:21.325142 3:21.734702 4:10.2456 5:5.0912286 6:8.2909714 7:38.935829 8:28.337657 9:27.324657 10:2.4426065 11:2.1688805 12:1.9570547 
-0.5877395112503074 1:25.526887 2:20.867036 3:22.652412 4:18.148086 5:1.893 6:6.1690286 7:31.1872 8:26.266714 9:37.218257 10:1.6556348 11:2.2255629 12:2.5612221 
-0.5878418793217907 1:26.554122 2:21.49647 3:22.854481 4:8.7515714 5:10.668286 6:18.524171 7:33.495686 8:29.568171 9:36.0698 10:2.2441874 11:1.950327 12:1.882232 
-0.5874534468272514 1:25.704047 2:21.117373 3:22.976458 4:20.148409 5:2.1328286 6:17.038457 7:30.601286 8:25.109209 9:28.469 10:1.5255932 11:2.1553019 12:1.5747523 
-0.5877086119201597 1:23.04619 2:22.151903 3:23.11928 4:7.8588286 5:14.3796 6:16.0748 7:28.695314 8:28.026771 9:32.1076 10:2.0477034 11:1.6862092 12:1.8061637 
-0.5874775401107408 1:23.710462 2:21.928176 3:23.479686 4:17.856629 5:15.8784 6:17.9522 7:31.088457 8:28.162 9:40.560286 10:1.6653249 11:1.6176459 12:2.1367833 
-0.582944005729594 1:24.286435 2:21.576175 3:22.673781 4:17.2212 5:12.837 6:17.024343 7:36.999257 8:30.4162 9:25.737057 10:1.9944833 11:1.8839201 12:1.438094 
-0.5873297297637286 1:23.094551 2:22.650407 3:21.928753 4:3.9015429 5:7.5260286 6:10.222343 7:29.514429 8:35.205686 9:26.050571 10:2.2878711 11:2.3917928 12:1.7958774 
-0.5878854111177855 1:23.300136 2:22.49234 3:21.624226 4:4.1821714 5:9.1058857 6:3.3456857 7:33.8362 8:32.059286 9:27.990171 10:2.4910685 11:2.1541464 12:2.2391778 
-0.5879304873830107 1:23.814451 2:22.492179 3:21.575473 4:8.5039714 5:9.2539714 6:2.6045714 7:29.861343 8:33.0158 9:25.202251 10:2.0738947 11:2.1947959 12:2.13626 
-0.587924374683093 1:24.011567 2:22.615379 3:21.443341 4:9.8494571 5:14.788486 6:12.253686 7:29.800514 8:28.3738 9:24.992437 10:2.0031821 11:1.6830989 12:1.6405319 
-0.5879149567696065 1:23.986872 2:22.562525 3:21.456354 4:12.516771 5:15.009343 6:5.8830286 7:41.950143 8:31.501686 9:28.101057 10:2.4799733 11:1.8292705 12:2.1171704 
-0.5874200881098116 1:21.31926 2:24.599991 3:21.64481 4:10.4212 5:8.0210857 6:8.0765714 7:25.426126 8:34.341486 9:24.0861 10:1.75448 11:2.3234464 12:1.8049936 
-0.5877173847457746 1:21.546129 2:24.273137 3:22.04233 4:11.212543 5:16.591914 6:7.5501429 7:30.7296 8:31.723486 9:25.791286 10:1.9813597 11:1.760848 12:1.917204 
-0.587936514072291 1:20.660521 2:24.668526 3:21.809306 4:3.1539429 5:15.180457 6:4.3716286 7:27.084571 8:30.791114 9:27.247171 10:2.2032836 11:1.7849375 12:2.1502316 
-0.5876067523128205 1:25.851097 2:21.970118 3:22.715066 4:22.7485 5:8.7708286 6:19.590171 7:42.1884 8:28.405943 9:25.699143 10:1.9774801 11:1.9872959 12:1.3071722 
-0.5878103584352655 1:26.506508 2:22.722439 3:22.723411 4:21.00902 5:16.2102 6:18.254086 7:45.697886 8:26.303429 9:26.885914 10:2.2414094 11:1.5075093 12:1.4340269 
-0.5873302003580768 1:25.973311 2:21.667456 3:22.796896 4:22.602722 5:13.309943 6:21.66282 7:39.5338 8:27.558543 9:27.2976 10:1.8513311 11:1.7164503 12:1.2833289 
-0.5874769439112932 1:26.520241 2:22.334938 3:22.836329 4:19.6416 5:8.7183143 6:18.083371 7:36.0144 8:31.026 9:27.343743 10:1.8232597 11:2.1216785 12:1.4656314 
-0.5871207536735079 1:26.210776 2:21.982839 3:23.847226 4:17.020686 5:2.3866857 6:12.914629 7:37.554943 8:35.106686 9:30.4418 10:2.0325067 11:2.6452321 12:1.8813039 
-0.5876202402772297 1:26.261298 2:22.092844 3:23.682198 4:18.123171 5:2.3681143 6:13.952743 7:35.143886 8:31.173543 9:30.707914 10:1.8558382 11:2.448399 12:1.8424861 
-0.5816443268160494 1:25.236558 2:23.331071 3:20.578632 4:5.1134 5:7.4289714 6:3.9049714 7:28.526686 8:34.052543 9:24.986337 10:2.1772705 11:2.3386905 12:2.0600165 
-0.5809352651148548 1:25.388931 2:23.245123 3:20.501161 4:5.0099714 5:8.0158571 6:2.5482571 7:31.036971 8:33.443 9:25.33458 10:2.3086936 11:2.2785315 12:2.1457454 
-0.5871420541558371 1:25.480569 2:23.183839 3:20.507228 4:10.678971 5:6.9129429 6:3.5483429 7:31.469286 8:30.886 9:24.949234 10:2.0453818 11:2.205417 12:2.0760829 
-0.587616907510252 1:24.062591 2:22.135669 3:21.50326 4:18.573514 5:11.075629 6:2.2833429 7:33.143343 8:25.7978 9:25.707857 10:1.7326024 11:1.7402625 12:2.1778351 
-0.5876667119443656 1:23.813312 2:21.818002 3:21.914325 4:14.219457 5:15.486657 6:17.371571 7:30.406086 8:26.704286 9:29.704057 10:1.8138986 11:1.5640465 12:1.620104 
-0.585320309032097 1:23.630213 2:21.905825 3:21.957173 4:14.844771 5:12.799371 6:8.9406571 7:34.145114 8:32.458114 9:27.632686 10:1.9704628 11:1.9884839 12:1.9398755 
-0.587285861080918 1:23.465355 2:22.514709 3:21.595479 4:7.5328286 5:15.3804 6:4.8144571 7:29.312286 8:33.546971 9:27.498686 10:2.095118 11:1.9134544 12:2.1406119 
-0.5871643338372747 1:24.463184 2:22.103051 3:21.874679 4:11.227114 5:5.9263714 6:3.6732571 7:30.073829 8:38.183 9:29.128543 10:1.9476534 11:2.6219328 12:2.2799466 
-0.587163636638987 1:23.984105 2:22.006623 3:21.753708 4:11.875857 5:15.022 6:10.959371 7:32.902343 8:38.706914 9:27.986343 10:2.057257 11:2.1909285 12:1.8561528 
-0.5873778405280805 1:23.847425 2:22.349309 3:21.316195 4:9.7947143 5:7.7834 6:4.6789429 7:37.1806 8:35.3928 9:29.692143 10:2.3770213 11:2.3882601 12:2.2577176 
-0.5848982415998767 1:22.926731 2:22.394225 3:21.775317 4:12.999514 5:11.176829 6:9.3445429 7:32.9266 8:33.867086 9:26.729114 10:2.0019768 11:2.140915 12:1.8741337 
-0.5880576790937342 1:23.471129 2:22.020378 3:21.673838 4:11.576829 5:12.249829 6:6.1965429 7:27.453314 8:30.081 9:27.544314 10:1.7983039 11:1.8965897 12:2.0734119 
-0.5871766681246289 1:20.745367 2:24.343064 3:21.986804 4:14.830857 5:16.004229 6:11.610629 7:24.97894 8:27.551171 9:25.15788 10:1.5102675 11:1.5806052 12:1.681185 
-0.5877557151157101 1:21.001804 2:24.592934 3:21.709101 4:16.718857 5:17.0462 6:9.0710286 7:27.134486 8:27.328771 9:24.142237 10:1.5237202 11:1.5170298 12:1.7578128 
-0.5874829421502918 1:21.101457 2:24.308697 3:21.631458 4:10.6584 5:12.783257 6:6.8424 7:24.953771 8:32.982657 9:24.975931 10:1.7188021 11:2.0156694 12:1.911793 
-0.5880488451703675 1:24.354926 2:22.26481 3:21.499176 4:19.5612 5:12.570143 6:7.4078857 7:39.265771 8:32.868343 9:23.619854 10:1.9907883 11:2.0206372 12:1.8151727 
-0.5872013946135397 1:24.795883 2:22.148631 3:23.51247 4:20.921703 5:16.439114 6:19.892946 7:36.544057 8:26.459429 9:27.186914 10:1.7855256 11:1.503843 12:1.3667565 
-0.5871574820550802 1:24.123672 2:22.035806 3:23.56715 4:12.850057 5:14.362086 6:19.059 7:30.2676 8:27.505114 9:32.262429 10:1.8757916 11:1.6608598 12:1.6638968 
-0.5873891486959384 1:25.104173 2:21.891884 3:24.033217 4:17.365686 5:5.1929143 6:16.487857 7:29.416429 8:36.019114 9:28.961971 10:1.6059373 11:2.5500078 12:1.6272253 
-0.5727574840725263 1:24.516044 2:22.317725 3:24.376275 4:19.0078 5:14.867686 6:19.952383 7:30.822543 8:27.6068 9:27.510257 10:1.5940707 11:1.6405501 12:1.3800262 
-0.587875598822879 1:24.219349 2:22.597581 3:24.261333 4:14.870114 5:8.4396857 6:19.085229 7:28.0982 8:29.557257 9:29.6596 10:1.6651367 11:2.061837 12:1.5317022 
-0.5844781571980492 1:24.753456 2:22.058652 3:20.979661 4:13.668971 5:8.313 6:17.136486 7:31.765543 8:25.811686 9:26.023886 10:1.9099346 11:1.8798716 12:1.4468776 
-0.5874614545931659 1:23.728161 2:23.267579 3:24.028133 4:19.748186 5:18.849829 6:21.446534 7:33.468229 8:29.713343 9:28.2356 10:1.6898733 11:1.5462409 12:1.3413689 
-0.5875489680002687 1:24.240663 2:21.860752 3:24.321781 4:4.1338571 5:14.370371 6:20.588274 7:33.995971 8:26.341714 9:33.098771 10:2.5015315 11:1.6019449 12:1.6290548 
-0.5875818521246579 1:25.463633 2:22.228674 3:21.490155 4:18.425514 5:14.6026 6:13.636371 7:28.228714 8:32.493914 9:26.347714 10:1.492926 11:1.8996138 12:1.6391537 
-0.5879287150531882 1:25.060489 2:22.170116 3:21.387761 4:12.189857 5:7.5377143 6:2.8027143 7:31.125457 8:42.9284 9:27.874743 10:1.9521228 11:2.7795199 12:2.2606756 
-0.5873757840871259 1:24.686139 2:22.480756 3:21.511825 4:8.4124857 5:3.1634 6:3.3029143 7:30.785257 8:42.938943 9:31.878057 10:2.1249512 11:3 12:2.4368198 
-0.5879567262618541 1:23.284015 2:23.492668 3:22.992526 4:6.5076857 5:12.851086 6:16.9446 7:44.345171 8:43.077057 9:38.132971 10:2.9025503 11:2.519827 12:2.065397 
-0.5876947007456781 1:22.782556 2:22.495243 3:22.957802 4:4.2834286 5:1 6:4.3716571 7:37.273714 8:40.555514 9:39.387543 10:2.6588227 11:2.9889365 12:2.7606742 
-0.5874698890604601 1:22.706863 2:22.751695 3:22.19001 4:4.2165429 5:10.995914 6:18.779743 7:27.752829 8:37.605 9:26.605829 10:2.1834552 11:2.3379622 12:1.3935125 
-0.5874375554376419 1:23.609731 2:22.685345 3:21.837717 4:17.839314 5:18.9642 6:8.8716286 7:29.672371 8:30.788543 9:24.9796 10:1.5949916 11:1.5945534 12:1.8099435 
-0.5876105007227124 1:23.864467 2:22.579338 3:21.780191 4:13.351686 5:19.311371 6:8.9834857 7:33.739029 8:33.020943 9:25.151931 10:2.0251195 11:1.6893468 12:1.8129843 
-0.5875422328259878 1:24.213423 2:22.58412 3:21.520983 4:21.251589 5:17.467343 6:9.9228 7:33.614486 8:29.136514 9:24.775689 10:1.6216331 11:1.5867511 12:1.7468352 
-0.5874228631160902 1:21.727383 2:24.90118 3:21.600276 4:7.4249429 5:21.326831 6:9.6908571 7:27.410743 8:33.216029 9:25.519543 10:2.0049291 11:1.5978145 12:1.7959004 
-0.5874273860286811 1:21.521962 2:24.692373 3:21.621751 4:15.985429 5:22.069951 6:7.6426286 7:28.672229 8:38.727829 9:26.080629 10:1.6379196 11:1.837594 12:1.9271024 
-0.5872908568525919 1:21.907382 2:25.553196 3:21.212093 4:10.381686 5:20.680529 6:5.2580286 7:36.054914 8:38.001714 9:25.976886 10:2.2909053 11:1.8709465 12:2.0417888 
-0.5878133407296707 1:25.725348 2:22.07877 3:21.675983 4:20.36612 5:12.690371 6:2.9556571 7:37.921229 8:26.112686 9:26.337486 10:1.8827087 11:1.6749029 12:2.1756887 
-0.5874490074123394 1:27.338441 2:22.428052 3:22.784385 4:22.977309 5:13.523886 6:16.019943 7:45.917514 8:25.684371 9:26.944486 10:2.153483 11:1.6114554 12:1.5493096 
-0.5879287700774327 1:26.394001 2:22.466818 3:22.83273 4:18.769457 5:16.168686 6:19.618457 7:40.794314 8:27.634114 9:30.531629 10:2.1074573 11:1.5765065 12:1.5487378 
-0.5855123980516526 1:25.659587 2:21.912481 3:23.563369 4:8.0923143 5:2.7426857 6:18.254514 7:31.635371 8:27.707486 9:31.828257 10:2.1837956 11:2.2552839 12:1.682517 
-0.5874144266623861 1:25.610289 2:21.845296 3:23.658351 4:12.520371 5:1.5416286 6:18.670829 7:28.7288 8:27.963229 9:31.6434 10:1.8149947 11:2.328535 12:1.6522888 
-0.5877750844298753 1:26.032249 2:22.184886 3:23.660241 4:18.844114 5:3.0634286 6:19.74048 7:30.317771 8:27.514857 9:30.595029 10:1.5769202 11:2.2294705 12:1.5457901 
-0.5875657281829583 1:24.429345 2:22.86575 3:24.675533 4:12.433029 5:10.768486 6:19.182371 7:30.834914 8:30.365686 9:38.813257 10:1.9252865 11:1.9853894 12:1.9870832 
-0.585670209604535 1:25.484639 2:21.730433 3:23.169274 4:5.1802 5:2.1534857 6:17.596657 7:34.074857 8:27.656371 9:35.126486 10:2.4528856 11:2.28234 12:1.8814376 
-0.5872743375473118 1:25.070648 2:21.77538 3:23.977417 4:10.748686 5:6.0999143 6:20.299589 7:29.062171 8:27.384571 9:33.425371 10:1.9208415 11:2.0702384 12:1.6599926 
