svm_type c_svc
kernel_type rbf
gamma 0.5
nr_class 2
total_sv 102
rho 3.6497
label 1 -1
nr_sv 49 53
SV
1.587937200402142 1:-0.99790682 2:0.66710615 3:-0.012187348 4:0.0078444155 5:-0.10115728 6:0.55381095 7:-0.76232271 8:-0.14861235 9:-0.31510636 10:0.63779925 11:0.15481621 12:0.51577385 
2.981759846616681 1:-0.95677827 2:1 3:-3.7273204e-005 4:0.40965054 5:1 6:0.94290626 7:-0.99736986 8:-0.61202181 9:-0.82872065 10:0.9995595 11:1 12:0.99909704 
1.072114782139176 1:0.098188437 2:-0.94612074 3:0.4874874 4:0.39965609 5:0.39420878 6:0.88214039 7:-0.57008916 8:-0.63257762 9:-0.60810116 10:0.72808904 11:0.70129716 12:0.8445696 
0.6793984588301809 1:-0.94261936 2:0.57445931 3:0.060579307 4:0.3728748 5:0.68508467 6:0.78357276 7:-0.9367645 8:-0.61623508 9:-0.72136044 10:0.94210197 11:0.84081564 12:0.85914336 
5.248493430748747 1:-0.95830373 2:0.27478806 3:0.20809985 4:-0.65779454 5:-0.55266261 6:0.7402697 7:-0.61512489 8:-0.38871952 9:0.42407466 10:0.18933569 11:0.067851352 12:0.1926821 
5.415975623963839 1:-0.95672776 2:0.34823317 3:0.29378 4:-0.50558037 5:-0.497809 6:0.60639347 7:-0.54689081 8:-0.40225579 9:0.50586618 10:0.22842704 11:0.10419123 12:0.079826967 
2.472097157094135 1:-0.91673166 2:0.21835057 3:0.017442385 4:0.4205579 5:0.81770738 6:0.94615401 7:-0.98647659 8:-0.76182134 9:-0.82411327 10:0.99862152 11:0.99678903 12:0.99812392 
2.138431727901459 1:0.83726402 2:-0.84513437 3:-0.053027139 4:0.42194094 5:0.12549654 6:0.61094519 7:0.14823473 8:-0.63913671 9:-0.61681095 10:0.29265685 11:0.5672565 12:0.71413789 
6.7917574975177 1:-0.85288386 2:-0.12242026 3:0.030996566 4:-0.13357209 5:-0.067359557 6:0.63567358 7:-0.68795739 8:-0.56313883 9:-0.5409577 10:0.51568366 11:0.42234767 12:0.68377465 
5.26715246786519 1:-0.85303683 2:-0.16399731 3:0.063195387 4:-0.15609733 5:0.11582679 6:0.54572869 7:-0.76010282 8:-0.055659747 9:-0.44104733 10:0.54854262 11:0.2101514 12:0.5826422 
63.38088424744361 1:-0.94183973 2:0.28002423 3:-0.10523411 4:0.018070592 5:-0.11071738 6:0.29941341 7:-0.80337173 8:0.12295608 9:-0.49920525 10:0.66884618 11:-0.01399001 12:0.49246445 
15.89553297641149 1:-0.015991434 2:-0.21207241 3:-0.048962477 4:0.29571802 5:-1 6:0.27731874 7:0.37137936 8:-0.47307797 9:-0.64432992 10:0.086024361 11:-0.11097026 12:0.5631401 
19.64709560604823 1:-0.90322508 2:-0.031752837 3:-0.17654046 4:-0.055285746 5:0.13988896 6:0.5231231 7:-0.66828025 8:-0.43009049 9:-0.67146613 10:0.5453907 11:0.44848458 12:0.70108137 
26.42018109000178 1:-0.8494885 2:-0.1446407 3:-0.14163185 4:-0.68088394 5:-1 6:0.2286034 7:-0.709248 8:0.34750512 9:-0.32840989 10:0.23558011 11:-0.6062073 12:0.36097442 
1.572616495748995 1:-0.25703299 2:-0.34067359 3:0.33086686 4:0.16103446 5:0.31111565 6:0.029946063 7:-0.47199817 8:-0.51940304 9:-0.5391741 10:0.53909422 11:0.59032111 12:0.38049308 
1.294013835296133 1:0.36655438 2:0.15577855 3:-0.83752591 4:0.17371108 5:0.26278488 6:0.22226389 7:0.25718688 8:-0.517247 9:-0.44644931 10:0.091747532 11:0.56419927 12:0.42426407 
5.417494293887108 1:-0.18386557 2:0.52438967 3:0.96676365 4:-0.98184179 5:0.036636299 6:0.78016194 7:0.43483363 8:0.4557064 9:0.57223208 10:-0.63827757 11:-0.13913637 12:0.12918064 
35.15886293767511 1:-0.83746149 2:-0.17341402 3:0.11951305 4:0.066268737 5:0.076306807 6:0.6393786 7:-0.70127559 8:-0.22273479 9:-0.56246293 10:0.63109459 11:0.29068849 12:0.69773049 
6.199613229147944 1:-0.97068863 2:0.32730589 3:0.028321293 4:-0.2236611 5:-1 6:-0.18448872 7:-0.74992372 8:0.5061871 9:-0.080793581 10:0.50598829 11:-0.7019748 12:0.015426342 
1.019284121374293 1:-0.98208452 2:0.37909364 3:-0.026257917 4:-0.1515751 5:-1 6:-0.61185877 7:-0.76412014 8:0.25943328 9:0.081674207 10:0.55346859 11:-0.55305431 12:-0.28931036 
42.46192054115284 1:-0.91272537 2:0.022450002 3:-0.072377853 4:-1 5:-1 6:-0.17014131 7:-0.64328291 8:-0.24876387 9:-0.23374071 10:0.023447868 11:-0.24634796 12:0.10869162 
100.7497247888066 1:-0.9083684 2:0.065821042 3:0.038081336 4:-1 5:-1 6:0.36403782 7:-0.50000288 8:0.30559153 9:-0.41393307 10:-0.06578792 11:-0.58091167 12:0.47670797 
71.70941114998996 1:-0.93431184 2:0.055797253 3:0.057383928 4:-1 5:-1 6:0.47024245 7:-0.61363511 8:0.007484545 9:-0.45979246 10:0.004983014 11:-0.4009986 12:0.55552519 
2.450007589312008 1:-0.96109521 2:0.37121271 3:-0.086323739 4:-0.12487715 5:-0.62604839 6:0.46581847 7:-0.71127816 8:0.2265373 9:-0.40959834 10:0.53486855 11:-0.34115532 12:0.52505943 
25.96145689530098 1:0.18475915 2:-0.72407602 3:0.32268671 4:0.0764863 5:-0.70396996 6:0.63659924 7:0.063043957 8:-0.62266503 9:-0.20887658 10:0.16054783 11:0.13133675 12:0.49728312 
22.20482802701784 1:-0.90046199 2:-0.022673477 3:-0.0053092191 4:-0.099696537 5:-0.73640432 6:0.60566106 7:-0.66406743 8:-0.48489859 9:-0.5650743 10:0.51896239 11:0.031535252 12:0.68237449 
6.220298095623396 1:-0.90132293 2:0.020045238 3:-0.010676408 4:-0.29966714 5:-0.50693075 6:0.57417254 7:-0.70214295 8:0.39406047 9:-0.45121499 10:0.43549026 11:-0.38108488 12:0.60256073 
0.7678231721592876 1:-0.93876355 2:0.29974401 3:0.24297968 4:0.41309742 5:0.83718061 6:1 7:-0.99182324 8:-0.74229647 9:-0.77024035 10:0.99795258 11:0.99500603 12:0.99466568 
4.780842924067795 1:-0.054263773 2:-0.57235594 3:0.10745126 4:0.34219213 5:0.16529147 6:0.12328613 7:-0.44040659 8:-0.71449406 9:-0.009368212 10:0.61652071 11:0.63317303 12:0.12880514 
8.337299119860356 1:0.39856205 2:-0.49284079 3:-0.25249193 4:0.39650719 5:-0.99259135 6:0.1616614 7:-0.079432042 8:-0.56752801 9:-0.56222486 10:0.42081658 11:-0.050163146 12:0.45920026 
15.38594710805812 1:0.30017753 2:-0.52262342 3:-0.28534855 4:0.34275972 5:-1 6:0.22289463 7:0.19062612 8:-0.50265977 9:-0.67781799 10:0.22381344 11:-0.093117096 12:0.55483368 
28.54711663173471 1:-0.89101364 2:-0.12120506 3:-0.057696985 4:-0.90899945 5:-0.82284597 6:0.24591485 7:-0.59950484 8:-0.25499755 9:-0.5365704 10:0.0449596 11:-0.15160703 12:0.4868026 
24.64845020391408 1:-0.90191983 2:-0.15356721 3:-0.081922563 4:-0.78326388 5:-0.12320192 6:0.17587197 7:-0.58009595 8:-0.30652121 9:-0.57081602 10:0.10026687 11:0.23879593 12:0.4711284 
3.660658831972854 1:1 2:-1 3:-0.78494905 4:1 5:0.5438914 6:0.7473722 7:-0.4858987 8:-1 9:-1 10:0.99744373 11:0.99991399 12:0.99794531 
1.315208672942268 1:-0.74995173 2:-0.31256293 3:-0.27807165 4:0.080401154 5:-0.29181558 6:0.32713718 7:-0.63252685 8:-0.50371208 9:-0.58147972 10:0.59585249 11:0.27121145 12:0.55261799 
0.2534488499669338 1:-0.75016899 2:-0.31504433 3:-0.25668109 4:0.089253529 5:-0.53332499 6:0.19255615 7:-0.63701618 8:-0.51856247 9:-0.55937464 10:0.60339342 11:0.15614495 12:0.47301313 
9.328733566293364 1:-0.7674617 2:-0.2853247 3:-0.26767902 4:0.035798043 5:-1 6:-0.25709772 7:-0.62591893 8:-0.5038989 9:-0.61164021 10:0.56782941 11:-0.092369254 12:0.27804565 
45.58333815522298 1:-0.76113341 2:-0.32731383 3:-0.21542007 4:-0.83714437 5:-1 6:0.11270494 7:-0.52506276 8:-0.028296787 9:-0.054402464 10:0.037111454 11:-0.37940391 12:0.14887796 
13.42381506938711 1:-0.87812718 2:0.076201758 3:-0.10330605 4:-1 5:-1 6:-0.51964513 7:0.79693878 8:0.73420774 9:1 10:-0.87353208 11:-0.83958946 12:-0.76028752 
228.1005186899044 1:-0.75854622 2:-0.16398448 3:-0.16167338 4:-1 5:-1 6:-1 7:1 8:1 9:1 10:-1 11:-1 12:-1 
1.123918240224169 1:0.24216553 2:0.15679643 3:-1 4:0.4024846 5:0.12082823 6:-0.30043003 7:0.1908278 8:-0.57418363 9:-0.68926236 10:0.25570084 11:0.52565867 12:0.3001208 
0.7658108647282654 1:-0.86160964 2:0.066702268 3:0.089358136 4:0.4081006 5:0.59772707 6:0.8745418 7:-0.89122868 8:-0.7232857 9:-0.73715204 10:0.93262326 11:0.86055951 12:0.91343011 
18.08323962356826 1:-0.82291941 2:-0.31330751 3:0.022620801 4:-0.72627675 5:-0.47487327 6:0.48054953 7:-0.60935869 8:-0.13623295 9:-0.57849175 10:0.14903745 11:-0.044579651 12:0.62749351 
6.718399394970665 1:-0.80305986 2:-0.33530951 3:0.026770865 4:-0.55499474 5:-0.65116272 6:0.59853929 7:-0.62823191 8:-0.49277523 9:-0.56997202 10:0.25260034 11:0.080065419 12:0.68157779 
5.50114550814559 1:-0.79775394 2:-0.25740386 3:-0.0095270954 4:-0.39323064 5:-0.24926291 6:-0.30267393 7:-0.66573207 8:0.12781877 9:-0.13710466 10:0.36266254 11:-0.088075833 12:-0.011850118 
1.689885696404794 1:-0.018643558 2:0.6452698 3:-0.90789702 4:0.28794661 5:0.33515466 6:-0.25787503 7:-0.3385882 8:-0.41644932 9:-0.71613801 10:0.52403149 11:0.54053205 12:0.33648744 
1.93715958248048 1:-0.075342955 2:0.056847122 3:1 4:0.22751956 5:0.2378071 6:0.72568515 7:-0.28371803 8:-0.56449684 9:-0.23288085 10:0.45746859 11:0.57988789 12:0.55525366 
36.77932252343543 1:-0.92017806 2:0.15206649 3:-0.21031508 4:-0.68953824 5:-0.85403971 6:-0.21921993 7:-0.60920583 8:0.32994397 9:-0.56471787 10:0.16863439 11:-0.52064981 12:0.27053177 
30.39255514310026 1:-0.91875536 2:0.22434263 3:-0.1814888 4:-1 5:-1 6:-0.32721639 7:-0.51297235 8:0.69751754 9:0.20919058 10:-0.057710441 11:-0.81744626 12:-0.21905325 
-3.790975222353711 1:-0.81559271 2:-0.032732794 3:0.51761598 4:-1 5:-1 6:-0.5240538 7:1 8:0.81860103 9:1 10:-1 11:-0.88706515 12:-0.73511818 
-0.4411578761941558 1:-0.33075498 2:-0.093966456 3:0.26797224 4:-0.50340732 5:-1 6:0.58335183 7:-0.12032613 8:0.34269662 9:0.71287842 10:-0.036073549 11:-0.59077794 12:0.037631534 
-4.01849221548019 1:-0.47480805 2:-0.37728535 3:0.20700674 4:-0.020523889 5:1 6:0.61191391 7:-0.87544333 8:-0.67460885 9:-0.84449462 10:0.68187595 11:1 12:0.90205644 
-1.923278102224337 1:-0.4403624 2:-0.42957913 3:0.3050197 4:-0.38759651 5:-0.21027096 6:0.29354579 7:-0.76623936 8:-0.45625215 9:-0.86401588 10:0.44113903 11:0.28468318 12:0.73550878 
-20.12848356782936 1:-0.98048738 2:0.36111465 3:-0.1392113 4:0.27365504 5:-0.19694721 6:0.22072645 7:-0.79347508 8:0.43528638 9:-0.56264152 10:0.76358437 11:-0.26399008 12:0.53077938 
-19.08232421899729 1:-0.99426424 2:0.4370424 3:-0.039215419 4:-0.074787357 5:0.11602381 6:0.25144074 7:-0.98141618 8:0.10456686 9:-0.094041939 10:0.72642518 11:0.091731761 12:0.29255825 
-4.992943543801732 1:-1 2:0.3324876 3:-0.14280356 4:-1 5:-1 6:-1 7:0.57574705 8:0.93282941 9:0.70827788 10:-0.72159084 11:-0.95818113 12:-0.84105627 
-13.53259553625339 1:-0.9767241 2:0.15819736 3:-0.1688994 4:-1 5:-1 6:-0.24581168 7:-0.3601109 8:0.62436869 9:-0.31838339 10:-0.10744915 11:-0.76614053 12:0.13805034 
-7.489156847235223 1:-0.92818278 2:-0.10795705 3:0.059573081 4:0.46779975 5:0.11300115 6:0.78603949 7:-1 8:-0.48917282 9:-0.80586891 10:0.98853603 11:0.45993353 12:0.97791874 
-0.7639942595054683 1:-0.023857676 2:-0.44187722 3:-0.18186143 4:-1 5:-1 6:-1 7:1 8:-0.037850542 9:0.52394434 10:-1 11:-0.35385797 12:-0.7406228 
-24.12735867855911 1:-0.86501878 2:-0.3593229 3:-0.13572116 4:-0.79016315 5:-0.6055777 6:-0.044403123 7:-0.70502904 8:-0.43583432 9:-0.32770919 10:0.21554863 11:0.082732869 12:0.25522285 
-2.176889823982259 1:-0.97149249 2:0.37784928 3:-0.042018343 4:0.13856558 5:-1 6:-0.58419936 7:-0.75850646 8:0.41268516 9:-0.27542445 10:0.6784146 11:-0.6343512 12:-0.073681052 
-1.402971055379475 1:-0.34431193 2:0.45316653 3:0.92102324 4:-0.86570285 5:0.17626503 6:1 7:0.43598051 8:0.022607765 9:-0.024642255 10:-0.56801406 11:0.1715959 12:0.67134725 
-41.10607295412813 1:-0.81364408 2:-0.34950333 3:-0.075395202 4:-1 5:-1 6:0.37182708 7:-0.51204651 8:0.25320768 9:-0.39032396 10:-0.0077438534 11:-0.53506417 12:0.52098592 
-3.657759874709939 1:-0.61065988 2:0.73119189 3:0.27207269 4:-1 5:-1 6:-0.39501402 7:-0.02969648 8:1 9:0.17324683 10:-0.32427829 11:-1 12:-0.21284927 
-2.781239892392693 1:0.18072702 2:-0.24792079 3:-0.085296355 4:0.19036088 5:-1 6:0.28186335 7:0.35178911 8:0.11206508 9:-0.6661662 10:-0.02634207 11:-0.44719201 12:0.62120939 
-13.85452596375017 1:-0.94787736 2:-0.010602078 3:-0.17420961 4:-0.20781629 5:-1 6:-0.2809089 7:-0.75394352 8:0.71653877 9:-0.22579298 10:0.51587682 11:-0.82352352 12:0.068069884 
-2.199302607968162 1:0.41673492 2:-0.40063468 3:-0.20723006 4:0.25497522 5:-1 6:-0.09841933 7:0.44604223 8:-0.33202459 9:-0.40322423 10:-0.05843281 11:-0.17071194 12:0.26630491 
-3.332414080284969 1:-0.36503648 2:-0.48849759 3:0.047154579 4:0.048314733 5:-1 6:-0.11371825 7:-0.73959272 8:0.13662413 9:-0.39566793 10:0.62443324 11:-0.46248191 12:0.25367347 
-25.70688983141039 1:0.32120165 2:-0.39140834 3:-0.002693173 4:0.47974291 5:-1 6:0.092178317 7:0.034000361 8:-0.61500179 9:-0.78016571 10:0.31549098 11:0.0054632034 12:0.57775481 
-39.2530249788875 1:-0.95232406 2:-0.0059082232 3:-0.087197163 4:-0.63050254 5:-0.19224818 6:0.45222199 7:-0.63506541 8:0.10212378 9:-0.66411484 10:0.24317577 11:-0.054321164 12:0.71490265 
-59.42521451253728 1:-0.96075916 2:0.10643458 3:-0.043794146 4:-0.01845009 5:0.10190958 6:0.27841834 7:-0.75490773 8:-0.21283839 9:-0.73247005 10:0.6037316 11:0.28258434 12:0.65541752 
-0.8391641742956983 1:-0.22862272 2:0.11591396 3:-0.52715995 4:-1 5:-1 6:-1 7:1 8:0.98008184 9:-0.098076024 10:-1 11:-0.98759941 12:-0.40171727 
-22.14515240867934 1:-0.89395054 2:-0.10982716 3:0.1396879 4:-1 5:-1 6:-1 7:1 8:1 9:1 10:-1 11:-1 12:-1 
-13.91283012132606 1:-0.98165053 2:0.23703601 3:-0.056684097 4:-0.89133235 5:-1 6:0.3947926 7:-0.82878899 8:0.00077289043 9:-0.33446448 10:0.25016559 11:-0.37790404 12:0.50333225 
-2.91461675777142 1:-0.88431075 2:-0.050842751 3:0.11908989 4:-1 5:-1 6:0.17872717 7:-0.65867142 8:-0.099347367 9:0.41072128 10:0.088476374 11:-0.31557146 12:-0.022927967 
-28.07837157127488 1:-0.82687856 2:-0.19291961 3:-0.32440108 4:-1 5:-0.80765702 6:-0.16020362 7:-0.50960796 8:-0.041501712 9:0.19284425 10:-0.0093441162 11:-0.25950768 12:-0.092846097 
-3.772074694541821 1:0.22959885 2:-0.3986962 3:-0.029934052 4:0.018210922 5:-0.017940018 6:0.86145306 7:0.17160859 8:-0.99769082 9:-0.27170202 10:0.012606256 11:0.71384192 12:0.72885032 
-0.1457961571870453 1:0.10787141 2:-0.18390221 3:0.61589875 4:-1 5:-1 6:-0.64810304 7:0.68418858 8:-0.026430066 9:0.88116467 10:-0.79275385 11:-0.3609681 12:-0.73940921 
-25.95247423840022 1:-0.98740635 2:0.16374925 3:-0.11122575 4:-0.34917628 5:-1 6:0.4416585 7:-0.42950665 8:0.032209166 9:-0.50701899 10:0.23785997 11:-0.39747555 12:0.62343058 
-7.279247657739404 1:-0.94762656 2:0.1685737 3:-0.34821975 4:-1 5:-1 6:-0.21894356 7:-0.35137585 8:0.69797235 9:0.72672249 10:-0.11318138 11:-0.81196449 12:-0.41641869 
-9.270449088440964 1:0.13473794 2:-0.76737751 3:0.072234297 4:0.27543252 5:-1 6:0.48925581 7:0.44192088 8:-0.8513212 9:-0.34130936 10:-0.046305608 11:0.15259026 12:0.55963397 
-2.061991534719668 1:0.38419249 2:-0.44548744 3:-0.51818412 4:-0.089081763 5:0.36675664 6:-0.32431994 7:-0.41447232 8:-0.59591923 9:-0.81054738 10:0.34779341 11:0.64786756 12:0.36251132 
-8.862734304134987 1:-0.89458222 2:-0.031663202 3:-0.085066871 4:-1 5:-1 6:-1 7:1 8:1 9:0.74483427 10:-1 11:-1 12:-0.86097388 
-63.89516302868618 1:-0.9631098 2:0.21266219 3:0.038881019 4:-1 5:-1 6:0.30408572 7:-0.39226781 8:0.091893479 9:-0.53972305 10:-0.086346695 11:-0.43463364 12:0.56468487 
-18.41355799762392 1:0.077618145 2:-0.67797322 3:-0.016929595 4:-0.051361174 5:-0.50509332 6:0.5509938 7:0.17301771 8:-0.23369855 9:-0.2591755 10:-0.020363348 11:0.004990979 12:0.54924312 
-5.594236245893052 1:0.12038108 2:-0.48911062 3:0.17176027 4:0.407779 5:-1 6:0.07634215 7:0.0080128463 8:-0.68601018 9:-0.050433561 10:0.29939831 11:0.0496714 12:0.17134948 
-0.1515003992900244 1:-0.11472044 2:-0.17183429 3:-0.19537031 4:0.29634512 5:-0.76084752 6:-0.60407536 7:-0.16064789 8:0.36837795 9:-0.07095744 10:0.35875277 11:-0.49228105 12:-0.19614589 
-1.856460637305881 1:-0.74284177 2:-0.41680563 3:-0.037569418 4:0.31262653 5:-1 6:-0.038001964 7:-0.73072869 8:-0.28988647 9:-0.21707755 10:0.74035832 11:-0.19694617 12:0.19850808 
-7.288702091375138 1:-0.81229466 2:-0.17228314 3:-0.19872761 4:-0.46643954 5:-1 6:0.25164795 7:-0.68370607 8:-0.16218543 9:-0.75475632 10:0.3506628 11:-0.27644991 12:0.65266139 
-9.694568398854738 1:-0.70245776 2:-0.41743677 3:-0.34865689 4:-0.68335385 5:-0.61138596 6:0.23165838 7:-0.61796582 8:-0.67692346 9:-0.69405606 10:0.20761114 11:0.23004897 12:0.60846414 
-0.1090786833290531 1:-0.22604957 2:-0.71285246 3:-0.41843201 4:-0.057543417 5:-0.093871091 6:0.20244739 7:0.016451937 8:-0.056246211 9:-0.3082524 10:0.079532875 11:0.091370801 12:0.38200341 
-5.517278734459945 1:-0.27109993 2:0.18028805 3:0.93250822 4:-0.82944045 5:-1 6:0.432974 7:-0.40072885 8:0.11457142 9:0.17382679 10:-0.002234579 11:-0.44875241 12:0.24764098 
-56.49004875807244 1:-0.78764367 2:-0.26968072 3:0.14055505 4:-0.038774234 5:-0.33646133 6:0.69659222 7:-0.60768056 8:-0.43740598 9:-0.21074675 10:0.49775484 11:0.21254096 12:0.60388785 
-37.41510033725607 1:-0.82453253 2:-0.2128578 3:0.12327768 4:-1 5:-1 6:0.092549161 7:-0.59447277 8:-0.1777482 9:-0.50846522 10:0.046347047 11:-0.26676089 12:0.42992617 
-33.41386224503843 1:-0.91710637 2:-0.14628921 3:0.16416077 4:-0.97608376 5:-1 6:-0.092812915 7:-0.65579642 8:0.14889192 9:-0.18489063 10:0.097605524 11:-0.47011956 12:0.15046682 
-1.892699293949639 1:-0.44784874 2:0.12262346 3:-0.49436856 4:-1 5:-0.83563549 6:-1 7:-0.5080507 8:0.26210266 9:-0.27922603 10:-0.010366043 11:-0.46191849 12:-0.30301835 
-0.6830634314850373 1:-0.27554348 2:0.025235599 3:0.9602376 4:-1 5:-0.42843503 6:0.45209558 7:-0.031932307 8:-0.32488542 9:0.68284681 10:-0.32281106 11:0.098459192 12:-0.019054855 
-198.7206869571412 1:-0.81786082 2:-0.23944096 3:-0.19732498 4:-1 5:-1 6:-0.98329971 7:0.97932968 8:1 9:1 10:-0.98643543 11:-1 12:-0.99070566 
-14.957354969584 1:-0.92727446 2:0.080358086 3:-0.13099155 4:-0.88769133 5:-1 6:-0.42342826 7:-0.50327859 8:0.36703919 9:-0.5134002 10:0.038231692 11:-0.60593307 12:0.14545429 
-14.26055956655709 1:-0.91975298 2:0.056513846 3:-0.20370218 4:-0.79042812 5:-1 6:-0.14280512 7:-0.68198378 8:-0.091437594 9:-0.66652644 10:0.2003035 11:-0.3204959 12:0.38506181 
-70.24504486510608 1:-0.95507806 2:0.13645305 3:-0.14791271 4:-1 5:-1 6:0.43718421 7:-0.68251709 8:0.18257997 9:-0.20466525 10:0.10412471 11:-0.49109297 12:0.45620413 
-7.522046692475449 1:-0.92915785 2:0.064496387 3:-0.16011723 4:-1 5:-1 6:0.10858106 7:-0.42385873 8:1 9:-0.055603773 10:-0.065615663 11:-1 12:0.19210861 
